{"learner":{"attributes":{"scikit_learn":"{\"_estimator_type\": \"regressor\"}"},"feature_names":[],"feature_types":[],"gradient_booster":{"model":{"cats":{"enc":[],"feature_segments":[],"sorted_idx":[]},"gbtree_model_param":{"num_parallel_tree":"1","num_trees":"120"},"iteration_indptr":[0,1,2,3,4,5,6,7,8,9,10,11,12,13,14,15,16,17,18,19,20,21,22,23,24,25,26,27,28,29,30,31,32,33,34,35,36,37,38,39,40,41,42,43,44,45,46,47,48,49,50,51,52,53,54,55,56,57,58,59,60,61,62,63,64,65,66,67,68,69,70,71,72,73,74,75,76,77,78,79,80,81,82,83,84,85,86,87,88,89,90,91,92,93,94,95,96,97,98,99,100,101,102,103,104,105,106,107,108,109,110,111,112,113,114,115,116,117,118,119,120],"tree_info":[0,0,0,0,0,0,0,0,0,0,0,0,0,0,0,0,0,0,0,0,0,0,0,0,0,0,0,0,0,0,0,0,0,0,0,0,0,0,0,0,0,0,0,0,0,0,0,0,0,0,0,0,0,0,0,0,0,0,0,0,0,0,0,0,0,0,0,0,0,0,0,0,0,0,0,0,0,0,0,0,0,0,0,0,0,0,0,0,0,0,0,0,0,0,0,0,0,0,0,0,0,0,0,0,0,0,0,0,0,0,0,0,0,0,0,0,0,0,0,0],"trees":[{"base_weights":[2.2360866E-3,-1.1411113E5,2.5001878E5,-1.846501E5,-4.6632793E4,4.986723E4,3.5094553E5,-1.50098125E4,-2.0704975E4,-6.6384836E4,1.9504385E4,-9.199717E3,1.222485E5,3.0902146E4,5.2547137E4,-2.9617574E4,-8.316906E4,8.83938E3,-2.0464936E4,-4.1537617E4,2.0824365E4,8.156247E3,1.5128275E4,-5.875558E3,4.0400912E2,-1.062944E4,-5.5066045E3,-5.016238E3,3.7391199E3,-5.2083257E3,-1.5334755E3,-6.393802E1,2.6270225E3],"categories":[],"categories_nodes":[],"categories_segments":[],"categories_sizes":[],"default_left":[0,0,0,0,0,0,0,0,0,0,0,0,0,0,0,0,0,0,0,0,0,0,0,0,0,0,0,0,0,0,0,0,0],"id":0,"left_children":[1,3,5,7,9,11,13,-1,-1,15,17,19,21,-1,-1,23,25,-1,27,29,31,-1,-1,-1,-1,-1,-1,-1,-1,-1,-1,-1,-1],"loss_changes":[8.102499E12,9.195605E11,1.7803567E12,4.2447405E10,1.3323562E11,1.3366023E11,2.6931154E11,0E0,0E0,4.5671318E10,6.789208E10,1.8341478E10,4.1990226E9,0E0,0E0,2.5736026E10,2.859103E10,0E0,2.93665E10,1.6882504E9,1.1856814E9,0E0,0E0,0E0,0E0,0E0,0E0,0E0,0E0,0E0,0E0,0E0,0E0],"parents":[2147483647,0,0,1,1,2,2,3,3,4,4,5,5,6,6,9,9,10,10,11,11,12,12,15,15,16,16,18,18,19,19,20,20],"right_children":[2,4,6,8,10,12,14,-1,-1,16,18,20,22,-1,-1,24,26,-1,28,30,32,-1,-1,-1,-1,-1,-1,-1,-1,-1,-1,-1,-1],"split_conditions":[1.2472117E0,-5.6913817E-1,8.855178E-2,5.7293072E-2,1.2862386E0,-6.0876936E-1,8.507483E-1,-1.50098125E4,-2.0704975E4,-3.4786174E-1,-3.4786174E-1,-1.0134118E0,-3.310883E-1,3.0902146E4,5.2547137E4,7.534153E-2,4.4967493E-1,8.83938E3,4.4967493E-1,-1.1383349E0,-9.3771535E-1,8.156247E3,1.5128275E4,-5.875558E3,4.0400912E2,-1.062944E4,-5.5066045E3,-5.016238E3,3.7391199E3,-5.2083257E3,-1.5334755E3,-6.393802E1,2.6270225E3],"split_indices":[15,5,6,16,6,6,6,0,0,15,15,6,6,0,0,6,15,0,15,6,6,0,0,0,0,0,0,0,0,0,0,0,0],"split_type":[0,0,0,0,0,0,0,0,0,0,0,0,0,0,0,0,0,0,0,0,0,0,0,0,0,0,0,0,0,0,0,0,0],"sum_hessian":[2.82E2,1.94E2,8.8E1,9.4E1,1E2,3E1,5.8E1,4E1,5.4E1,7.7E1,2.3E1,1.7E1,1.3E1,4.9E1,9E0,2.5E1,5.2E1,8E0,1.5E1,8E0,9E0,7E0,6E0,1.3E1,1.2E1,2.7E1,2.5E1,1E1,5E0,5E0,3E0,2E0,7E0],"tree_param":{"num_deleted":"0","num_feature":"25","num_nodes":"33","size_leaf_vector":"1"}},{"base_weights":[1.865595E2,-1.029552E5,2.2616922E5,-1.6724225E5,-4.2700902E4,3.1227705E4,3.1055944E5,-1.3627762E5,-1.8672123E4,-7.4672086E4,-6.5959014E3,-1.5685828E4,8.6565305E4,2.8080522E5,5.4146465E4,-1.3786122E4,-3.725895E3,-4.2171383E4,-9.111043E4,5.7982273E4,-3.408381E4,-3.8132945E4,1.1527908E4,3.2586384E3,9.341726E3,1.8425922E4,2.974265E4,-5.32997E3,-1.3890271E3,-1.0608956E4,-6.900961E3,2.3698083E3,8.501868E3,-5.875853E3,-1.1101631E2,-4.7742983E3,-1.4184652E3,-5.9675518E1,1.5668922E3],"categories":[],"categories_nodes":[],"categories_segments":[],"categories_sizes":[],"default_left":[0,0,0,0,0,0,0,0,0,0,0,0,0,0,0,0,0,0,0,0,0,0,0,0,0,0,0,0,0,0,0,0,0,0,0,0,0,0,0],"id":1,"left_children":[1,3,5,7,9,11,13,15,-1,17,19,21,23,25,-1,-1,-1,27,29,31,33,35,37,-1,-1,-1,-1,-1,-1,-1,-1,-1,-1,-1,-1,-1,-1,-1,-1],"loss_changes":[6.619519E12,7.48205E11,1.4544551E12,3.1250973E10,1.17248066E11,7.404815E10,2.7391898E11,1.1356078E9,0E0,2.5007686E10,8.8957075E10,1.0213512E10,1.7640653E9,3.6665557E10,0E0,0E0,0E0,5.554082E9,4.2655744E9,1.1889037E10,2.8411314E10,1.3940787E9,4.1101766E8,0E0,0E0,0E0,0E0,0E0,0E0,0E0,0E0,0E0,0E0,0E0,0E0,0E0,0E0,0E0,0E0],"parents":[2147483647,0,0,1,1,2,2,3,3,4,4,5,5,6,6,7,7,9,9,10,10,11,11,12,12,13,13,17,17,18,18,19,19,20,20,21,21,22,22],"right_children":[2,4,6,8,10,12,14,16,-1,18,20,22,24,26,-1,-1,-1,28,30,32,34,36,38,-1,-1,-1,-1,-1,-1,-1,-1,-1,-1,-1,-1,-1,-1,-1,-1],"split_conditions":[1.2472117E0,-5.988881E-1,-1.5811922E-1,5.7293072E-2,6.6723305E-1,-7.048906E-1,1.297742E0,2.8570887E-1,-1.8672123E4,-3.4786174E-1,-3.4786174E-1,-1.0134118E0,-6.0876936E-1,5.147331E-1,5.4146465E4,-1.3786122E4,-3.725895E3,7.534153E-2,4.4967493E-1,9.7998583E-1,4.4967493E-1,-1.1383349E0,-9.3771535E-1,3.2586384E3,9.341726E3,1.8425922E4,2.974265E4,-5.32997E3,-1.3890271E3,-1.0608956E4,-6.900961E3,2.3698083E3,8.501868E3,-5.875853E3,-1.1101631E2,-4.7742983E3,-1.4184652E3,-5.9675518E1,1.5668922E3],"split_indices":[15,5,6,16,6,6,6,21,0,15,15,6,6,6,0,0,0,6,15,5,15,6,6,0,0,0,0,0,0,0,0,0,0,0,0,0,0,0,0],"split_type":[0,0,0,0,0,0,0,0,0,0,0,0,0,0,0,0,0,0,0,0,0,0,0,0,0,0,0,0,0,0,0,0,0,0,0,0,0,0,0],"sum_hessian":[2.82E2,1.94E2,8.8E1,9.3E1,1.01E2,2.7E1,6.1E1,3.9E1,5.4E1,5.3E1,4.8E1,1.5E1,1.2E1,5.6E1,5E0,3.8E1,1E0,1.9E1,3.4E1,1.4E1,3.4E1,8E0,7E0,2E0,1E1,1E1,4.6E1,1.3E1,6E0,1.8E1,1.6E1,7E0,7E0,1.9E1,1.5E1,5E0,3E0,2E0,5E0],"tree_param":{"num_deleted":"0","num_feature":"25","num_nodes":"39","size_leaf_vector":"1"}},{"base_weights":[3.6119608E2,-9.294444E4,2.0479083E5,-1.503211E5,-3.805606E4,2.838761E4,2.8115372E5,-1.6133101E4,-1.0645499E4,-5.250664E4,2.707311E4,-1.4410092E4,7.887804E4,2.5356975E5,4.9634258E4,-1.9325678E4,-6.81595E4,8.12782E3,-4.1967896E3,-3.5007734E4,1.056352E4,5.079776E3,9.569003E3,1.715708E4,2.6944838E4,-4.3739307E3,1.6870764E3,-8.475823E3,-4.57472E3,-3.2595613E3,3.4367773E3,-4.3764404E3,-1.3120801E3,-5.5697395E1,1.436318E3],"categories":[],"categories_nodes":[],"categories_segments":[],"categories_sizes":[],"default_left":[0,0,0,0,0,0,0,0,0,0,0,0,0,0,0,0,0,0,0,0,0,0,0,0,0,0,0,0,0,0,0,0,0,0,0],"id":2,"left_children":[1,3,5,7,9,11,13,-1,-1,15,17,19,21,23,-1,25,27,-1,29,31,33,-1,-1,-1,-1,-1,-1,-1,-1,-1,-1,-1,-1,-1,-1],"loss_changes":[5.4171E12,6.083952E11,1.1909076E12,2.8706865E10,9.64781E10,6.164112E10,2.4215971E11,0E0,0E0,4.179106E10,3.254587E10,8.600165E9,1.2762726E9,2.7986493E10,0E0,2.5481132E10,1.6955408E10,0E0,1.5357685E10,1.1506852E9,3.460327E8,0E0,0E0,0E0,0E0,0E0,0E0,0E0,0E0,0E0,0E0,0E0,0E0,0E0,0E0],"parents":[2147483647,0,0,1,1,2,2,3,3,4,4,5,5,6,6,9,9,10,10,11,11,12,12,13,13,15,15,16,16,18,18,19,19,20,20],"right_children":[2,4,6,8,10,12,14,-1,-1,16,18,20,22,24,-1,26,28,-1,30,32,34,-1,-1,-1,-1,-1,-1,-1,-1,-1,-1,-1,-1,-1,-1],"split_conditions":[1.2472117E0,-5.6913817E-1,-1.5811922E-1,-9.055632E-1,1.5616616E0,-7.048906E-1,1.297742E0,-1.6133101E4,-1.0645499E4,-3.4786174E-1,-3.4786174E-1,-1.0134118E0,-5.0758886E-1,5.189576E-1,4.9634258E4,3.2407635E-1,4.4967493E-1,8.12782E3,4.4967493E-1,-1.1383349E0,-9.3771535E-1,5.079776E3,9.569003E3,1.715708E4,2.6944838E4,-4.3739307E3,1.6870764E3,-8.475823E3,-4.57472E3,-3.2595613E3,3.4367773E3,-4.3764404E3,-1.3120801E3,-5.5697395E1,1.436318E3],"split_indices":[15,5,6,5,6,6,6,0,0,15,15,6,6,6,0,6,15,0,15,6,6,0,0,0,0,0,0,0,0,0,0,0,0,0,0],"split_type":[0,0,0,0,0,0,0,0,0,0,0,0,0,0,0,0,0,0,0,0,0,0,0,0,0,0,0,0,0,0,0,0,0,0,0],"sum_hessian":[2.82E2,1.94E2,8.8E1,9.4E1,1E2,2.7E1,6.1E1,7.3E1,2.1E1,8.2E1,1.8E1,1.5E1,1.2E1,5.6E1,5E0,2.7E1,5.5E1,6E0,1.2E1,8E0,7E0,6E0,6E0,1.1E1,4.5E1,1.6E1,1.1E1,3E1,2.5E1,7E0,5E0,5E0,3E0,2E0,5E0],"tree_param":{"num_deleted":"0","num_feature":"25","num_nodes":"35","size_leaf_vector":"1"}},{"base_weights":[5.7195197E2,-8.382544E4,1.8548116E5,-1.3455497E5,-3.3274023E4,3.7257594E4,2.6021758E5,-1.0841038E5,-1.5254882E4,-6.026446E4,-3.3411772E3,-1.3238324E4,8.5424914E4,2.337584E4,4.549807E4,-1.0955952E4,-3.0073254E3,-3.372073E4,-7.3325234E4,4.8757918E4,-2.6227803E4,-3.2139021E4,9.67975E3,5.6207017E3,1.149612E4,-4.3065903E3,-1.1548162E3,-8.665358E3,-5.4899624E3,2.0148303E3,7.12728E3,-4.695012E3,3.150477E2,-4.011737E3,-1.2136742E3,-5.1983856E1,1.3166254E3],"categories":[],"categories_nodes":[],"categories_segments":[],"categories_sizes":[],"default_left":[0,0,0,0,0,0,0,0,0,0,0,0,0,0,0,0,0,0,0,0,0,0,0,0,0,0,0,0,0,0,0,0,0,0,0,0,0],"id":3,"left_children":[1,3,5,7,9,11,13,15,-1,17,19,21,23,-1,-1,-1,-1,25,27,29,31,33,35,-1,-1,-1,-1,-1,-1,-1,-1,-1,-1,-1,-1,-1,-1],"loss_changes":[4.432004E12,4.9559044E11,9.7622006E11,2.909497E10,7.978079E10,7.653072E10,1.9768777E11,5.760287E8,0E0,1.5554888E10,5.8512687E10,7.241779E9,7.3462006E9,0E0,0E0,0E0,0E0,3.4395914E9,3.5925524E9,8.2261033E9,2.084664E10,9.493729E8,2.913314E8,0E0,0E0,0E0,0E0,0E0,0E0,0E0,0E0,0E0,0E0,0E0,0E0,0E0,0E0],"parents":[2147483647,0,0,1,1,2,2,3,3,4,4,5,5,6,6,7,7,9,9,10,10,11,11,12,12,17,17,18,18,19,19,20,20,21,21,22,22],"right_children":[2,4,6,8,10,12,14,16,-1,18,20,22,24,-1,-1,-1,-1,26,28,30,32,34,36,-1,-1,-1,-1,-1,-1,-1,-1,-1,-1,-1,-1,-1,-1],"split_conditions":[1.2472117E0,-5.317607E-1,8.855178E-2,5.7293072E-2,6.9168925E-1,-7.048906E-1,1.297742E0,2.8570887E-1,-1.5254882E4,-3.4786174E-1,-3.4786174E-1,-1.0134118E0,-3.310883E-1,2.337584E4,4.549807E4,-1.0955952E4,-3.0073254E3,7.534153E-2,4.4967493E-1,9.7998583E-1,4.4967493E-1,-1.1383349E0,-9.3771535E-1,5.6207017E3,1.149612E4,-4.3065903E3,-1.1548162E3,-8.665358E3,-5.4899624E3,2.0148303E3,7.12728E3,-4.695012E3,3.150477E2,-4.011737E3,-1.2136742E3,-5.1983856E1,1.3166254E3],"split_indices":[15,5,6,16,6,6,6,21,0,15,15,6,6,0,0,0,0,6,15,5,15,6,6,0,0,0,0,0,0,0,0,0,0,0,0,0,0],"split_type":[0,0,0,0,0,0,0,0,0,0,0,0,0,0,0,0,0,0,0,0,0,0,0,0,0,0,0,0,0,0,0,0,0,0,0,0,0],"sum_hessian":[2.82E2,1.94E2,8.8E1,9.6E1,9.8E1,3E1,5.8E1,4.2E1,5.4E1,5.1E1,4.7E1,1.5E1,1.5E1,5.3E1,5E0,4.1E1,1E0,1.8E1,3.3E1,1.4E1,3.3E1,8E0,7E0,9E0,6E0,1.2E1,6E0,1.7E1,1.6E1,7E0,7E0,1.9E1,1.4E1,5E0,3E0,2E0,5E0],"tree_param":{"num_deleted":"0","num_feature":"25","num_nodes":"37","size_leaf_vector":"1"}},{"base_weights":[6.488798E2,-7.566891E4,1.6785472E5,-1.1786677E5,-2.614753E4,2.3494803E4,2.3034219E5,-1.3147097E4,-8.272376E3,-3.8893242E4,2.4199021E4,-1.2162041E4,6.557286E4,1.9935988E5,3.715142E4,-6.706491E3,-5.2646223E4,6.8202397E3,-1.3565662E3,-2.9505723E4,8.869855E3,2.3280303E3,7.1146025E3,1.2958893E4,2.10686E4,-2.176709E3,2.4253018E3,-6.6798125E3,-3.2513552E3,-2.563536E3,3.124125E3,-3.483806E3,-7.22837E2,-4.851823E1,1.2069066E3],"categories":[],"categories_nodes":[],"categories_segments":[],"categories_sizes":[],"default_left":[0,0,0,0,0,0,0,0,0,0,0,0,0,0,0,0,0,0,0,0,0,0,0,0,0,0,0,0,0,0,0,0,0,0,0],"id":4,"left_children":[1,3,5,7,9,11,13,-1,-1,15,17,19,21,23,-1,25,27,-1,29,31,33,-1,-1,-1,-1,-1,-1,-1,-1,-1,-1,-1,-1,-1,-1],"loss_changes":[3.624002E12,4.044089E11,7.974292E11,3.932396E10,5.9336114E10,4.2807878E10,1.9711289E11,0E0,0E0,3.1961383E10,2.1458633E10,6.09804E9,1.4078403E9,1.4579794E10,0E0,1.1252099E10,1.2358844E10,0E0,1.1089542E10,8.1729024E8,2.452855E8,0E0,0E0,0E0,0E0,0E0,0E0,0E0,0E0,0E0,0E0,0E0,0E0,0E0,0E0],"parents":[2147483647,0,0,1,1,2,2,3,3,4,4,5,5,6,6,9,9,10,10,11,11,12,12,13,13,15,15,16,16,18,18,19,19,20,20],"right_children":[2,4,6,8,10,12,14,-1,-1,16,18,20,22,24,-1,26,28,-1,30,32,34,-1,-1,-1,-1,-1,-1,-1,-1,-1,-1,-1,-1,-1,-1],"split_conditions":[1.2472117E0,-2.1759127E-1,-1.5811922E-1,-9.055632E-1,1.5616616E0,-7.048906E-1,8.507483E-1,-1.3147097E4,-8.272376E3,-3.4786174E-1,-3.4786174E-1,-1.0134118E0,-6.0876936E-1,3.6356983E-1,3.715142E4,7.098615E-1,4.4967493E-1,6.8202397E3,4.4967493E-1,5.8567715E-3,-9.3771535E-1,2.3280303E3,7.1146025E3,1.2958893E4,2.10686E4,-2.176709E3,2.4253018E3,-6.6798125E3,-3.2513552E3,-2.563536E3,3.124125E3,-3.483806E3,-7.22837E2,-4.851823E1,1.2069066E3],"split_indices":[15,6,6,5,6,6,6,0,0,15,15,6,6,6,0,6,15,0,15,1,6,0,0,0,0,0,0,0,0,0,0,0,0,0,0],"split_type":[0,0,0,0,0,0,0,0,0,0,0,0,0,0,0,0,0,0,0,0,0,0,0,0,0,0,0,0,0,0,0,0,0,0,0],"sum_hessian":[2.82E2,1.94E2,8.8E1,1.04E2,9E1,2.7E1,6.1E1,7.3E1,3.1E1,7.2E1,1.8E1,1.5E1,1.2E1,5.2E1,9E0,2.2E1,5E1,6E0,1.2E1,8E0,7E0,2E0,1E1,9E0,4.3E1,1.5E1,7E0,2.8E1,2.2E1,7E0,5E0,6E0,2E0,2E0,5E0],"tree_param":{"num_deleted":"0","num_feature":"25","num_nodes":"35","size_leaf_vector":"1"}},{"base_weights":[7.742821E2,-6.8223664E4,1.5194086E5,-1.1093152E5,-2.8196582E4,2.1373691E4,2.0845602E5,-8.927711E4,-1.2466325E4,-5.12305E4,-2.2368215E3,-1.113635E4,5.974192E4,1.8609888E5,3.8610613E4,-9.031327E3,-2.4433403E3,-2.7974123E4,-6.305613E4,4.0776816E4,-2.0607328E4,-2.7022549E4,8.127668E3,3.6895273E3,7.405401E3,1.2415494E4,1.9821256E4,-3.5616746E3,-8.692576E2,-7.2603804E3,-4.7180527E3,1.6838444E3,5.9618086E3,-3.7584734E3,1.9023868E2,-3.3871082E3,-9.994113E2,-4.5283855E1,1.1063309E3],"categories":[],"categories_nodes":[],"categories_segments":[],"categories_sizes":[],"default_left":[0,0,0,0,0,0,0,0,0,0,0,0,0,0,0,0,0,0,0,0,0,0,0,0,0,0,0,0,0,0,0,0,0,0,0,0,0,0,0],"id":5,"left_children":[1,3,5,7,9,11,13,15,-1,17,19,21,23,25,-1,-1,-1,27,29,31,33,35,37,-1,-1,-1,-1,-1,-1,-1,-1,-1,-1,-1,-1,-1,-1,-1,-1],"loss_changes":[2.962108E12,3.30219E11,6.522777E11,1.6821387E10,6.0876825E10,3.559118E10,1.7439444E11,4.808704E8,0E0,1.3087212E10,3.9559234E10,5.116143E9,1.5185428E9,1.816186E10,0E0,0E0,0E0,2.6376305E9,1.879638E9,5.7615626E9,1.3446979E10,7.1106714E8,2.0652426E8,0E0,0E0,0E0,0E0,0E0,0E0,0E0,0E0,0E0,0E0,0E0,0E0,0E0,0E0,0E0,0E0],"parents":[2147483647,0,0,1,1,2,2,3,3,4,4,5,5,6,6,7,7,9,9,10,10,11,11,12,12,13,13,17,17,18,18,19,19,20,20,21,21,22,22],"right_children":[2,4,6,8,10,12,14,16,-1,18,20,22,24,26,-1,-1,-1,28,30,32,34,36,38,-1,-1,-1,-1,-1,-1,-1,-1,-1,-1,-1,-1,-1,-1,-1,-1],"split_conditions":[1.2472117E0,-5.988881E-1,-1.5811922E-1,5.7293072E-2,6.6723305E-1,-7.048906E-1,1.297742E0,2.8570887E-1,-1.2466325E4,-3.4786174E-1,-3.4786174E-1,-1.0134118E0,-5.0758886E-1,5.189576E-1,3.8610613E4,-9.031327E3,-2.4433403E3,7.534153E-2,2.0811959E-1,9.7998583E-1,4.4967493E-1,-1.1383349E0,-9.3771535E-1,3.6895273E3,7.405401E3,1.2415494E4,1.9821256E4,-3.5616746E3,-8.692576E2,-7.2603804E3,-4.7180527E3,1.6838444E3,5.9618086E3,-3.7584734E3,1.9023868E2,-3.3871082E3,-9.994113E2,-4.5283855E1,1.1063309E3],"split_indices":[15,5,6,16,6,6,6,21,0,15,15,6,6,6,0,0,0,6,6,5,15,6,6,0,0,0,0,0,0,0,0,0,0,0,0,0,0,0,0],"split_type":[0,0,0,0,0,0,0,0,0,0,0,0,0,0,0,0,0,0,0,0,0,0,0,0,0,0,0,0,0,0,0,0,0,0,0,0,0,0,0],"sum_hessian":[2.82E2,1.94E2,8.8E1,9.3E1,1.01E2,2.7E1,6.1E1,3.9E1,5.4E1,5.3E1,4.8E1,1.5E1,1.2E1,5.6E1,5E0,3.8E1,1E0,1.9E1,3.4E1,1.4E1,3.4E1,8E0,7E0,6E0,6E0,1.1E1,4.5E1,1.3E1,6E0,1.9E1,1.5E1,7E0,7E0,1.9E1,1.5E1,5E0,3E0,2E0,5E0],"tree_param":{"num_deleted":"0","num_feature":"25","num_nodes":"39","size_leaf_vector":"1"}},{"base_weights":[8.4647845E2,-6.1587312E4,1.3763011E5,-9.227955E4,-1.6313735E4,2.7904893E4,1.9294962E5,-1.05512164E5,-6.1174438E4,1.8084236E4,-3.0510887E4,-5.8823965E3,6.9352484E4,1.714897E5,3.539306E4,-8.68337E3,-1.1242358E4,-3.761647E3,-7.236765E3,-5.9419443E3,4.7018992E4,-3.718161E4,1.4995004E4,-2.4807688E4,1.17386045E4,4.435829E3,8.800979E3,1.1495817E4,1.7882219E4,-1.1607728E3,1.1124446E3,2.3296882E3,5.7246357E3,-4.7443384E3,-2.3072427E3,-9.7301953E2,3.1776162E3,-3.104849E3,-9.244559E2,1.5716446E2,1.5871353E3],"categories":[],"categories_nodes":[],"categories_segments":[],"categories_sizes":[],"default_left":[0,0,0,0,0,0,0,0,0,0,0,0,0,0,0,0,0,0,0,0,0,0,0,0,0,0,0,0,0,0,0,0,0,0,0,0,0,0,0,0,0],"id":6,"left_children":[1,3,5,7,9,11,13,15,17,19,21,23,25,27,-1,-1,-1,-1,-1,29,31,33,35,37,39,-1,-1,-1,-1,-1,-1,-1,-1,-1,-1,-1,-1,-1,-1,-1,-1],"loss_changes":[2.4252737E12,2.6945631E11,5.34841E11,4.1291153E10,3.9620022E10,4.3820413E10,1.43128E11,5.654446E8,7.03429E9,1.6963983E10,1.7860297E10,6.2938936E9,2.6245775E9,1.8268815E9,0E0,0E0,0E0,0E0,0E0,1.482852E9,1.3350994E9,6.144631E9,3.6285284E9,5.8710784E8,3.9523085E8,0E0,0E0,0E0,0E0,0E0,0E0,0E0,0E0,0E0,0E0,0E0,0E0,0E0,0E0,0E0,0E0],"parents":[2147483647,0,0,1,1,2,2,3,3,4,4,5,5,6,6,7,7,8,8,9,9,10,10,11,11,12,12,13,13,19,19,20,20,21,21,22,22,23,23,24,24],"right_children":[2,4,6,8,10,12,14,16,18,20,22,24,26,28,-1,-1,-1,-1,-1,30,32,34,36,38,40,-1,-1,-1,-1,-1,-1,-1,-1,-1,-1,-1,-1,-1,-1,-1,-1],"split_conditions":[1.2472117E0,-1.6963113E-2,8.855178E-2,-9.1010207E-1,-3.4786174E-1,-6.0876936E-1,1.297742E0,5.7293072E-2,-3.4786174E-1,9.004511E-1,1.9866259E0,-1.0134118E0,-3.310883E-1,5.189576E-1,3.539306E4,-8.68337E3,-1.1242358E4,-3.761647E3,-7.236765E3,7.098615E-1,1.4185324E0,4.4967493E-1,4.4967493E-1,-1.1383349E0,-8.568882E-1,4.435829E3,8.800979E3,1.1495817E4,1.7882219E4,-1.1607728E3,1.1124446E3,2.3296882E3,5.7246357E3,-4.7443384E3,-2.3072427E3,-9.7301953E2,3.1776162E3,-3.104849E3,-9.244559E2,1.5716446E2,1.5871353E3],"split_indices":[15,6,6,6,15,6,6,16,15,6,5,6,6,6,0,0,0,0,0,6,6,15,15,6,6,0,0,0,0,0,0,0,0,0,0,0,0,0,0,0,0],"split_type":[0,0,0,0,0,0,0,0,0,0,0,0,0,0,0,0,0,0,0,0,0,0,0,0,0,0,0,0,0,0,0,0,0,0,0,0,0,0,0,0,0],"sum_hessian":[2.82E2,1.94E2,8.8E1,1.15E2,7.9E1,3E1,5.8E1,7.9E1,3.6E1,2.3E1,5.6E1,1.7E1,1.3E1,5.3E1,5E0,2.5E1,5.4E1,1.3E1,2.3E1,1.3E1,1E1,4.9E1,7E0,8E0,9E0,7E0,6E0,8E0,4.5E1,1E1,3E0,4E0,6E0,2.7E1,2.2E1,3E0,4E0,5E0,3E0,3E0,6E0],"tree_param":{"num_deleted":"0","num_feature":"25","num_nodes":"41","size_leaf_vector":"1"}},{"base_weights":[9.3129346E2,-5.5570965E4,1.24717914E5,-8.331818E4,-1.4642871E4,1.7758428E4,1.7101062E5,-9.5210016E4,-5.535425E4,1.6609393E4,-2.7544826E4,-9.513213E3,4.9957492E4,1.4879288E5,3.023813E4,-7.8484307E3,-1.0138563E4,-3.4123516E4,-6.5432417E3,-3.7035312E3,4.541784E4,-3.3604477E4,1.377108E4,-2.2774623E4,6.5950234E3,3.074459E3,6.203361E3,9.721418E3,1.5677101E4,-1.4116708E3,-3.6281594E3,-1.0552485E3,1.2104875E3,2.1950437E3,5.2339526E3,-4.286848E3,-2.086549E3,-9.000434E2,2.9234075E3,-2.6939988E3,-5.463901E2,-5.2743233E1,9.057081E2],"categories":[],"categories_nodes":[],"categories_segments":[],"categories_sizes":[],"default_left":[0,0,0,0,0,0,0,0,0,0,0,0,0,0,0,0,0,0,0,0,0,0,0,0,0,0,0,0,0,0,0,0,0,0,0,0,0,0,0,0,0,0,0],"id":7,"left_children":[1,3,5,7,9,11,13,15,17,19,21,23,25,27,-1,-1,-1,29,-1,31,33,35,37,39,41,-1,-1,-1,-1,-1,-1,-1,-1,-1,-1,-1,-1,-1,-1,-1,-1,-1,-1],"loss_changes":[1.986296E12,2.2022986E11,4.3764167E11,3.3304674E10,3.2714732E10,2.5062654E10,1.3597108E11,3.061842E8,5.6839946E9,1.4212618E10,1.4733283E10,3.5680858E9,1.1090248E9,7.3920676E9,0E0,0E0,0E0,9.229005E7,0E0,1.7518024E9,4.7546368E8,5.0062254E9,3.0800456E9,5.017513E8,1.4506416E8,0E0,0E0,0E0,0E0,0E0,0E0,0E0,0E0,0E0,0E0,0E0,0E0,0E0,0E0,0E0,0E0,0E0,0E0],"parents":[2147483647,0,0,1,1,2,2,3,3,4,4,5,5,6,6,7,7,8,8,9,9,10,10,11,11,12,12,13,13,17,17,19,19,20,20,21,21,22,22,23,23,24,24],"right_children":[2,4,6,8,10,12,14,16,18,20,22,24,26,28,-1,-1,-1,30,-1,32,34,36,38,40,42,-1,-1,-1,-1,-1,-1,-1,-1,-1,-1,-1,-1,-1,-1,-1,-1,-1,-1],"split_conditions":[1.2472117E0,-1.6963113E-2,-1.5811922E-1,-9.1010207E-1,-3.4786174E-1,-7.048906E-1,1.0540471E0,5.7293072E-2,-3.4786174E-1,6.156006E-1,1.9866259E0,-1.0134118E0,-5.0758886E-1,3.6356983E-1,3.023813E4,-7.8484307E3,-1.0138563E4,-1.1543694E0,-6.5432417E3,7.098615E-1,1.4185324E0,4.4967493E-1,4.4967493E-1,5.8567715E-3,-9.3771535E-1,3.074459E3,6.203361E3,9.721418E3,1.5677101E4,-1.4116708E3,-3.6281594E3,-1.0552485E3,1.2104875E3,2.1950437E3,5.2339526E3,-4.286848E3,-2.086549E3,-9.000434E2,2.9234075E3,-2.6939988E3,-5.463901E2,-5.2743233E1,9.057081E2],"split_indices":[15,6,6,6,15,6,6,16,15,5,5,6,6,6,0,0,0,1,0,6,6,15,15,1,6,0,0,0,0,0,0,0,0,0,0,0,0,0,0,0,0,0,0],"split_type":[0,0,0,0,0,0,0,0,0,0,0,0,0,0,0,0,0,0,0,0,0,0,0,0,0,0,0,0,0,0,0,0,0,0,0,0,0,0,0,0,0,0,0],"sum_hessian":[2.82E2,1.94E2,8.8E1,1.15E2,7.9E1,2.7E1,6.1E1,7.9E1,3.6E1,2.3E1,5.6E1,1.5E1,1.2E1,5.4E1,7E0,2.5E1,5.4E1,1.3E1,2.3E1,1.4E1,9E0,4.9E1,7E0,8E0,7E0,6E0,6E0,9E0,4.5E1,2E0,1.1E1,1E1,4E0,3E0,6E0,2.7E1,2.2E1,3E0,4E0,6E0,2E0,2E0,5E0],"tree_param":{"num_deleted":"0","num_feature":"25","num_nodes":"43","size_leaf_vector":"1"}},{"base_weights":[9.660488E2,-5.0148926E4,1.1294868E5,-7.524127E4,-1.3138158E4,8.0805015E3,1.5154492E5,-8.569222E4,-4.9636613E4,1.5264464E4,-2.4866664E4,-1.7199238E4,2.6080277E4,1.2916953E5,2.6169264E4,-7.082751E3,-9.143141E3,-3.1071154E4,-5.8779214E3,-3.3228271E3,4.1618953E4,-3.6105117E4,-5.3461616E3,-2.621612E3,-5.315815E3,8.3023285E2,3.413902E3,8.746456E3,1.3855578E4,-1.3175594E3,-3.2955781E3,-9.5931683E2,1.1136488E3,2.0304153E3,4.7853276E3,-4.6503647E3,-2.435361E3,-2.0057764E3,1.8132571E3,-8.441047E2,5.155172E2],"categories":[],"categories_nodes":[],"categories_segments":[],"categories_sizes":[],"default_left":[0,0,0,0,0,0,0,0,0,0,0,0,0,0,0,0,0,0,0,0,0,0,0,0,0,0,0,0,0,0,0,0,0,0,0,0,0,0,0,0,0],"id":8,"left_children":[1,3,5,7,9,11,13,15,17,19,21,23,25,27,-1,-1,-1,29,-1,31,33,35,37,-1,39,-1,-1,-1,-1,-1,-1,-1,-1,-1,-1,-1,-1,-1,-1,-1,-1],"loss_changes":[1.6255532E12,1.8010545E11,3.5900464E11,2.6787316E10,2.7029199E10,1.1824302E10,1.2639601E11,4.343726E8,4.2841784E9,1.1894899E10,1.2311654E10,1.0393057E9,1.8655846E9,9.802678E9,0E0,0E0,0E0,3.795968E7,0E0,1.4668067E9,3.572142E8,3.2666092E9,7.9627126E9,0E0,2.3986059E8,0E0,0E0,0E0,0E0,0E0,0E0,0E0,0E0,0E0,0E0,0E0,0E0,0E0,0E0,0E0,0E0],"parents":[2147483647,0,0,1,1,2,2,3,3,4,4,5,5,6,6,7,7,8,8,9,9,10,10,11,11,12,12,13,13,17,17,19,19,20,20,21,21,22,22,24,24],"right_children":[2,4,6,8,10,12,14,16,18,20,22,24,26,28,-1,-1,-1,30,-1,32,34,36,38,-1,40,-1,-1,-1,-1,-1,-1,-1,-1,-1,-1,-1,-1,-1,-1,-1,-1],"split_conditions":[1.2472117E0,-1.6963113E-2,-3.310883E-1,-8.7675834E-1,-3.4786174E-1,-9.3771535E-1,8.507483E-1,5.7293072E-2,-3.4786174E-1,6.156006E-1,1.1093413E0,-1.1383349E0,-7.048906E-1,3.6356983E-1,2.6169264E4,-7.082751E3,-9.143141E3,-1.1543694E0,-5.8779214E3,7.098615E-1,1.4185324E0,4.4967493E-1,4.4967493E-1,-2.621612E3,9.269541E-2,8.3023285E2,3.413902E3,8.746456E3,1.3855578E4,-1.3175594E3,-3.2955781E3,-9.5931683E2,1.1136488E3,2.0304153E3,4.7853276E3,-4.6503647E3,-2.435361E3,-2.0057764E3,1.8132571E3,-8.441047E2,5.155172E2],"split_indices":[15,6,6,6,15,6,6,16,15,5,6,6,6,6,0,0,0,1,0,6,6,15,15,0,4,0,0,0,0,0,0,0,0,0,0,0,0,0,0,0,0],"split_type":[0,0,0,0,0,0,0,0,0,0,0,0,0,0,0,0,0,0,0,0,0,0,0,0,0,0,0,0,0,0,0,0,0,0,0,0,0,0,0,0,0],"sum_hessian":[2.82E2,1.94E2,8.8E1,1.15E2,7.9E1,2.4E1,6.4E1,8E1,3.5E1,2.3E1,5.6E1,1E1,1.4E1,5.5E1,9E0,2.6E1,5.4E1,1.3E1,2.2E1,1.4E1,9E0,3.5E1,2.1E1,5E0,5E0,5E0,9E0,1.2E1,4.3E1,2E0,1.1E1,1E1,4E0,3E0,6E0,1.7E1,1.8E1,1.3E1,8E0,4E0,1E0],"tree_param":{"num_deleted":"0","num_feature":"25","num_nodes":"41","size_leaf_vector":"1"}},{"base_weights":[9.508596E2,-4.5272625E4,1.0221635E5,-6.747921E4,-1.1097623E4,2.0842408E4,1.4323967E5,-7.7528875E4,-4.5134285E4,1.5593012E4,-2.1861676E4,-4.772504E3,5.2287125E4,1.2567702E4,2.7743021E4,-8.1376587E3,-6.089273E3,-2.7871099E3,-5.368683E4,-1.6247958E3,3.813864E4,-2.7024355E4,1.24924375E4,-1.9119383E4,8.6169375E3,3.3626282E3,6.6144214E3,-1.5443734E3,-5.46368E3,-7.397495E2,1.0245563E3,1.8781337E3,4.375158E3,-3.740011E3,-1.8579003E3,-6.8210626E2,2.544475E3,-8.6793225E2,-2.5735566E3,6.4856255E1,1.1939304E3],"categories":[],"categories_nodes":[],"categories_segments":[],"categories_sizes":[],"default_left":[0,0,0,0,0,0,0,0,0,0,0,0,0,0,0,0,0,0,0,0,0,0,0,0,0,0,0,0,0,0,0,0,0,0,0,0,0,0,0,0,0],"id":9,"left_children":[1,3,5,7,9,11,13,15,17,19,21,23,25,-1,-1,-1,-1,-1,27,29,31,33,35,37,39,-1,-1,-1,-1,-1,-1,-1,-1,-1,-1,-1,-1,-1,-1,-1,-1],"loss_changes":[1.3293064E12,1.4723858E11,2.9411692E11,2.299881E10,2.2750245E10,2.52186E10,1.0418127E11,1.6560947E8,4.261806E9,8.990253E9,1.0269716E10,3.6224914E9,1.3960069E9,0E0,0E0,0E0,0E0,0E0,6.446285E7,1.0351277E9,2.6480026E8,3.5988644E9,2.1747963E9,3.9829274E8,2.569952E8,0E0,0E0,0E0,0E0,0E0,0E0,0E0,0E0,0E0,0E0,0E0,0E0,0E0,0E0,0E0,0E0],"parents":[2147483647,0,0,1,1,2,2,3,3,4,4,5,5,6,6,7,7,8,8,9,9,10,10,11,11,12,12,18,18,19,19,20,20,21,21,22,22,23,23,24,24],"right_children":[2,4,6,8,10,12,14,16,18,20,22,24,26,-1,-1,-1,-1,-1,28,30,32,34,36,38,40,-1,-1,-1,-1,-1,-1,-1,-1,-1,-1,-1,-1,-1,-1,-1,-1],"split_conditions":[1.2472117E0,6.0131837E-2,8.855178E-2,-9.1010207E-1,-3.4786174E-1,-6.0876936E-1,1.297742E0,-8.8538045E-1,-3.4786174E-1,6.156006E-1,1.9866259E0,-1.0134118E0,-3.310883E-1,1.2567702E4,2.7743021E4,-8.1376587E3,-6.089273E3,-2.7871099E3,-1.6713164E0,7.098615E-1,1.4185324E0,6.6533387E-1,4.4967493E-1,9.269541E-2,-9.081286E-1,3.3626282E3,6.6144214E3,-1.5443734E3,-5.46368E3,-7.397495E2,1.0245563E3,1.8781337E3,4.375158E3,-3.740011E3,-1.8579003E3,-6.8210626E2,2.544475E3,-8.6793225E2,-2.5735566E3,6.4856255E1,1.1939304E3],"split_indices":[15,6,6,6,15,6,6,13,15,5,5,6,6,0,0,0,0,0,1,6,6,6,15,4,5,0,0,0,0,0,0,0,0,0,0,0,0,0,0,0,0],"split_type":[0,0,0,0,0,0,0,0,0,0,0,0,0,0,0,0,0,0,0,0,0,0,0,0,0,0,0,0,0,0,0,0,0,0,0,0,0,0,0,0,0],"sum_hessian":[2.82E2,1.94E2,8.8E1,1.17E2,7.7E1,3E1,5.8E1,7.9E1,3.8E1,2.2E1,5.5E1,1.7E1,1.3E1,5.3E1,5E0,6.1E1,1.8E1,1.4E1,2.4E1,1.3E1,9E0,4.8E1,7E0,8E0,9E0,7E0,6E0,1E0,2.3E1,9E0,4E0,3E0,6E0,2E1,2.8E1,3E0,4E0,4E0,4E0,3E0,6E0],"tree_param":{"num_deleted":"0","num_feature":"25","num_nodes":"41","size_leaf_vector":"1"}},{"base_weights":[9.5077954E2,-4.085418E4,9.253523E4,-6.0934867E4,-9.951928E3,6.6389814E3,1.2414863E5,-7.1107964E3,-4.285167E4,1.4317975E4,-1.9742209E4,-1.4610495E4,2.1779332E4,1.0906324E5,2.5431107E4,-2.792661E4,-5.0123207E4,-1.8776772E2,3.6903325E3,-2.4436156E4,1.1475994E4,-1.9680188E4,-8.184844E2,6.9918774E2,2.8473872E3,7.3037734E3,1.1843976E4,-3.496897E3,-1.7781292E3,-1.4671547E3,-5.086535E3,-6.7317206E2,1.0750115E3,-3.1838813E3,-1.4683641E3,-6.3094806E2,2.3409177E3,-3.125016E3,-1.3563026E3,-3.958276E2,4.3004453E2],"categories":[],"categories_nodes":[],"categories_segments":[],"categories_sizes":[],"default_left":[0,0,0,0,0,0,0,0,0,0,0,0,0,0,0,0,0,0,0,0,0,0,0,0,0,0,0,0,0,0,0,0,0,0,0,0,0,0,0,0,0],"id":10,"left_children":[1,3,5,7,9,11,13,-1,15,17,19,21,23,25,-1,27,29,31,-1,33,35,37,39,-1,-1,-1,-1,-1,-1,-1,-1,-1,-1,-1,-1,-1,-1,-1,-1,-1,-1],"loss_changes":[1.0872981E12,1.2039858E11,2.408528E11,1.8660458E10,1.8816184E10,8.3613194E9,9.989482E10,0E0,3.483992E9,7.542126E9,8.486478E9,7.5302605E8,1.2858419E9,1.1617042E10,0E0,5.9280486E8,1.6719872E7,1.1460215E9,0E0,3.0700216E9,1.845598E9,1.4235622E8,8.131184E7,0E0,0E0,0E0,0E0,0E0,0E0,0E0,0E0,0E0,0E0,0E0,0E0,0E0,0E0,0E0,0E0,0E0,0E0],"parents":[2147483647,0,0,1,1,2,2,3,3,4,4,5,5,6,6,8,8,9,9,10,10,11,11,12,12,13,13,15,15,16,16,17,17,19,19,20,20,21,21,22,22],"right_children":[2,4,6,8,10,12,14,-1,16,18,20,22,24,26,-1,28,30,32,-1,34,36,38,40,-1,-1,-1,-1,-1,-1,-1,-1,-1,-1,-1,-1,-1,-1,-1,-1,-1,-1],"split_conditions":[1.2472117E0,6.0131837E-2,-3.310883E-1,-9.055632E-1,-3.4786174E-1,-9.3771535E-1,1.297742E0,-7.1107964E3,-3.4786174E-1,1.0067246E0,1.9866259E0,5.8567715E-3,-7.048906E-1,5.189576E-1,2.5431107E4,-3.8237244E-1,-1.6713164E0,7.098615E-1,3.6903325E3,4.4967493E-1,4.4967493E-1,-1.4104627E0,9.269541E-2,6.9918774E2,2.8473872E3,7.3037734E3,1.1843976E4,-3.496897E3,-1.7781292E3,-1.4671547E3,-5.086535E3,-6.7317206E2,1.0750115E3,-3.1838813E3,-1.4683641E3,-6.3094806E2,2.3409177E3,-3.125016E3,-1.3563026E3,-3.958276E2,4.3004453E2],"split_indices":[15,6,6,5,15,6,6,0,15,6,5,1,6,6,0,6,1,6,0,15,15,6,4,0,0,0,0,0,0,0,0,0,0,0,0,0,0,0,0,0,0],"split_type":[0,0,0,0,0,0,0,0,0,0,0,0,0,0,0,0,0,0,0,0,0,0,0,0,0,0,0,0,0,0,0,0,0,0,0,0,0,0,0,0,0],"sum_hessian":[2.82E2,1.94E2,8.8E1,1.17E2,7.7E1,2.4E1,6.4E1,7.3E1,4.4E1,2.2E1,5.5E1,1E1,1.4E1,5.9E1,5E0,1.6E1,2.8E1,1.4E1,8E0,4.8E1,7E0,7E0,3E0,5E0,9E0,1.4E1,4.5E1,8E0,8E0,1E0,2.7E1,9E0,5E0,2.6E1,2.2E1,3E0,4E0,1E0,6E0,2E0,1E0],"tree_param":{"num_deleted":"0","num_feature":"25","num_nodes":"41","size_leaf_vector":"1"}},{"base_weights":[9.4718005E2,-3.6859992E4,8.377248E4,-5.2685824E4,-4.397777E3,1.8554312E4,1.1831056E5,-6.296551E4,-3.5326203E4,1.717242E4,-1.3680519E4,-4.2813105E3,4.4720105E4,1.0308116E4,2.3311846E4,-6.614633E3,-4.709971E4,-2.148971E4,-4.1612402E4,3.4034324E3,3.3623023E4,-2.3548584E4,-8.1146204E2,-1.6401143E4,7.0546704E3,2.6223254E4,5.413764E3,-4.8583677E3,-1.1678129E3,-2.8290564E3,-1.5731738E3,-4.8344204E3,-3.2036821E3,-2.6120602E2,9.854269E2,2.1472576E3,4.344294E3,-3.1111497E3,-1.3592479E3,-1.354431E3,1.4549102E3,-2.39707E3,-8.621247E2,5.8939846E1,9.741302E2,7.84675E2,2.7978213E3],"categories":[],"categories_nodes":[],"categories_segments":[],"categories_sizes":[],"default_left":[0,0,0,0,0,0,0,0,0,0,0,0,0,0,0,0,0,0,0,0,0,0,0,0,0,0,0,0,0,0,0,0,0,0,0,0,0,0,0,0,0,0,0,0,0,0,0],"id":11,"left_children":[1,3,5,7,9,11,13,15,17,19,21,23,25,-1,-1,-1,27,29,31,33,35,37,39,41,43,45,-1,-1,-1,-1,-1,-1,-1,-1,-1,-1,-1,-1,-1,-1,-1,-1,-1,-1,-1,-1,-1],"loss_changes":[8.892713E11,9.994792E10,1.9827832E11,2.1152825E10,1.3249914E10,1.931185E10,7.738019E10,9.722921E8,3.5416842E9,4.4157286E9,5.822555E9,2.588728E9,1.193257E9,0E0,0E0,0E0,3.2623E8,2.5980416E8,6.428795E8,4.9139942E8,1.4101606E8,1.5348439E9,4.3043154E9,3.233559E8,1.6795654E8,6.212096E6,0E0,0E0,0E0,0E0,0E0,0E0,0E0,0E0,0E0,0E0,0E0,0E0,0E0,0E0,0E0,0E0,0E0,0E0,0E0,0E0,0E0],"parents":[2147483647,0,0,1,1,2,2,3,3,4,4,5,5,6,6,7,7,8,8,9,9,10,10,11,11,12,12,16,16,17,17,18,18,19,19,20,20,21,21,22,22,23,23,24,24,25,25],"right_children":[2,4,6,8,10,12,14,16,18,20,22,24,26,-1,-1,-1,28,30,32,34,36,38,40,42,44,46,-1,-1,-1,-1,-1,-1,-1,-1,-1,-1,-1,-1,-1,-1,-1,-1,-1,-1,-1,-1,-1],"split_conditions":[1.2472117E0,2.521639E-1,1.0258486E-1,-8.7675834E-1,-3.4786174E-1,-6.0876936E-1,1.297742E0,-1.1709568E-2,-3.4786174E-1,1.0067246E0,4.4967493E-1,-1.0134118E0,-3.9069214E-1,1.0308116E4,2.3311846E4,-6.614633E3,-4.9950355E-1,-3.8237244E-1,4.4967493E-1,7.098615E-1,1.7659171E0,1.2004583E0,9.2056704E-1,-9.855E-1,-9.081286E-1,-1.6900727E0,5.413764E3,-4.8583677E3,-1.1678129E3,-2.8290564E3,-1.5731738E3,-4.8344204E3,-3.2036821E3,-2.6120602E2,9.854269E2,2.1472576E3,4.344294E3,-3.1111497E3,-1.3592479E3,-1.354431E3,1.4549102E3,-2.39707E3,-8.621247E2,5.8939846E1,9.741302E2,7.84675E2,2.7978213E3],"split_indices":[15,6,6,6,15,6,6,4,15,6,15,6,6,0,0,0,0,6,15,6,6,6,6,1,5,1,0,0,0,0,0,0,0,0,0,0,0,0,0,0,0,0,0,0,0,0,0],"split_type":[0,0,0,0,0,0,0,0,0,0,0,0,0,0,0,0,0,0,0,0,0,0,0,0,0,0,0,0,0,0,0,0,0,0,0,0,0,0,0,0,0,0,0,0,0,0,0],"sum_hessian":[2.82E2,1.94E2,8.8E1,1.3E2,6.4E1,3.1E1,5.7E1,8E1,5E1,1.9E1,4.5E1,1.7E1,1.4E1,5.2E1,5E0,6.4E1,1.6E1,1.7E1,3.3E1,1.1E1,8E0,2.5E1,2E1,8E0,9E0,6E0,8E0,1.5E1,1E0,6E0,1.1E1,1.7E1,1.6E1,6E0,5E0,5E0,3E0,1.3E1,1.2E1,1.1E1,9E0,3E0,5E0,3E0,6E0,1E0,5E0],"tree_param":{"num_deleted":"0","num_feature":"25","num_nodes":"47","size_leaf_vector":"1"}},{"base_weights":[9.16613E2,-3.328802E4,7.584905E4,-4.76087E4,-3.914212E3,9.00169E3,1.0329396E5,-5.623039E4,-3.1003332E4,1.5815971E4,-1.2407461E4,-7.6699785E3,2.7545793E4,8.606344E4,1.8600939E5,-6.1110474E3,-4.524656E3,-1.80174E4,-3.7124543E4,3.1234414E3,3.0982012E4,-1.5341307E4,2.223325E3,-1.9260143E4,5.1117188E1,1.4600574E3,3.3811484E3,5.95372E3,9.22248E3,1.2740214E4,2.4206973E4,-1.8691533E3,-3.615625E2,-4.3045293E3,-2.7939392E3,6.098683E2,-7.8351776E2,1.9683202E3,4.0184727E3,-2.1365662E3,-5.78717E2,-2.848912E3,-1.1716522E3,-3.9816797E2,4.88025E2],"categories":[],"categories_nodes":[],"categories_segments":[],"categories_sizes":[],"default_left":[0,0,0,0,0,0,0,0,0,0,0,0,0,0,0,0,0,0,0,0,0,0,0,0,0,0,0,0,0,0,0,0,0,0,0,0,0,0,0,0,0,0,0,0,0],"id":12,"left_children":[1,3,5,7,9,11,13,15,17,19,21,23,25,27,29,-1,-1,31,33,35,37,39,-1,41,43,-1,-1,-1,-1,-1,-1,-1,-1,-1,-1,-1,-1,-1,-1,-1,-1,-1,-1,-1,-1],"loss_changes":[7.2786405E11,8.184096E10,1.6235138E11,1.7011474E10,1.1088504E10,8.5586263E9,7.378095E10,1.7911316E9,3.0671217E9,3.7531382E9,5.0160896E9,1.343316E9,5.607731E8,3.334832E9,2.015232E9,0E0,0E0,9.746688E7,4.832133E8,4.390387E8,1.4485402E8,2.3513262E9,0E0,8.392602E7,2.141807E8,0E0,0E0,0E0,0E0,0E0,0E0,0E0,0E0,0E0,0E0,0E0,0E0,0E0,0E0,0E0,0E0,0E0,0E0,0E0,0E0],"parents":[2147483647,0,0,1,1,2,2,3,3,4,4,5,5,6,6,7,7,8,8,9,9,10,10,11,11,12,12,13,13,14,14,17,17,18,18,19,19,20,20,21,21,23,23,24,24],"right_children":[2,4,6,8,10,12,14,16,18,20,22,24,26,28,30,-1,-1,32,34,36,38,40,-1,42,44,-1,-1,-1,-1,-1,-1,-1,-1,-1,-1,-1,-1,-1,-1,-1,-1,-1,-1,-1,-1],"split_conditions":[1.2472117E0,2.521639E-1,-1.5994488E-1,-6.2047523E-1,-3.4786174E-1,-7.617266E-1,8.507483E-1,-7.772221E-1,-3.4786174E-1,1.0067246E0,2.2522843E0,-1.1383349E0,-5.8333385E-1,5.189576E-1,1.9044333E0,-6.1110474E3,-4.524656E3,7.534153E-2,4.4967493E-1,2.4630484E-1,1.7659171E0,4.4967493E-1,2.223325E3,-1.4104627E0,9.269541E-2,1.4600574E3,3.3811484E3,5.95372E3,9.22248E3,1.2740214E4,2.4206973E4,-1.8691533E3,-3.615625E2,-4.3045293E3,-2.7939392E3,6.098683E2,-7.8351776E2,1.9683202E3,4.0184727E3,-2.1365662E3,-5.78717E2,-2.848912E3,-1.1716522E3,-3.9816797E2,4.88025E2],"split_indices":[15,6,6,0,15,6,6,2,15,6,6,6,6,6,6,0,0,6,15,3,6,15,0,6,4,0,0,0,0,0,0,0,0,0,0,0,0,0,0,0,0,0,0,0,0],"split_type":[0,0,0,0,0,0,0,0,0,0,0,0,0,0,0,0,0,0,0,0,0,0,0,0,0,0,0,0,0,0,0,0,0,0,0,0,0,0,0,0,0,0,0,0,0],"sum_hessian":[2.82E2,1.94E2,8.8E1,1.3E2,6.4E1,2.6E1,6.2E1,8.4E1,4.6E1,1.9E1,4.5E1,1.4E1,1.2E1,5.3E1,9E0,5.5E1,2.9E1,1.6E1,3E1,1.1E1,8E0,4.2E1,3E0,5E0,9E0,5E0,7E0,1.2E1,4.1E1,6E0,3E0,1.5E1,1E0,1.6E1,1.4E1,9E0,2E0,5E0,3E0,2.5E1,1.7E1,1E0,4E0,5E0,4E0],"tree_param":{"num_deleted":"0","num_feature":"25","num_nodes":"45","size_leaf_vector":"1"}},{"base_weights":[9.606073E2,-3.0034312E4,6.886003E4,-4.2430785E4,-2.1071277E3,4.685501E3,9.248316E4,-5.1347332E4,-2.8527678E4,1.7120734E4,-9.925182E3,-1.1816555E4,1.6474643E4,7.679238E4,1.7110316E5,-4.001817E4,-5.4405776E3,-1.659868E4,-3.4362465E4,5.123208E3,2.8549016E4,-1.8271205E4,1.00360706E3,-1.6016026E4,-4.6347266E2,7.6991055E3,2.3190848E4,5.36702E3,8.322192E3,1.1648196E4,2.2391447E4,-4.1003115E3,-1.0159645E3,-2.0443368E3,-9.628134E2,-3.9984536E3,-2.651903E3,1.6590626E0,8.524855E2,1.804294E3,3.7170876E3,-2.1718232E3,-3.7359167E2,-8.066172E2,1.5616547E3,-2.7064668E3,-1.0571268E3,-2.8541928E2,3.354344E2,3.0585312E2,8.736208E2,6.724375E2,2.4582576E3],"categories":[],"categories_nodes":[],"categories_segments":[],"categories_sizes":[],"default_left":[0,0,0,0,0,0,0,0,0,0,0,0,0,0,0,0,0,0,0,0,0,0,0,0,0,0,0,0,0,0,0,0,0,0,0,0,0,0,0,0,0,0,0,0,0,0,0,0,0,0,0,0,0],"id":13,"left_children":[1,3,5,7,9,11,13,15,17,19,21,23,25,27,29,31,-1,33,35,37,39,41,43,45,47,49,51,-1,-1,-1,-1,-1,-1,-1,-1,-1,-1,-1,-1,-1,-1,-1,-1,-1,-1,-1,-1,-1,-1,-1,-1,-1,-1],"loss_changes":[5.9765214E11,6.7419324E10,1.3449098E11,1.5270822E10,9.33972E9,5.0582994E9,6.7045097E10,6.2939136E8,3.2578028E9,2.3217377E9,4.0316626E9,5.170235E8,7.05526E8,3.858727E9,2.7641774E9,2.0100915E8,0E0,3.3916006E8,5.2711424E8,1.7356762E8,1.4456525E8,1.1714509E9,2.7766884E9,1.951497E8,4.6083264E7,1.178208E7,1.8032128E7,0E0,0E0,0E0,0E0,0E0,0E0,0E0,0E0,0E0,0E0,0E0,0E0,0E0,0E0,0E0,0E0,0E0,0E0,0E0,0E0,0E0,0E0,0E0,0E0,0E0,0E0],"parents":[2147483647,0,0,1,1,2,2,3,3,4,4,5,5,6,6,7,7,8,8,9,9,10,10,11,11,12,12,13,13,14,14,15,15,17,17,18,18,19,19,20,20,21,21,22,22,23,23,24,24,25,25,26,26],"right_children":[2,4,6,8,10,12,14,16,18,20,22,24,26,28,30,32,-1,34,36,38,40,42,44,46,48,50,52,-1,-1,-1,-1,-1,-1,-1,-1,-1,-1,-1,-1,-1,-1,-1,-1,-1,-1,-1,-1,-1,-1,-1,-1,-1,-1],"split_conditions":[1.2472117E0,3.5263994E-1,-3.310883E-1,-8.7675834E-1,-3.4786174E-1,-9.3771535E-1,8.507483E-1,-1.16378926E-1,-3.4786174E-1,1.0067246E0,4.4967493E-1,5.8567715E-3,-6.0876936E-1,5.189576E-1,1.9044333E0,-4.9950355E-1,-5.4405776E3,-1.3565357E-1,4.4967493E-1,4.5618646E-2,1.7659171E0,1.663044E0,1.1241895E0,-1.4104627E0,9.269541E-2,-8.059993E-1,-1.6900727E0,5.36702E3,8.322192E3,1.1648196E4,2.2391447E4,-4.1003115E3,-1.0159645E3,-2.0443368E3,-9.628134E2,-3.9984536E3,-2.651903E3,1.6590626E0,8.524855E2,1.804294E3,3.7170876E3,-2.1718232E3,-3.7359167E2,-8.066172E2,1.5616547E3,-2.7064668E3,-1.0571268E3,-2.8541928E2,3.354344E2,3.0585312E2,8.736208E2,6.724375E2,2.4582576E3],"split_indices":[15,6,6,6,15,6,6,20,15,6,15,1,6,6,6,0,0,6,15,5,6,6,6,6,4,6,1,0,0,0,0,0,0,0,0,0,0,0,0,0,0,0,0,0,0,0,0,0,0,0,0,0,0],"split_type":[0,0,0,0,0,0,0,0,0,0,0,0,0,0,0,0,0,0,0,0,0,0,0,0,0,0,0,0,0,0,0,0,0,0,0,0,0,0,0,0,0,0,0,0,0,0,0,0,0,0,0,0,0],"sum_hessian":[2.82E2,1.94E2,8.8E1,1.34E2,6E1,2.4E1,6.4E1,8E1,5.4E1,1.7E1,4.3E1,1E1,1.4E1,5.5E1,9E0,2E1,6E1,1.9E1,3.5E1,9E0,8E0,2.4E1,1.9E1,7E0,3E0,7E0,7E0,1.4E1,4.1E1,6E0,3E0,1.9E1,1E0,1.1E1,8E0,1.8E1,1.7E1,4E0,5E0,5E0,3E0,1.9E1,5E0,1.2E1,7E0,1E0,6E0,2E0,1E0,2E0,5E0,1E0,6E0],"tree_param":{"num_deleted":"0","num_feature":"25","num_nodes":"53","size_leaf_vector":"1"}},{"base_weights":[9.800821E2,-2.711103E4,6.251701E4,-3.833744E4,-1.8212468E3,1.4851834E4,8.901585E4,-4.585914E4,-2.5049562E4,1.5762858E4,-8.973353E3,-3.5602488E3,3.4637188E4,7.861889E4,2.071209E4,-4.978906E3,-3.6994656E3,-1.4020842E4,-3.0640354E4,6.6552046E3,2.9124143E4,-1.1522087E4,1.9394512E3,-1.3201722E4,5.4731016E3,2.1263105E4,4.2676685E3,7.238931E3,1.0539028E4,-1.483691E3,3.3419533E1,-3.5488586E3,-2.3271072E3,1.4681407E2,1.1597578E3,7.0671405E2,3.1622454E3,-1.6545898E3,-3.4563596E2,-2.5711433E3,-8.4240784E2,3.7013283E1,7.607212E2,6.388156E2,2.2475505E3],"categories":[],"categories_nodes":[],"categories_segments":[],"categories_sizes":[],"default_left":[0,0,0,0,0,0,0,0,0,0,0,0,0,0,0,0,0,0,0,0,0,0,0,0,0,0,0,0,0,0,0,0,0,0,0,0,0,0,0,0,0,0,0,0,0],"id":14,"left_children":[1,3,5,7,9,11,13,15,17,19,21,23,25,27,-1,-1,-1,29,31,33,35,37,-1,39,41,43,-1,-1,-1,-1,-1,-1,-1,-1,-1,-1,-1,-1,-1,-1,-1,-1,-1,-1,-1],"loss_changes":[4.9090023E11,5.5293313E10,1.11091384E11,1.2344148E10,7.813012E9,1.2144873E10,5.3708587E10,1.119191E9,2.7150193E9,1.9965921E9,3.4047596E9,1.6399607E9,8.1289626E8,1.3766492E9,0E0,0E0,0E0,2.275374E8,3.5316736E8,2.9061002E8,1.622569E8,1.6041595E9,0E0,3.2130752E8,1.0608733E8,6.98112E5,0E0,0E0,0E0,0E0,0E0,0E0,0E0,0E0,0E0,0E0,0E0,0E0,0E0,0E0,0E0,0E0,0E0,0E0,0E0],"parents":[2147483647,0,0,1,1,2,2,3,3,4,4,5,5,6,6,7,7,8,8,9,9,10,10,11,11,12,12,13,13,17,17,18,18,19,19,20,20,21,21,23,23,24,24,25,25],"right_children":[2,4,6,8,10,12,14,16,18,20,22,24,26,28,-1,-1,-1,30,32,34,36,38,-1,40,42,44,-1,-1,-1,-1,-1,-1,-1,-1,-1,-1,-1,-1,-1,-1,-1,-1,-1,-1,-1],"split_conditions":[1.2472117E0,3.5263994E-1,1.482862E-1,-6.2047523E-1,-3.4786174E-1,-6.0876936E-1,1.9044333E0,-7.772221E-1,-3.4786174E-1,1.4185324E0,2.2522843E0,-1.0134118E0,-3.310883E-1,7.40643E-1,2.071209E4,-4.978906E3,-3.6994656E3,1.3749987E0,4.4967493E-1,7.768468E-1,6.598301E-1,4.4967493E-1,1.9394512E3,-1.4104627E0,-9.081286E-1,-1.6900727E0,4.2676685E3,7.238931E3,1.0539028E4,-1.483691E3,3.3419533E1,-3.5488586E3,-2.3271072E3,1.4681407E2,1.1597578E3,7.0671405E2,3.1622454E3,-1.6545898E3,-3.4563596E2,-2.5711433E3,-8.4240784E2,3.7013283E1,7.607212E2,6.388156E2,2.2475505E3],"split_indices":[15,6,6,0,15,6,6,2,15,6,6,6,6,6,0,0,0,13,15,6,0,15,0,6,5,1,0,0,0,0,0,0,0,0,0,0,0,0,0,0,0,0,0,0,0],"split_type":[0,0,0,0,0,0,0,0,0,0,0,0,0,0,0,0,0,0,0,0,0,0,0,0,0,0,0,0,0,0,0,0,0,0,0,0,0,0,0,0,0,0,0,0,0],"sum_hessian":[2.82E2,1.94E2,8.8E1,1.34E2,6E1,3.2E1,5.6E1,8.4E1,5E1,1.7E1,4.3E1,1.7E1,1.5E1,5.3E1,3E0,5.5E1,2.9E1,1.8E1,3.2E1,1.1E1,6E0,4E1,3E0,8E0,9E0,7E0,8E0,4.6E1,7E0,1.7E1,1E0,1.7E1,1.5E1,6E0,5E0,1E0,5E0,2.4E1,1.6E1,1E0,7E0,3E0,6E0,1E0,6E0],"tree_param":{"num_deleted":"0","num_feature":"25","num_nodes":"45","size_leaf_vector":"1"}},{"base_weights":[9.956379E2,-2.4455771E4,5.6748773E4,-3.462225E4,-1.5552716E3,3.8275522E3,7.623003E4,-4.2724543E4,-2.439335E4,1.44741E4,-8.0773945E3,-1.0275202E4,1.3914402E4,6.755814E4,1.9158686E4,-4.434647E3,-2.9403838E3,-1.4593309E4,-2.9056947E4,6.098564E3,2.6764434E4,-1.1694169E4,9.659861E3,-2.4425864E3,-6.41755E3,4.5500522E2,1.8141572E3,4.3489312E4,7.367219E4,-2.0739153E3,-9.6000305E2,-3.3626094E3,-2.358241E3,1.3423015E2,1.063111E3,6.713781E2,2.8987244E3,-1.668928E3,-4.095008E2,-1.6932657E2,1.6810391E3,-9.06873E2,-1.7359766E1,1.2067157E3,4.487181E3,6.53526E3,9.875136E3],"categories":[],"categories_nodes":[],"categories_segments":[],"categories_sizes":[],"default_left":[0,0,0,0,0,0,0,0,0,0,0,0,0,0,0,0,0,0,0,0,0,0,0,0,0,0,0,0,0,0,0,0,0,0,0,0,0,0,0,0,0,0,0,0,0,0,0],"id":15,"left_children":[1,3,5,7,9,11,13,15,17,19,21,23,25,27,-1,-1,-1,29,31,33,35,37,39,-1,41,-1,-1,43,45,-1,-1,-1,-1,-1,-1,-1,-1,-1,-1,-1,-1,-1,-1,-1,-1,-1,-1],"loss_changes":[4.0296366E11,4.5345546E10,9.146473E10,1.0146267E10,6.4941906E9,3.6992827E9,5.2080247E10,2.9483827E8,2.4095744E9,1.689662E9,2.9356362E9,4.4371738E8,5.1122534E8,5.919834E9,0E0,0E0,0E0,4.7603763E8,2.3259136E8,2.444256E8,1.1736781E8,1.3361275E9,6.7791136E8,0E0,1.639641E8,0E0,0E0,1.1014144E8,3.561472E9,0E0,0E0,0E0,0E0,0E0,0E0,0E0,0E0,0E0,0E0,0E0,0E0,0E0,0E0,0E0,0E0,0E0,0E0],"parents":[2147483647,0,0,1,1,2,2,3,3,4,4,5,5,6,6,7,7,8,8,9,9,10,10,11,11,12,12,13,13,17,17,18,18,19,19,20,20,21,21,22,22,24,24,27,27,28,28],"right_children":[2,4,6,8,10,12,14,16,18,20,22,24,26,28,-1,-1,-1,30,32,34,36,38,40,-1,42,-1,-1,44,46,-1,-1,-1,-1,-1,-1,-1,-1,-1,-1,-1,-1,-1,-1,-1,-1,-1,-1],"split_conditions":[1.2472117E0,3.5263994E-1,-3.310883E-1,-9.055632E-1,-3.4786174E-1,-9.3771535E-1,1.9044333E0,-6.8863744E-1,-3.4786174E-1,1.4185324E0,1.9866259E0,-1.4104627E0,-7.048906E-1,5.189576E-1,1.9158686E4,-4.434647E3,-2.9403838E3,-3.8237244E-1,4.4967493E-1,7.768468E-1,6.598301E-1,4.4967493E-1,4.4967493E-1,-2.4425864E3,5.8567715E-3,4.5500522E2,1.8141572E3,-6.070947E-1,6.545583E-1,-2.0739153E3,-9.6000305E2,-3.3626094E3,-2.358241E3,1.3423015E2,1.063111E3,6.713781E2,2.8987244E3,-1.668928E3,-4.095008E2,-1.6932657E2,1.6810391E3,-9.06873E2,-1.7359766E1,1.2067157E3,4.487181E3,6.53526E3,9.875136E3],"split_indices":[15,6,6,5,15,6,6,7,15,6,5,6,6,6,0,0,0,6,15,6,0,15,15,0,1,0,0,5,0,0,0,0,0,0,0,0,0,0,0,0,0,0,0,0,0,0,0],"split_type":[0,0,0,0,0,0,0,0,0,0,0,0,0,0,0,0,0,0,0,0,0,0,0,0,0,0,0,0,0,0,0,0,0,0,0,0,0,0,0,0,0,0,0,0,0,0,0],"sum_hessian":[2.82E2,1.94E2,8.8E1,1.34E2,6E1,2.4E1,6.4E1,7.3E1,6.1E1,1.7E1,4.3E1,1E1,1.4E1,6.1E1,3E0,6.3E1,1E1,2.1E1,4E1,1.1E1,6E0,3.6E1,7E0,1E0,9E0,5E0,9E0,1.4E1,4.7E1,8E0,1.3E1,1.9E1,2.1E1,6E0,5E0,1E0,5E0,2.1E1,1.5E1,3E0,4E0,6E0,3E0,1E0,1.3E1,3.8E1,9E0],"tree_param":{"num_deleted":"0","num_feature":"25","num_nodes":"47","size_leaf_vector":"1"}},{"base_weights":[9.958502E2,-2.207137E4,5.1525195E4,-3.1279504E4,-1.3308813E3,1.2192552E4,7.339278E4,-3.785559E4,-2.1026006E4,1.3291548E4,-7.282537E3,-3.2366245E3,2.878834E4,6.4342906E4,1.7721783E4,-3.997074E4,-2.9405852E3,-1.2176977E4,-2.5358078E4,3.8608125E3,2.2293305E4,-1.1952764E4,4.773601E3,-1.4846582E4,2.3707886E3,1.6659862E3,3.439944E3,5.9027524E3,8.752792E3,-9.531465E2,-4.0313489E3,-3.8604343E2,-1.4014835E3,-2.9632966E3,-1.9436917E3,-2.0957188E1,6.6093304E2,1.3548403E3,2.983733E3,-1.7049545E3,-5.039775E2,-3.93625E2,1.5591136E3,-2.3204568E3,-8.534072E2,-2.6686356E2,5.854008E2],"categories":[],"categories_nodes":[],"categories_segments":[],"categories_sizes":[],"default_left":[0,0,0,0,0,0,0,0,0,0,0,0,0,0,0,0,0,0,0,0,0,0,0,0,0,0,0,0,0,0,0,0,0,0,0,0,0,0,0,0,0,0,0,0,0,0,0],"id":16,"left_children":[1,3,5,7,9,11,13,15,17,19,21,23,25,27,-1,29,-1,31,33,35,37,39,41,43,45,-1,-1,-1,-1,-1,-1,-1,-1,-1,-1,-1,-1,-1,-1,-1,-1,-1,-1,-1,-1,-1,-1],"loss_changes":[3.3099396E11,3.71997E10,7.565494E10,8.306811E9,5.4054835E9,8.543136E9,4.2154656E10,2.7230208E8,1.7996227E9,1.4420068E9,2.5344735E9,1.2070309E9,5.157755E8,1.488257E9,0E0,2.6260275E8,0E0,2.5158912E8,3.3526784E8,1.132604E8,1.8949734E8,1.0415621E9,1.286219E9,1.1852979E8,2.4381667E8,0E0,0E0,0E0,0E0,0E0,0E0,0E0,0E0,0E0,0E0,0E0,0E0,0E0,0E0,0E0,0E0,0E0,0E0,0E0,0E0,0E0,0E0],"parents":[2147483647,0,0,1,1,2,2,3,3,4,4,5,5,6,6,7,7,8,8,9,9,10,10,11,11,12,12,13,13,15,15,17,17,18,18,19,19,20,20,21,21,22,22,23,23,24,24],"right_children":[2,4,6,8,10,12,14,16,18,20,22,24,26,28,-1,30,-1,32,34,36,38,40,42,44,46,-1,-1,-1,-1,-1,-1,-1,-1,-1,-1,-1,-1,-1,-1,-1,-1,-1,-1,-1,-1,-1,-1],"split_conditions":[1.2472117E0,3.5263994E-1,1.482862E-1,-8.7675834E-1,-3.4786174E-1,-6.0876936E-1,1.9044333E0,-8.8538045E-1,-3.4786174E-1,1.0067246E0,1.5616616E0,-1.1383349E0,-3.9069214E-1,7.40643E-1,1.7721783E4,-9.2892575E-1,-2.9405852E3,-1.1543694E0,4.4967493E-1,4.5618646E-2,1.7659171E0,4.4967493E-1,4.4967493E-1,-1.4104627E0,-9.3771535E-1,1.6659862E3,3.439944E3,5.9027524E3,8.752792E3,-9.531465E2,-4.0313489E3,-3.8604343E2,-1.4014835E3,-2.9632966E3,-1.9436917E3,-2.0957188E1,6.6093304E2,1.3548403E3,2.983733E3,-1.7049545E3,-5.039775E2,-3.93625E2,1.5591136E3,-2.3204568E3,-8.534072E2,-2.6686356E2,5.854008E2],"split_indices":[15,6,6,6,15,6,6,13,15,6,6,6,6,6,0,21,0,1,15,5,6,15,15,6,6,0,0,0,0,0,0,0,0,0,0,0,0,0,0,0,0,0,0,0,0,0,0],"split_type":[0,0,0,0,0,0,0,0,0,0,0,0,0,0,0,0,0,0,0,0,0,0,0,0,0,0,0,0,0,0,0,0,0,0,0,0,0,0,0,0,0,0,0,0,0,0,0],"sum_hessian":[2.82E2,1.94E2,8.8E1,1.34E2,6E1,3.2E1,5.6E1,8E1,5.4E1,1.7E1,4.3E1,1.7E1,1.5E1,5.3E1,3E0,6.1E1,1.9E1,1.9E1,3.5E1,9E0,8E0,3.1E1,1.2E1,5E0,1.2E1,6E0,9E0,4.6E1,7E0,1E0,6E1,4E0,1.5E1,1.8E1,1.7E1,4E0,5E0,5E0,3E0,1.7E1,1.4E1,7E0,5E0,1E0,4E0,5E0,7E0],"tree_param":{"num_deleted":"0","num_feature":"25","num_nodes":"47","size_leaf_vector":"1"}},{"base_weights":[9.8087067E2,-1.9919023E4,4.6761754E4,-3.1650441E4,-6.4409106E3,3.669509E4,1.2261888E5,-3.5081723E4,-2.2017217E4,-1.2645774E4,6.8040015E3,2.9822766E3,5.1090184E4,8.658575E3,1.7783428E4,-1.7276793E3,-3.558364E3,-2.246999E4,-4.443383E2,-2.4130015E3,-1.7349088E4,2.054604E4,8.729854E2,-8.911176E3,1.1505323E4,3.5324234E4,5.550445E3,-2.2814783E3,-6.4079144E2,-8.8565784E2,2.2335518E2,-2.2135654E3,-1.1280511E3,1.2419368E3,2.7599539E3,-5.874603E2,1.1272236E3,-2.204434E3,-5.3934247E2,3.683047E2,1.5048157E3,9.743828E2,3.6455417E3],"categories":[],"categories_nodes":[],"categories_segments":[],"categories_sizes":[],"default_left":[0,0,0,0,0,0,0,0,0,0,0,0,0,0,0,0,0,0,0,0,0,0,0,0,0,0,0,0,0,0,0,0,0,0,0,0,0,0,0,0,0,0,0],"id":17,"left_children":[1,3,5,7,9,11,13,15,17,19,21,23,25,-1,-1,-1,-1,27,-1,29,31,33,35,37,39,41,-1,-1,-1,-1,-1,-1,-1,-1,-1,-1,-1,-1,-1,-1,-1,-1,-1],"loss_changes":[2.7171026E11,3.0629036E10,6.3463408E10,2.6652344E9,7.646866E9,3.8671573E10,4.497916E9,5.5484416E7,1.3886771E8,2.9901978E9,2.427191E9,2.636737E9,1.9366543E9,0E0,0E0,0E0,0E0,1.4408704E7,0E0,6.485304E8,9.993462E8,1.7312435E8,1.609957E9,3.8929658E8,3.6027226E8,7.882752E7,0E0,0E0,0E0,0E0,0E0,0E0,0E0,0E0,0E0,0E0,0E0,0E0,0E0,0E0,0E0,0E0,0E0],"parents":[2147483647,0,0,1,1,2,2,3,3,4,4,5,5,6,6,7,7,8,8,9,9,10,10,11,11,12,12,17,17,19,19,20,20,21,21,22,22,23,23,24,24,25,25],"right_children":[2,4,6,8,10,12,14,16,18,20,22,24,26,-1,-1,-1,-1,28,-1,30,32,34,36,38,40,42,-1,-1,-1,-1,-1,-1,-1,-1,-1,-1,-1,-1,-1,-1,-1,-1,-1],"split_conditions":[1.2472117E0,-2.3530914E-1,8.507483E-1,-5.8846635E-1,1.1093413E0,-3.310883E-1,1.7985538E0,-1.3401947E0,-2.5987053E-1,-3.4786174E-1,-3.4786174E-1,-9.3771535E-1,5.189576E-1,8.658575E3,1.7783428E4,-1.7276793E3,-3.558364E3,-2.5138724E-1,-4.443383E2,3.485519E-1,4.4967493E-1,1.7659171E0,4.4967493E-1,-1.4104627E0,-7.048906E-1,-6.070947E-1,5.550445E3,-2.2814783E3,-6.4079144E2,-8.8565784E2,2.2335518E2,-2.2135654E3,-1.1280511E3,1.2419368E3,2.7599539E3,-5.874603E2,1.1272236E3,-2.204434E3,-5.3934247E2,3.683047E2,1.5048157E3,9.743828E2,3.6455417E3],"split_indices":[15,6,6,7,6,6,5,0,5,15,15,6,6,0,0,0,0,6,0,0,15,6,15,6,6,5,0,0,0,0,0,0,0,0,0,0,0,0,0,0,0,0,0],"split_type":[0,0,0,0,0,0,0,0,0,0,0,0,0,0,0,0,0,0,0,0,0,0,0,0,0,0,0,0,0,0,0,0,0,0,0,0,0,0,0,0,0,0,0],"sum_hessian":[2.82E2,1.94E2,8.8E1,1.03E2,9.1E1,7.9E1,9E0,7.4E1,2.9E1,6.2E1,2.9E1,2.4E1,5.5E1,7E0,2E0,3E0,7.1E1,2.8E1,1E0,2E1,4.2E1,8E0,2.1E1,1E1,1.4E1,1.4E1,4.1E1,2.7E1,1E0,8E0,1.2E1,2.2E1,2E1,5E0,3E0,1.3E1,8E0,1E0,9E0,5E0,9E0,1E0,1.3E1],"tree_param":{"num_deleted":"0","num_feature":"25","num_nodes":"43","size_leaf_vector":"1"}},{"base_weights":[9.804056E2,-1.7968738E4,4.2487176E4,-2.5316107E4,-1.7726105E2,3.3141832E4,1.130012E5,-3.0240504E4,-1.6044357E4,1.1929571E4,-5.0734253E3,2.649224E3,4.6162785E4,7.9009507E3,1.6597865E4,-3.2658045E4,-2.3479555E4,-8.838495E3,-1.9821453E4,5.058006E3,2.1023521E4,-7.558772E3,1.109845E4,-8.269491E3,1.0479667E4,3.2099816E4,5.0086167E3,-7.2757074E2,-3.295009E3,-1.6062162E3,-2.6897896E3,-1.04479E3,-2.2425813E2,-2.347777E3,-1.411244E3,1.1974376E1,7.862763E2,5.079703E2,2.283421E3,-1.1484608E3,-1.6883232E2,2.6443646E2,1.4664403E3,-2.0942122E3,-4.9080157E2,4.735383E2,1.4913993E3,9.2566406E2,3.3070286E3],"categories":[],"categories_nodes":[],"categories_segments":[],"categories_sizes":[],"default_left":[0,0,0,0,0,0,0,0,0,0,0,0,0,0,0,0,0,0,0,0,0,0,0,0,0,0,0,0,0,0,0,0,0,0,0,0,0,0,0,0,0,0,0,0,0,0,0,0,0],"id":18,"left_children":[1,3,5,7,9,11,13,15,17,19,21,23,25,-1,-1,27,29,31,33,35,37,39,41,43,45,47,-1,-1,-1,-1,-1,-1,-1,-1,-1,-1,-1,-1,-1,-1,-1,-1,-1,-1,-1,-1,-1,-1,-1],"loss_changes":[2.2334797E11,2.5486008E10,5.4903947E10,5.815591E9,3.498592E9,3.1641125E10,4.894032E9,6.878986E8,1.1856701E9,9.559877E8,1.7719849E9,2.224121E9,1.4819983E9,0E0,0E0,2.2726656E8,2.5255117E8,1.782642E8,3.3663898E8,1.514154E8,8.609357E7,8.333279E8,1.4210317E8,3.6580186E8,3.114569E8,2.6407936E7,0E0,0E0,0E0,0E0,0E0,0E0,0E0,0E0,0E0,0E0,0E0,0E0,0E0,0E0,0E0,0E0,0E0,0E0,0E0,0E0,0E0,0E0,0E0],"parents":[2147483647,0,0,1,1,2,2,3,3,4,4,5,5,6,6,7,7,8,8,9,9,10,10,11,11,12,12,15,15,16,16,17,17,18,18,19,19,20,20,21,21,22,22,23,23,24,24,25,25],"right_children":[2,4,6,8,10,12,14,16,18,20,22,24,26,-1,-1,28,30,32,34,36,38,40,42,44,46,48,-1,-1,-1,-1,-1,-1,-1,-1,-1,-1,-1,-1,-1,-1,-1,-1,-1,-1,-1,-1,-1,-1,-1],"split_conditions":[1.2472117E0,4.156887E-1,8.507483E-1,-6.572175E-1,-3.4786174E-1,-3.310883E-1,1.7985538E0,-8.8538045E-1,-3.4786174E-1,1.4185324E0,2.1481369E0,-9.3771535E-1,5.189576E-1,7.9009507E3,1.6597865E4,-9.2892575E-1,-3.4786174E-1,7.534153E-2,4.4967493E-1,7.503334E-1,6.598301E-1,4.4967493E-1,2.2522843E0,-1.4104627E0,-6.0876936E-1,-6.070947E-1,5.0086167E3,-7.2757074E2,-3.295009E3,-1.6062162E3,-2.6897896E3,-1.04479E3,-2.2425813E2,-2.347777E3,-1.411244E3,1.1974376E1,7.862763E2,5.079703E2,2.283421E3,-1.1484608E3,-1.6883232E2,2.6443646E2,1.4664403E3,-2.0942122E3,-4.9080157E2,4.735383E2,1.4913993E3,9.2566406E2,3.3070286E3],"split_indices":[15,6,6,6,15,6,5,13,15,6,6,6,6,0,0,21,15,6,15,6,0,15,6,6,6,5,0,0,0,0,0,0,0,0,0,0,0,0,0,0,0,0,0,0,0,0,0,0,0],"split_type":[0,0,0,0,0,0,0,0,0,0,0,0,0,0,0,0,0,0,0,0,0,0,0,0,0,0,0,0,0,0,0,0,0,0,0,0,0,0,0,0,0,0,0,0,0,0,0,0,0],"sum_hessian":[2.82E2,1.94E2,8.8E1,1.37E2,5.7E1,7.9E1,9E0,8.8E1,4.9E1,1.6E1,4.1E1,2.4E1,5.5E1,7E0,2E0,6.2E1,2.6E1,1.8E1,3.1E1,1E1,6E0,3.6E1,5E0,1E1,1.4E1,1.4E1,4.1E1,1E0,6.1E1,1E1,1.6E1,1.4E1,4E0,1.7E1,1.4E1,4E0,6E0,1E0,5E0,2.1E1,1.5E1,2E0,3E0,1E0,9E0,7E0,7E0,1E0,1.3E1],"tree_param":{"num_deleted":"0","num_feature":"25","num_nodes":"49","size_leaf_vector":"1"}},{"base_weights":[9.663802E2,-1.6219779E4,3.861059E4,-2.2881209E4,-9.051589E1,2.993541E4,1.0415097E5,-2.7624768E4,-1.4990774E4,-4.2596694E3,1.2145035E4,2.359497E3,4.1711523E4,7.2096187E3,1.5491339E4,-2.9456092E4,-2.1407454E3,-7.711049E3,-1.8722309E4,5.473482E3,-7.669916E3,1.8742883E4,1.9270848E3,-9.476836E3,8.486997E3,2.9172012E3,4.519679E3,-6.911922E2,-2.9708225E3,-9.2524164E2,-2.5724557E2,-2.212181E3,-1.3821556E3,6.965443E1,8.7860736E2,-1.1606987E3,-2.1716313E2,1.8243517E2,2.0629656E3,-3.0821564E2,4.5472125E2,-1.9895012E3,-5.6876874E2,2.3409512E2,1.2555135E3],"categories":[],"categories_nodes":[],"categories_segments":[],"categories_sizes":[],"default_left":[0,0,0,0,0,0,0,0,0,0,0,0,0,0,0,0,0,0,0,0,0,0,0,0,0,0,0,0,0,0,0,0,0,0,0,0,0,0,0,0,0,0,0,0,0],"id":19,"left_children":[1,3,5,7,9,11,13,15,17,19,21,23,25,-1,-1,27,-1,29,31,33,35,37,39,41,43,-1,-1,-1,-1,-1,-1,-1,-1,-1,-1,-1,-1,-1,-1,-1,-1,-1,-1,-1,-1],"loss_changes":[1.8371576E11,2.0949504E10,4.7485354E10,4.7510405E9,3.0104238E9,2.5880543E10,5.1031163E9,3.3722778E8,1.3225175E9,1.5024488E9,9.7512755E8,1.8936082E9,1.1289231E9,0E0,0E0,1.5275213E8,0E0,1.3460787E8,2.773463E8,1.837686E8,6.8914944E8,2.4965709E8,1.0588918E8,2.4212755E8,3.9565926E8,0E0,0E0,0E0,0E0,0E0,0E0,0E0,0E0,0E0,0E0,0E0,0E0,0E0,0E0,0E0,0E0,0E0,0E0,0E0,0E0],"parents":[2147483647,0,0,1,1,2,2,3,3,4,4,5,5,6,6,7,7,8,8,9,9,10,10,11,11,12,12,15,15,17,17,18,18,19,19,20,20,21,21,22,22,23,23,24,24],"right_children":[2,4,6,8,10,12,14,16,18,20,22,24,26,-1,-1,28,-1,30,32,34,36,38,40,42,44,-1,-1,-1,-1,-1,-1,-1,-1,-1,-1,-1,-1,-1,-1,-1,-1,-1,-1,-1,-1],"split_conditions":[1.2472117E0,4.156887E-1,8.507483E-1,-6.2047523E-1,1.663044E0,-3.310883E-1,1.7985538E0,-8.8538045E-1,-3.4786174E-1,-3.4786174E-1,1.1387078E0,-1.0134118E0,5.189576E-1,7.2096187E3,1.5491339E4,-9.2892575E-1,-2.1407454E3,3.485519E-1,4.4967493E-1,7.768468E-1,4.4967493E-1,-2.5002727E-1,1.1778474E0,-1.4104627E0,-7.048906E-1,2.9172012E3,4.519679E3,-6.911922E2,-2.9708225E3,-9.2524164E2,-2.5724557E2,-2.212181E3,-1.3821556E3,6.965443E1,8.7860736E2,-1.1606987E3,-2.1716313E2,1.8243517E2,2.0629656E3,-3.0821564E2,4.5472125E2,-1.9895012E3,-5.6876874E2,2.3409512E2,1.2555135E3],"split_indices":[15,6,6,0,6,6,5,13,15,15,2,6,6,0,0,21,0,0,15,6,15,2,2,6,6,0,0,0,0,0,0,0,0,0,0,0,0,0,0,0,0,0,0,0,0],"split_type":[0,0,0,0,0,0,0,0,0,0,0,0,0,0,0,0,0,0,0,0,0,0,0,0,0,0,0,0,0,0,0,0,0,0,0,0,0,0,0,0,0,0,0,0,0],"sum_hessian":[2.82E2,1.94E2,8.8E1,1.37E2,5.7E1,7.9E1,9E0,8.4E1,5.3E1,4.3E1,1.4E1,2.4E1,5.5E1,7E0,2E0,6.2E1,2.2E1,1.9E1,3.4E1,1.1E1,3.2E1,8E0,6E0,8E0,1.6E1,1.4E1,4.1E1,1E0,6.1E1,1.4E1,5E0,1.8E1,1.6E1,5E0,6E0,1.8E1,1.4E1,1E0,7E0,2E0,4E0,1E0,7E0,7E0,9E0],"tree_param":{"num_deleted":"0","num_feature":"25","num_nodes":"45","size_leaf_vector":"1"}},{"base_weights":[9.4200964E2,-1.4641993E4,3.507615E4,-2.0669754E4,-4.7632275E1,2.702147E4,9.600597E4,-2.5750967E4,-1.456699E4,-3.843467E3,1.1089991E4,2.080804E3,3.767317E4,6.578777E3,1.4458586E4,-1.184865E4,-2.6171508E4,-8.249598E3,-1.7607293E4,5.0051562E3,-6.9446797E3,1.711808E4,1.755308E3,-8.813407E3,7.7259272E3,2.6449305E4,4.0784714E3,-1.3422957E3,-3.562867E2,-1.0267008E3,-2.6483708E3,-1.089329E3,-3.7234702E2,-2.1066785E3,-1.3683094E3,6.384974E1,8.0329846E2,-1.0507377E3,-1.968952E2,1.7331328E2,1.8824557E3,-1.96234E2,5.034129E2,-1.8900262E3,-5.190018E2,3.1257175E2,1.2510449E3,7.335219E2,2.7290652E3],"categories":[],"categories_nodes":[],"categories_segments":[],"categories_sizes":[],"default_left":[0,0,0,0,0,0,0,0,0,0,0,0,0,0,0,0,0,0,0,0,0,0,0,0,0,0,0,0,0,0,0,0,0,0,0,0,0,0,0,0,0,0,0,0,0,0,0,0,0],"id":20,"left_children":[1,3,5,7,9,11,13,15,17,19,21,23,25,-1,-1,27,29,31,33,35,37,39,41,43,45,47,-1,-1,-1,-1,-1,-1,-1,-1,-1,-1,-1,-1,-1,-1,-1,-1,-1,-1,-1,-1,-1,-1,-1],"loss_changes":[1.5105445E11,1.7153417E10,4.108433E10,3.9041925E9,2.4946657E9,2.1174444E10,5.1679805E9,1.2254003E8,1.103188E9,1.2421836E9,8.140068E8,1.605571E9,8.7699456E8,0E0,0E0,4.353216E6,8.063795E7,2.3464998E8,2.9549773E8,1.5352886E8,5.643027E8,2.0366131E8,9.520518E7,2.3084474E8,3.3506266E8,4.1040896E7,0E0,0E0,0E0,0E0,0E0,0E0,0E0,0E0,0E0,0E0,0E0,0E0,0E0,0E0,0E0,0E0,0E0,0E0,0E0,0E0,0E0,0E0,0E0],"parents":[2147483647,0,0,1,1,2,2,3,3,4,4,5,5,6,6,7,7,8,8,9,9,10,10,11,11,12,12,15,15,16,16,17,17,18,18,19,19,20,20,21,21,22,22,23,23,24,24,25,25],"right_children":[2,4,6,8,10,12,14,16,18,20,22,24,26,-1,-1,28,30,32,34,36,38,40,42,44,46,48,-1,-1,-1,-1,-1,-1,-1,-1,-1,-1,-1,-1,-1,-1,-1,-1,-1,-1,-1,-1,-1,-1,-1],"split_conditions":[1.2472117E0,4.156887E-1,8.507483E-1,-9.055632E-1,1.663044E0,-3.310883E-1,1.7985538E0,-5.897615E-1,-3.4786174E-1,-3.4786174E-1,1.1387078E0,-1.0134118E0,5.189576E-1,6.578777E3,1.4458586E4,-1.006015E0,-1.673924E0,-1.3565357E-1,4.4967493E-1,7.768468E-1,4.4967493E-1,-2.5002727E-1,3.870082E-1,-1.4104627E0,-6.0876936E-1,-6.070947E-1,4.0784714E3,-1.3422957E3,-3.562867E2,-1.0267008E3,-2.6483708E3,-1.089329E3,-3.7234702E2,-2.1066785E3,-1.3683094E3,6.384974E1,8.0329846E2,-1.0507377E3,-1.968952E2,1.7331328E2,1.8824557E3,-1.96234E2,5.034129E2,-1.8900262E3,-5.190018E2,3.1257175E2,1.2510449E3,7.335219E2,2.7290652E3],"split_indices":[15,6,6,5,6,6,5,22,15,15,2,6,6,0,0,0,1,6,15,6,15,2,14,6,6,5,0,0,0,0,0,0,0,0,0,0,0,0,0,0,0,0,0,0,0,0,0,0,0],"split_type":[0,0,0,0,0,0,0,0,0,0,0,0,0,0,0,0,0,0,0,0,0,0,0,0,0,0,0,0,0,0,0,0,0,0,0,0,0,0,0,0,0,0,0,0,0,0,0,0,0],"sum_hessian":[2.82E2,1.94E2,8.8E1,1.37E2,5.7E1,7.9E1,9E0,7.3E1,6.4E1,4.3E1,1.4E1,2.4E1,5.5E1,7E0,2E0,3E0,7E1,2.2E1,4.2E1,1.1E1,3.2E1,8E0,6E0,8E0,1.6E1,1.4E1,4.1E1,2E0,1E0,2E0,6.8E1,1.3E1,9E0,2E1,2.2E1,5E0,6E0,1.8E1,1.4E1,1E0,7E0,3E0,3E0,1E0,7E0,9E0,7E0,1E0,1.3E1],"tree_param":{"num_deleted":"0","num_feature":"25","num_nodes":"49","size_leaf_vector":"1"}},{"base_weights":[9.163793E2,-1.3220501E4,3.1880146E4,-2.0322963E4,-2.9735427E3,2.6125848E4,1.0712696E4,-2.334597E4,-1.4071174E4,-7.8531187E3,5.583507E3,1.8389084E3,3.5809977E4,-1.2378059E3,-2.378338E4,-1.0125321E4,-1.6547441E4,-1.1246875E2,-1.0988181E4,1.5015734E4,1.4710728E3,-6.732042E3,8.001678E3,2.4035215E4,3.8871094E4,-1.0087469E3,-2.4030586E3,-1.254724E3,-5.529518E2,-4.4819962E2,-1.6892145E3,-5.6608936E2,2.2087474E2,-1.420346E3,-7.194577E2,9.3840247E2,2.3151147E3,-3.2411E2,8.637667E2,-1.7955247E3,-3.8141968E2,3.5873495E2,1.1415797E3,6.9684534E2,2.475652E3,3.4567517E3,5.4992163E3],"categories":[],"categories_nodes":[],"categories_segments":[],"categories_sizes":[],"default_left":[0,0,0,0,0,0,0,0,0,0,0,0,0,0,0,0,0,0,0,0,0,0,0,0,0,0,0,0,0,0,0,0,0,0,0,0,0,0,0,0,0,0,0,0,0,0,0],"id":21,"left_children":[1,3,5,7,9,11,-1,13,15,17,19,21,23,-1,25,27,29,31,33,35,37,39,41,43,45,-1,-1,-1,-1,-1,-1,-1,-1,-1,-1,-1,-1,-1,-1,-1,-1,-1,-1,-1,-1,-1,-1],"loss_changes":[1.2429936E11,1.4131405E10,3.573756E10,1.8448998E9,3.425985E9,1.9690766E10,0E0,7.021773E7,2.232919E8,1.2606697E9,1.1415933E9,1.3743873E9,1.2283658E9,0E0,1.363968E6,1.3097178E8,1.9945984E7,2.18569E8,3.4911898E8,1.9509555E8,7.7094054E8,2.917384E8,1.8511315E8,1.2141568E7,1.290453E9,0E0,0E0,0E0,0E0,0E0,0E0,0E0,0E0,0E0,0E0,0E0,0E0,0E0,0E0,0E0,0E0,0E0,0E0,0E0,0E0,0E0,0E0],"parents":[2147483647,0,0,1,1,2,2,3,3,4,4,5,5,7,7,8,8,9,9,10,10,11,11,12,12,14,14,15,15,16,16,17,17,18,18,19,19,20,20,21,21,22,22,23,23,24,24],"right_children":[2,4,6,8,10,12,-1,14,16,18,20,22,24,-1,26,28,30,32,34,36,38,40,42,44,46,-1,-1,-1,-1,-1,-1,-1,-1,-1,-1,-1,-1,-1,-1,-1,-1,-1,-1,-1,-1,-1,-1],"split_conditions":[1.2472117E0,-3.5454277E-2,1.297742E0,-5.6040525E-1,1.1093413E0,-3.310883E-1,1.0712696E4,-7.1892184E-1,-3.4786174E-1,-3.4786174E-1,-3.4786174E-1,-9.3771535E-1,5.189576E-1,-1.2378059E3,-9.2892575E-1,-3.8237244E-1,-1.7110512E0,3.485519E-1,4.4967493E-1,8.3234316E-1,4.4967493E-1,-1.4104627E0,-6.0876936E-1,-6.070947E-1,6.545583E-1,-1.0087469E3,-2.4030586E3,-1.254724E3,-5.529518E2,-4.4819962E2,-1.6892145E3,-5.6608936E2,2.2087474E2,-1.420346E3,-7.194577E2,9.3840247E2,2.3151147E3,-3.2411E2,8.637667E2,-1.7955247E3,-3.8141968E2,3.5873495E2,1.1415797E3,6.9684534E2,2.475652E3,3.4567517E3,5.4992163E3],"split_indices":[15,6,6,7,6,6,0,12,15,15,15,6,6,0,21,6,13,0,15,1,15,6,6,5,0,0,0,0,0,0,0,0,0,0,0,0,0,0,0,0,0,0,0,0,0,0,0],"split_type":[0,0,0,0,0,0,0,0,0,0,0,0,0,0,0,0,0,0,0,0,0,0,0,0,0,0,0,0,0,0,0,0,0,0,0,0,0,0,0,0,0,0,0,0,0,0,0],"sum_hessian":[2.82E2,1.94E2,8.8E1,1.14E2,8E1,8.3E1,5E0,7.5E1,3.9E1,5.1E1,2.9E1,2.4E1,5.9E1,4E0,7.1E1,1.7E1,2.2E1,1.5E1,3.6E1,8E0,2.1E1,1E1,1.4E1,1.4E1,4.5E1,2E0,6.9E1,1E1,7E0,1E0,2.1E1,4E0,1.1E1,1.8E1,1.8E1,6E0,2E0,1.3E1,8E0,1E0,9E0,7E0,7E0,1E0,1.3E1,3.8E1,7E0],"tree_param":{"num_deleted":"0","num_feature":"25","num_nodes":"47","size_leaf_vector":"1"}},{"base_weights":[8.7731335E2,-1.1935818E4,2.8941172E4,-1.630713E4,1.7910548E3,2.4548916E4,1.1613939E4,-2.0235451E4,-1.0208334E4,1.0023687E4,-1.8936666E3,2.233025E3,3.3658164E4,-2.16058E4,-1.5623851E4,-5.5065146E3,-1.2421581E4,6.579393E3,2.160773E3,-5.7857573E3,3.4220322E3,-5.1256387E3,8.906568E3,2.9732398E4,4.4713785E4,-1.2260686E3,-2.2170798E3,-1.0260809E3,-1.8157621E3,-8.147986E2,-2.846413E2,-1.5048422E3,-8.726208E2,2.145222E2,8.3117773E2,-1.0188499E3,-2.63132E2,-4.3597836E2,7.748919E2,-1.2791686E3,-1.5466563E2,5.281238E2,1.2860135E3,1.1471351E3,3.0694883E3,1.9981875E3,5.2608364E3],"categories":[],"categories_nodes":[],"categories_segments":[],"categories_sizes":[],"default_left":[0,0,0,0,0,0,0,0,0,0,0,0,0,0,0,0,0,0,0,0,0,0,0,0,0,0,0,0,0,0,0,0,0,0,0,0,0,0,0,0,0,0,0,0,0,0,0],"id":22,"left_children":[1,3,5,7,9,11,-1,13,15,17,19,21,23,25,27,29,31,33,-1,35,37,39,41,43,45,-1,-1,-1,-1,-1,-1,-1,-1,-1,-1,-1,-1,-1,-1,-1,-1,-1,-1,-1,-1,-1,-1],"loss_changes":[1.0210826E11,1.1730074E10,3.123563E10,3.339219E9,1.4750593E9,1.7407013E10,0E0,2.248704E8,5.5597824E8,4.563168E8,7.232313E8,1.3224692E9,1.31806E9,7.66505E7,1.3981696E8,1.2436563E8,2.5697024E8,8.203136E7,0E0,2.509543E8,5.388491E8,3.3689206E8,1.3274432E8,4.915364E8,1.6822559E9,0E0,0E0,0E0,0E0,0E0,0E0,0E0,0E0,0E0,0E0,0E0,0E0,0E0,0E0,0E0,0E0,0E0,0E0,0E0,0E0,0E0,0E0],"parents":[2147483647,0,0,1,1,2,2,3,3,4,4,5,5,7,7,8,8,9,9,10,10,11,11,12,12,13,13,14,14,15,15,16,16,17,17,19,19,20,20,21,21,22,22,23,23,24,24],"right_children":[2,4,6,8,10,12,-1,14,16,18,20,22,24,26,28,30,32,34,-1,36,38,40,42,44,46,-1,-1,-1,-1,-1,-1,-1,-1,-1,-1,-1,-1,-1,-1,-1,-1,-1,-1,-1,-1,-1,-1],"split_conditions":[1.2472117E0,6.9168925E-1,1.9044333E0,-6.572175E-1,-3.4786174E-1,-4.1264123E-1,1.1613939E4,-4.8049206E-1,-3.4786174E-1,8.3234316E-1,4.4967493E-1,-8.059993E-1,6.545583E-1,-4.5007557E-1,-3.4786174E-1,5.147984E-2,4.4967493E-1,9.004511E-1,2.160773E3,1.2004583E0,9.2056704E-1,-9.855E-1,-5.4351074E-1,-6.3248384E-1,5.147331E-1,-1.2260686E3,-2.2170798E3,-1.0260809E3,-1.8157621E3,-8.147986E2,-2.846413E2,-1.5048422E3,-8.726208E2,2.145222E2,8.3117773E2,-1.0188499E3,-2.63132E2,-4.3597836E2,7.748919E2,-1.2791686E3,-1.5466563E2,5.281238E2,1.2860135E3,1.1471351E3,3.0694883E3,1.9981875E3,5.2608364E3],"split_indices":[15,6,6,6,15,5,0,13,15,1,15,6,0,19,15,0,15,6,0,6,6,1,6,7,6,0,0,0,0,0,0,0,0,0,0,0,0,0,0,0,0,0,0,0,0,0,0],"split_type":[0,0,0,0,0,0,0,0,0,0,0,0,0,0,0,0,0,0,0,0,0,0,0,0,0,0,0,0,0,0,0,0,0,0,0,0,0,0,0,0,0,0,0,0,0,0,0],"sum_hessian":[2.82E2,1.94E2,8.8E1,1.47E2,4.7E1,8.5E1,3E0,8.8E1,5.9E1,1.4E1,3.3E1,2.5E1,6E1,6.5E1,2.3E1,2E1,3.9E1,1.2E1,2E0,1.9E1,1.4E1,1.2E1,1.3E1,4.7E1,1.3E1,5E0,6E1,9E0,1.4E1,9E0,1.1E1,2.1E1,1.8E1,4E0,8E0,7E0,1.2E1,5E0,9E0,3E0,9E0,8E0,5E0,3E0,4.4E1,4E0,9E0],"tree_param":{"num_deleted":"0","num_feature":"25","num_nodes":"47","size_leaf_vector":"1"}},{"base_weights":[8.46017E2,-1.0780691E4,2.631076E4,-1.5254711E4,3.1877383E2,2.223188E4,1.0742894E4,-1.8282525E4,-9.671768E3,-3.247653E3,7.6225566E3,2.0243542E3,3.0480469E4,-1.8968521E4,-1.1693771E3,-5.3669595E3,-1.185721E4,3.1398337E3,-5.558505E3,1.4398241E4,3.3877607E3,-7.1912524E3,6.5196934E3,2.6846994E4,4.0760918E4,-1.9439677E3,-9.996212E2,-7.441836E2,-2.7553876E2,-1.431765E3,-8.348139E2,-1.8425209E2,4.451748E2,-7.98427E2,-1.9587729E2,8.0572125E2,2.016721E3,-1.429875E2,9.2466486E2,-1.6417894E3,-3.9856857E2,2.4673735E2,1.0297861E3,7.9035315E2,2.7498809E3,1.8383324E3,4.7873623E3],"categories":[],"categories_nodes":[],"categories_segments":[],"categories_sizes":[],"default_left":[0,0,0,0,0,0,0,0,0,0,0,0,0,0,0,0,0,0,0,0,0,0,0,0,0,0,0,0,0,0,0,0,0,0,0,0,0,0,0,0,0,0,0,0,0,0,0],"id":23,"left_children":[1,3,5,7,9,11,-1,13,15,17,19,21,23,25,-1,27,29,31,33,35,37,39,41,43,45,-1,-1,-1,-1,-1,-1,-1,-1,-1,-1,-1,-1,-1,-1,-1,-1,-1,-1,-1,-1,-1,-1],"loss_changes":[8.407178E10,9.688412E9,2.7059184E10,2.172848E9,1.5095146E9,1.4273081E10,0E0,1.8045133E8,4.161659E8,5.9311366E8,4.964014E8,1.1239941E9,1.1842724E9,1.3963878E8,0E0,8.244992E7,1.6539187E8,8.010309E7,2.3759168E8,9.35767E7,3.801594E8,2.00753E8,2.5017754E8,3.7534515E8,1.3482353E9,0E0,0E0,0E0,0E0,0E0,0E0,0E0,0E0,0E0,0E0,0E0,0E0,0E0,0E0,0E0,0E0,0E0,0E0,0E0,0E0,0E0,0E0],"parents":[2147483647,0,0,1,1,2,2,3,3,4,4,5,5,7,7,8,8,9,9,10,10,11,11,12,12,13,13,15,15,16,16,17,17,18,18,19,19,20,20,21,21,22,22,23,23,24,24],"right_children":[2,4,6,8,10,12,-1,14,16,18,20,22,24,26,-1,28,30,32,34,36,38,40,42,44,46,-1,-1,-1,-1,-1,-1,-1,-1,-1,-1,-1,-1,-1,-1,-1,-1,-1,-1,-1,-1,-1,-1],"split_conditions":[1.2472117E0,4.2603102E-1,1.9044333E0,-6.572175E-1,1.5616616E0,-4.1264123E-1,1.0742894E4,2.4492368E-1,-3.4786174E-1,-3.4786174E-1,-3.4786174E-1,-1.0134118E0,6.545583E-1,1.4035484E0,-1.1693771E3,-1.3565357E-1,4.4967493E-1,-4.9128377E-1,4.4967493E-1,8.3234316E-1,4.4967493E-1,-1.4104627E0,-6.0876936E-1,-6.873917E-1,5.147331E-1,-1.9439677E3,-9.996212E2,-7.441836E2,-2.7553876E2,-1.431765E3,-8.348139E2,-1.8425209E2,4.451748E2,-7.98427E2,-1.9587729E2,8.0572125E2,2.016721E3,-1.429875E2,9.2466486E2,-1.6417894E3,-3.9856857E2,2.4673735E2,1.0297861E3,7.9035315E2,2.7498809E3,1.8383324E3,4.7873623E3],"split_indices":[15,6,6,6,6,5,0,2,15,15,15,6,0,4,0,6,15,19,15,1,15,6,6,7,6,0,0,0,0,0,0,0,0,0,0,0,0,0,0,0,0,0,0,0,0,0,0],"split_type":[0,0,0,0,0,0,0,0,0,0,0,0,0,0,0,0,0,0,0,0,0,0,0,0,0,0,0,0,0,0,0,0,0,0,0,0,0,0,0,0,0,0,0,0,0,0,0],"sum_hessian":[2.82E2,1.94E2,8.8E1,1.38E2,5.6E1,8.5E1,3E0,8.8E1,5E1,3.8E1,1.8E1,2.5E1,6E1,7.8E1,1E1,1.8E1,3.2E1,1E1,2.8E1,6E0,1.2E1,8E0,1.7E1,4.7E1,1.3E1,7.3E1,5E0,9E0,9E0,1.7E1,1.5E1,2E0,8E0,1.6E1,1.2E1,4E0,2E0,7E0,5E0,1E0,7E0,9E0,8E0,2E0,4.5E1,4E0,9E0],"tree_param":{"num_deleted":"0","num_feature":"25","num_nodes":"47","size_leaf_vector":"1"}},{"base_weights":[8.165976E2,-9.725846E3,2.3906033E4,-1.3335879E4,1.6077104E3,2.0562479E4,1.1290048E4,-1.6457307E4,-8.348347E3,8.555862E3,-1.5049364E3,1.7925417E3,2.8102088E4,-1.7644129E4,-1.2665803E4,-4.182083E3,-1.022277E4,5.5284424E3,1.8822728E3,-3.3984924E3,6.284279E3,-3.6198567E3,8.408661E3,2.5457123E4,4.524724E3,-1.0034575E3,-1.8103362E3,-8.528965E2,-1.4855096E3,-5.408943E2,-1.13092186E2,-1.2360447E3,-7.2095233E2,1.7433562E2,7.0169965E2,-6.123627E2,7.453216E1,2.006E2,8.9914886E2,-1.5596996E3,-1.6502757E2,2.6666367E2,1.0026377E3,9.5283673E2,2.617897E3],"categories":[],"categories_nodes":[],"categories_segments":[],"categories_sizes":[],"default_left":[0,0,0,0,0,0,0,0,0,0,0,0,0,0,0,0,0,0,0,0,0,0,0,0,0,0,0,0,0,0,0,0,0,0,0,0,0,0,0,0,0,0,0,0,0],"id":24,"left_children":[1,3,5,7,9,11,-1,13,15,17,19,21,23,25,27,29,31,33,-1,35,37,39,41,43,-1,-1,-1,-1,-1,-1,-1,-1,-1,-1,-1,-1,-1,-1,-1,-1,-1,-1,-1,-1,-1],"loss_changes":[6.9120115E10,7.9997686E9,2.416114E10,2.1667082E9,1.0509788E9,1.2261691E10,0E0,1.815081E8,4.179986E8,3.621714E8,5.2283386E8,9.614741E8,1.659732E9,4.897997E7,9.972045E7,6.874989E7,1.6854093E8,6.1012864E7,0E0,3.2075258E8,6.303843E7,3.281099E8,8.473082E7,3.94453E8,0E0,0E0,0E0,0E0,0E0,0E0,0E0,0E0,0E0,0E0,0E0,0E0,0E0,0E0,0E0,0E0,0E0,0E0,0E0,0E0,0E0],"parents":[2147483647,0,0,1,1,2,2,3,3,4,4,5,5,7,7,8,8,9,9,10,10,11,11,12,12,13,13,14,14,15,15,16,16,17,17,19,19,20,20,21,21,22,22,23,23],"right_children":[2,4,6,8,10,12,-1,14,16,18,20,22,24,26,28,30,32,34,-1,36,38,40,42,44,-1,-1,-1,-1,-1,-1,-1,-1,-1,-1,-1,-1,-1,-1,-1,-1,-1,-1,-1,-1,-1],"split_conditions":[1.2472117E0,6.9168925E-1,1.7985538E0,-5.1125747E-1,-3.4786174E-1,-4.1264123E-1,1.1290048E4,-4.8049206E-1,-3.4786174E-1,8.3234316E-1,1.928776E0,-7.617266E-1,1.5319239E0,-4.5007557E-1,-3.4786174E-1,7.534153E-2,4.4967493E-1,9.004511E-1,1.8822728E3,4.4967493E-1,8.831502E-1,-1.4104627E0,-5.344535E-1,-6.3248384E-1,4.524724E3,-1.0034575E3,-1.8103362E3,-8.528965E2,-1.4855096E3,-5.408943E2,-1.13092186E2,-1.2360447E3,-7.2095233E2,1.7433562E2,7.0169965E2,-6.123627E2,7.453216E1,2.006E2,8.9914886E2,-1.5596996E3,-1.6502757E2,2.6666367E2,1.0026377E3,9.5283673E2,2.617897E3],"split_indices":[15,6,5,6,15,5,0,13,15,1,6,6,0,19,15,6,15,6,0,15,4,6,20,7,0,0,0,0,0,0,0,0,0,0,0,0,0,0,0,0,0,0,0,0,0],"split_type":[0,0,0,0,0,0,0,0,0,0,0,0,0,0,0,0,0,0,0,0,0,0,0,0,0,0,0,0,0,0,0,0,0,0,0,0,0,0,0,0,0,0,0,0,0],"sum_hessian":[2.82E2,1.94E2,8.8E1,1.47E2,4.7E1,8.6E1,2E0,8.9E1,5.8E1,1.4E1,3.3E1,2.5E1,6.1E1,6.5E1,2.4E1,1.9E1,3.9E1,1.2E1,2E0,2.7E1,6E0,1.4E1,1.1E1,5.5E1,6E0,5E0,6E1,1E1,1.4E1,1.3E1,6E0,2.1E1,1.8E1,4E0,8E0,1.6E1,1.1E1,3E0,3E0,1E0,1.3E1,3E0,8E0,3E0,5.2E1],"tree_param":{"num_deleted":"0","num_feature":"25","num_nodes":"45","size_leaf_vector":"1"}},{"base_weights":[7.861277E2,-8.776046E3,2.1728123E4,-1.4231448E4,-2.5136765E3,1.8594043E4,1.0537378E4,-1.5004904E4,-8.641947E3,-5.7555405E3,4.378027E3,-4.7742365E2,2.4669469E4,-1.5530625E4,-9.246082E3,-9.206952E3,-3.659375E1,-1.2281611E3,-7.5391997E3,-9.7720215E1,8.860288E3,-8.961941E3,2.5451958E3,2.2093555E4,3.8528767E3,-1.6150106E3,-1.0622764E3,-1.01906604E3,-3.6451797E2,-4.0715298E2,-1.0853969E3,-3.1948068E2,1.3119792E2,-9.855164E2,-4.8954443E2,1.2646334E2,-6.422797E2,1.1311676E3,1.695178E2,-1.4817145E3,-4.8274716E2,3.1789062E1,5.0111777E2,1.4674778E3,2.4340225E3],"categories":[],"categories_nodes":[],"categories_segments":[],"categories_sizes":[],"default_left":[0,0,0,0,0,0,0,0,0,0,0,0,0,0,0,0,0,0,0,0,0,0,0,0,0,0,0,0,0,0,0,0,0,0,0,0,0,0,0,0,0,0,0,0,0],"id":25,"left_children":[1,3,5,7,9,11,-1,13,15,17,19,21,23,25,27,29,-1,31,33,35,37,39,41,43,-1,-1,-1,-1,-1,-1,-1,-1,-1,-1,-1,-1,-1,-1,-1,-1,-1,-1,-1,-1,-1],"loss_changes":[5.6861716E10,6.6261576E9,2.1372223E10,3.1994266E8,2.0806587E9,1.0092235E10,0E0,1.2888269E8,6.677069E7,4.9948467E8,6.0270995E8,5.870102E8,1.5049892E9,7.470694E7,1.5758144E7,7.422144E7,0E0,9.910709E7,2.2728243E8,1.4599434E8,2.4429158E8,7.371962E7,9.177939E7,6.0952986E8,0E0,0E0,0E0,0E0,0E0,0E0,0E0,0E0,0E0,0E0,0E0,0E0,0E0,0E0,0E0,0E0,0E0,0E0,0E0,0E0,0E0],"parents":[2147483647,0,0,1,1,2,2,3,3,4,4,5,5,7,7,8,8,9,9,10,10,11,11,12,12,13,13,14,14,15,15,17,17,18,18,19,19,20,20,21,21,22,22,23,23],"right_children":[2,4,6,8,10,12,-1,14,16,18,20,22,24,26,28,30,-1,32,34,36,38,40,42,44,-1,-1,-1,-1,-1,-1,-1,-1,-1,-1,-1,-1,-1,-1,-1,-1,-1,-1,-1,-1,-1],"split_conditions":[1.2472117E0,-1.3418676E-1,1.7985538E0,2.2157332E-1,8.8138187E-1,-5.0758886E-1,1.0537378E4,-3.1100333E-1,1.0874411E0,-3.4786174E-1,1.3015198E0,-1.1383349E0,7.40643E-1,2.4492368E-1,-3.7939888E-1,5.87217E-1,-3.659375E1,3.2407635E-1,4.4967493E-1,9.6151626E-1,-4.8221257E-1,-1.4104627E0,-7.617266E-1,3.6356983E-1,3.8528767E3,-1.6150106E3,-1.0622764E3,-1.01906604E3,-3.6451797E2,-4.0715298E2,-1.0853969E3,-3.1948068E2,1.3119792E2,-9.855164E2,-4.8954443E2,1.2646334E2,-6.422797E2,1.1311676E3,1.695178E2,-1.4817145E3,-4.8274716E2,3.1789062E1,5.0111777E2,1.4674778E3,2.4340225E3],"split_indices":[15,0,5,1,5,6,0,7,1,15,0,6,6,2,17,1,0,6,15,13,21,6,6,6,0,0,0,0,0,0,0,0,0,0,0,0,0,0,0,0,0,0,0,0,0],"split_type":[0,0,0,0,0,0,0,0,0,0,0,0,0,0,0,0,0,0,0,0,0,0,0,0,0,0,0,0,0,0,0,0,0,0,0,0,0,0,0,0,0,0,0,0,0],"sum_hessian":[2.82E2,1.94E2,8.8E1,1.03E2,9.1E1,8.6E1,2E0,8.9E1,1.4E1,6.2E1,2.9E1,2.1E1,6.5E1,8E1,9E0,1.3E1,1E0,1.8E1,4.4E1,1.5E1,1.4E1,5E0,1.6E1,5.7E1,8E0,6.9E1,1.1E1,7E0,2E0,4E0,9E0,1E1,8E0,2.2E1,2.2E1,1.3E1,2E0,1E1,4E0,1E0,4E0,9E0,7E0,1.5E1,4.2E1],"tree_param":{"num_deleted":"0","num_feature":"25","num_nodes":"45","size_leaf_vector":"1"}},{"base_weights":[7.442339E2,-7.931613E3,1.974475E4,-1.092557E4,1.4649967E3,1.6807312E4,9.834886E3,-1.344467E4,-6.897695E3,7.426784E3,-1.2082919E3,1.3181812E3,2.3031668E4,-1.4242397E4,-9.714091E3,-3.373394E3,-8.487403E3,4.202392E3,1.5243265E3,-2.6852715E3,6.1318257E3,-8.393155E3,4.0300781E3,1.957466E4,3.255865E4,-8.326341E2,-1.455962E3,-5.964943E2,-1.1898475E3,-4.513938E2,-1.09833595E2,-3.1045834E2,-9.167675E2,9.776992E1,5.1686566E2,-4.7221875E2,5.93875E1,9.2940424E2,2.227207E2,-1.4076285E3,-4.441272E2,2.8927814E1,6.8115717E2,7.9547186E2,2.0172551E3,1.3451038E3,3.828405E3],"categories":[],"categories_nodes":[],"categories_segments":[],"categories_sizes":[],"default_left":[0,0,0,0,0,0,0,0,0,0,0,0,0,0,0,0,0,0,0,0,0,0,0,0,0,0,0,0,0,0,0,0,0,0,0,0,0,0,0,0,0,0,0,0,0,0,0],"id":26,"left_children":[1,3,5,7,9,11,-1,13,15,17,19,21,23,25,27,29,31,33,-1,35,37,39,41,43,45,-1,-1,-1,-1,-1,-1,-1,-1,-1,-1,-1,-1,-1,-1,-1,-1,-1,-1,-1,-1,-1,-1],"loss_changes":[4.68079E10,5.501951E9,1.8896646E10,1.4089626E9,7.7397754E8,8.357298E9,0E0,1.2948582E8,3.019228E8,3.1399283E8,3.850666E8,7.185648E8,1.4046351E9,1.3893632E7,8.462835E7,4.693827E7,1.1800934E8,3.2337472E7,0E0,1.9650544E8,5.338371E7,7.223779E7,2.1653478E8,1.7301094E8,1.1260211E9,0E0,0E0,0E0,0E0,0E0,0E0,0E0,0E0,0E0,0E0,0E0,0E0,0E0,0E0,0E0,0E0,0E0,0E0,0E0,0E0,0E0,0E0],"parents":[2147483647,0,0,1,1,2,2,3,3,4,4,5,5,7,7,8,8,9,9,10,10,11,11,12,12,13,13,14,14,15,15,16,16,17,17,19,19,20,20,21,21,22,22,23,23,24,24],"right_children":[2,4,6,8,10,12,-1,14,16,18,20,22,24,26,28,30,32,34,-1,36,38,40,42,44,46,-1,-1,-1,-1,-1,-1,-1,-1,-1,-1,-1,-1,-1,-1,-1,-1,-1,-1,-1,-1,-1,-1],"split_conditions":[1.2472117E0,6.9168925E-1,1.7985538E0,-5.1125747E-1,-3.4786174E-1,-4.1264123E-1,9.834886E3,3.074427E-1,-3.4786174E-1,1.7659171E0,2.1255221E0,-1.1383349E0,6.545583E-1,-4.5007557E-1,1.4158407E0,3.485519E-1,-5.6913817E-1,7.768468E-1,1.5243265E3,4.4967493E-1,1.1387078E0,-1.4104627E0,-7.617266E-1,-6.3248384E-1,5.147331E-1,-8.326341E2,-1.455962E3,-5.964943E2,-1.1898475E3,-4.513938E2,-1.09833595E2,-3.1045834E2,-9.167675E2,9.776992E1,5.1686566E2,-4.7221875E2,5.93875E1,9.2940424E2,2.227207E2,-1.4076285E3,-4.441272E2,2.8927814E1,6.8115717E2,7.9547186E2,2.0172551E3,1.3451038E3,3.828405E3],"split_indices":[15,6,5,6,15,5,0,13,15,6,5,6,0,19,24,0,5,6,0,15,2,6,6,7,6,0,0,0,0,0,0,0,0,0,0,0,0,0,0,0,0,0,0,0,0,0,0],"split_type":[0,0,0,0,0,0,0,0,0,0,0,0,0,0,0,0,0,0,0,0,0,0,0,0,0,0,0,0,0,0,0,0,0,0,0,0,0,0,0,0,0,0,0,0,0,0,0],"sum_hessian":[2.82E2,1.94E2,8.8E1,1.47E2,4.7E1,8.6E1,2E0,8.9E1,5.8E1,1.4E1,3.3E1,2.5E1,6.1E1,7.1E1,1.8E1,1.9E1,3.9E1,1.1E1,3E0,2.8E1,5E0,5E0,2E1,4.7E1,1.4E1,5E0,6.6E1,8E0,1E1,1.2E1,7E0,5E0,3.4E1,3E0,8E0,1.7E1,1.1E1,2E0,3E0,1E0,4E0,9E0,1.1E1,3E0,4.4E1,4E0,1E1],"tree_param":{"num_deleted":"0","num_feature":"25","num_nodes":"47","size_leaf_vector":"1"}},{"base_weights":[7.18202E2,-7.1537607E3,1.7957691E4,-1.0587637E4,-2.8167426E2,1.5205261E4,9.179228E3,-1.2312425E4,-7.170364E3,-2.7765295E3,5.5953193E3,-5.837809E2,2.0237893E4,-1.2787235E4,-7.472621E3,-3.8098193E3,-8.521545E3,1.1479268E3,-4.651991E3,2.1029893E3,1.0570941E4,-7.8624673E3,2.0195073E3,1.8201E4,3.2730234E3,-6.0411163E2,-1.3078115E3,-2.4617357E2,-8.4176263E2,-7.2009766E1,-4.5222418E2,-9.907988E2,-2.1545357E2,-2.6503625E2,2.6348868E2,-6.526105E2,-1.7762668E2,7.555961E2,-2.8849844E1,5.3065186E2,1.4508734E3,-1.3372473E3,-4.085972E2,5.911719E0,4.2175568E2,1.2547161E3,2.0190717E3],"categories":[],"categories_nodes":[],"categories_segments":[],"categories_sizes":[],"default_left":[0,0,0,0,0,0,0,0,0,0,0,0,0,0,0,0,0,0,0,0,0,0,0,0,0,0,0,0,0,0,0,0,0,0,0,0,0,0,0,0,0,0,0,0,0,0,0],"id":27,"left_children":[1,3,5,7,9,11,-1,13,15,17,19,21,23,25,27,29,31,33,35,37,39,41,43,45,-1,-1,-1,-1,-1,-1,-1,-1,-1,-1,-1,-1,-1,-1,-1,-1,-1,-1,-1,-1,-1,-1,-1],"loss_changes":[3.8534E10,4.598609E9,1.6691259E10,6.779433E8,9.83244E8,6.9248717E9,0E0,9.977446E7,1.7640704E8,3.51268E8,3.2529965E8,4.3274573E8,1.0836808E9,7.012966E7,2.6631168E7,2.9761328E7,2.6113254E8,9.7349864E7,1.608697E8,1.7170917E8,8.885082E7,7.021152E7,7.300425E7,4.1038643E8,0E0,0E0,0E0,0E0,0E0,0E0,0E0,0E0,0E0,0E0,0E0,0E0,0E0,0E0,0E0,0E0,0E0,0E0,0E0,0E0,0E0,0E0,0E0],"parents":[2147483647,0,0,1,1,2,2,3,3,4,4,5,5,7,7,8,8,9,9,10,10,11,11,12,12,13,13,14,14,15,15,16,16,17,17,18,18,19,19,20,20,21,21,22,22,23,23],"right_children":[2,4,6,8,10,12,-1,14,16,18,20,22,24,26,28,30,32,34,36,38,40,42,44,46,-1,-1,-1,-1,-1,-1,-1,-1,-1,-1,-1,-1,-1,-1,-1,-1,-1,-1,-1,-1,-1,-1,-1],"split_conditions":[1.2472117E0,5.174437E-1,1.7985538E0,-6.2047523E-1,1.5500039E0,-5.0758886E-1,9.179228E3,-5.6040525E-1,-3.4786174E-1,-3.4786174E-1,9.01935E-1,-1.1383349E0,8.507483E-1,-1.3279773E0,-5.388106E-1,-1.1000156E0,8.178959E-1,-4.9128377E-1,4.4967493E-1,1.5833644E0,2.1688976E0,-1.4104627E0,8.651431E-2,5.189576E-1,3.2730234E3,-6.0411163E2,-1.3078115E3,-2.4617357E2,-8.4176263E2,-7.2009766E1,-4.5222418E2,-9.907988E2,-2.1545357E2,-2.6503625E2,2.6348868E2,-6.526105E2,-1.7762668E2,7.555961E2,-2.8849844E1,5.3065186E2,1.4508734E3,-1.3372473E3,-4.085972E2,5.911719E0,4.2175568E2,1.2547161E3,2.0190717E3],"split_indices":[15,0,5,0,6,6,0,7,15,15,4,6,6,0,7,1,5,19,15,5,6,6,8,6,0,0,0,0,0,0,0,0,0,0,0,0,0,0,0,0,0,0,0,0,0,0,0],"split_type":[0,0,0,0,0,0,0,0,0,0,0,0,0,0,0,0,0,0,0,0,0,0,0,0,0,0,0,0,0,0,0,0,0,0,0,0,0,0,0,0,0,0,0,0,0,0,0],"sum_hessian":[2.82E2,1.94E2,8.8E1,1.29E2,6.5E1,8.6E1,2E0,8.4E1,4.5E1,4.6E1,1.9E1,2.1E1,6.5E1,7.5E1,9E0,1.4E1,3.1E1,1.5E1,3.1E1,1.2E1,7E0,5E0,1.6E1,5.8E1,7E0,4E0,7.1E1,2E0,7E0,3E0,1.1E1,2.5E1,6E0,4E0,1.1E1,1.8E1,1.3E1,3E0,9E0,4E0,3E0,1E0,4E0,9E0,7E0,1.7E1,4.1E1],"tree_param":{"num_deleted":"0","num_feature":"25","num_nodes":"47","size_leaf_vector":"1"}},{"base_weights":[6.8720996E2,-6.4530205E3,1.6323814E4,-9.259551E3,5.0418448E2,1.3744841E4,8.567277E3,-1.0930741E4,-5.4028726E3,-9.6082526E2,8.424328E3,9.160844E2,1.8902951E4,-7.188354E3,-1.1430291E4,-2.481055E3,-6.6836855E3,3.1719822E3,-2.7045764E3,1.5062074E3,4.376105E3,-5.356223E3,4.0013447E3,1.6327432E4,2.9359682E4,-3.778311E2,-1.110536E3,-1.1700862E3,-6.007831E2,-3.5151288E2,1.2414297E2,-7.495863E2,-2.1856668E2,1.3210938E0,4.750047E2,-4.6309164E2,1.726052E1,6.521297E2,1.13688675E2,-1.2703848E3,-2.849789E2,1.6621876E1,5.463607E2,4.9960727E2,1.6680764E3,1.0955438E3,3.4891843E3],"categories":[],"categories_nodes":[],"categories_segments":[],"categories_sizes":[],"default_left":[0,0,0,0,0,0,0,0,0,0,0,0,0,0,0,0,0,0,0,0,0,0,0,0,0,0,0,0,0,0,0,0,0,0,0,0,0,0,0,0,0,0,0,0,0,0,0],"id":28,"left_children":[1,3,5,7,9,11,-1,13,15,17,19,21,23,25,27,29,31,33,35,-1,37,39,41,43,45,-1,-1,-1,-1,-1,-1,-1,-1,-1,-1,-1,-1,-1,-1,-1,-1,-1,-1,-1,-1,-1,-1],"loss_changes":[3.1701996E10,3.812161E9,1.4740011E10,8.368312E8,6.6947034E8,5.739658E9,0E0,9.730867E7,1.480786E8,3.6170166E8,1.7592634E8,5.245763E8,1.1903857E9,1.4504077E8,5.147648E7,6.210364E7,9.321229E7,7.470845E7,1.9478438E8,0E0,4.122724E7,1.2954371E8,1.000351E8,1.2485632E8,7.377121E8,0E0,0E0,0E0,0E0,0E0,0E0,0E0,0E0,0E0,0E0,0E0,0E0,0E0,0E0,0E0,0E0,0E0,0E0,0E0,0E0,0E0,0E0],"parents":[2147483647,0,0,1,1,2,2,3,3,4,4,5,5,7,7,8,8,9,9,10,10,11,11,12,12,13,13,14,14,15,15,16,16,17,17,18,18,20,20,21,21,22,22,23,23,24,24],"right_children":[2,4,6,8,10,12,-1,14,16,18,20,22,24,26,28,30,32,34,36,-1,38,40,42,44,46,-1,-1,-1,-1,-1,-1,-1,-1,-1,-1,-1,-1,-1,-1,-1,-1,-1,-1,-1,-1,-1,-1],"split_conditions":[1.2472117E0,4.2603102E-1,1.7985538E0,-2.4092323E-1,1.928776E0,-4.1264123E-1,8.567277E3,-4.5748857E-1,-3.4786174E-1,-3.4786174E-1,-3.4786174E-1,-1.0134118E0,1.0083247E0,3.9568585E-1,2.1945257E-1,7.534153E-2,1.9176855E0,7.768468E-1,4.4967493E-1,1.5062074E3,4.8999083E-1,-1.4104627E0,-5.344535E-1,-6.873917E-1,5.147331E-1,-3.778311E2,-1.110536E3,-1.1700862E3,-6.007831E2,-3.5151288E2,1.2414297E2,-7.495863E2,-2.1856668E2,1.3210938E0,4.750047E2,-4.6309164E2,1.726052E1,6.521297E2,1.13688675E2,-1.2703848E3,-2.849789E2,1.6621876E1,5.463607E2,4.9960727E2,1.6680764E3,1.0955438E3,3.4891843E3],"split_indices":[15,6,5,7,6,5,0,4,15,15,15,6,0,3,1,6,7,6,15,0,1,6,20,7,6,0,0,0,0,0,0,0,0,0,0,0,0,0,0,0,0,0,0,0,0,0,0],"split_type":[0,0,0,0,0,0,0,0,0,0,0,0,0,0,0,0,0,0,0,0,0,0,0,0,0,0,0,0,0,0,0,0,0,0,0,0,0,0,0,0,0,0,0,0,0,0,0],"sum_hessian":[2.82E2,1.94E2,8.8E1,1.38E2,5.6E1,8.6E1,2E0,9.5E1,4.3E1,4.8E1,8E0,2.5E1,6.1E1,1.3E1,8.2E1,1.4E1,2.9E1,1.4E1,3.4E1,2E0,6E0,8E0,1.7E1,5.1E1,1E1,8E0,5E0,7.7E1,5E0,1.1E1,3E0,2.4E1,5E0,5E0,9E0,2E1,1.4E1,3E0,3E0,1E0,7E0,5E0,1.2E1,2E0,4.9E1,3E0,7E0],"tree_param":{"num_deleted":"0","num_feature":"25","num_nodes":"47","size_leaf_vector":"1"}},{"base_weights":[6.61513E2,-5.818756E3,1.4852422E4,-7.875081E3,2.097078E3,1.2436571E4,7.9961274E3,-9.919127E3,-4.892262E3,7.116604E3,1.9364843E1,-6.372248E2,1.660607E4,-1.0357054E4,-6.17302E3,-1.7129528E3,-6.370729E3,4.322547E3,1.4057927E3,-2.773045E3,4.4390664E3,-6.965475E3,1.6337592E3,1.440796E4,2.5296906E4,-4.4634946E2,-1.0608511E3,-2.379237E2,-6.693853E2,-2.7962204E2,-1.3340938E1,-1.6531432E2,-6.933159E2,1.1642578E2,4.544106E2,1.0188337E2,-4.6015146E2,-1.49875E1,5.3718427E2,-1.2068652E3,-3.5311093E2,-8.257344E0,3.574955E2,8.059052E2,1.5317156E3,9.7704877E2,3.1838806E3],"categories":[],"categories_nodes":[],"categories_segments":[],"categories_sizes":[],"default_left":[0,0,0,0,0,0,0,0,0,0,0,0,0,0,0,0,0,0,0,0,0,0,0,0,0,0,0,0,0,0,0,0,0,0,0,0,0,0,0,0,0,0,0,0,0,0,0],"id":29,"left_children":[1,3,5,7,9,11,-1,13,15,17,19,21,23,25,27,29,31,33,-1,35,37,39,41,43,45,-1,-1,-1,-1,-1,-1,-1,-1,-1,-1,-1,-1,-1,-1,-1,-1,-1,-1,-1,-1,-1,-1],"loss_changes":[2.6111357E10,3.190632E9,1.3004653E10,8.96511E8,4.2745674E8,4.753056E9,0E0,8.535347E7,2.946199E8,1.7196742E8,3.8255824E8,3.2754973E8,8.9634816E8,7.120691E7,7.784832E6,3.727047E7,1.0528435E8,1.70696E6,0E0,1.3642152E8,5.2170544E7,6.2541344E7,5.693474E7,1.9404083E8,9.0778675E8,0E0,0E0,0E0,0E0,0E0,0E0,0E0,0E0,0E0,0E0,0E0,0E0,0E0,0E0,0E0,0E0,0E0,0E0,0E0,0E0,0E0,0E0],"parents":[2147483647,0,0,1,1,2,2,3,3,4,4,5,5,7,7,8,8,9,9,10,10,11,11,12,12,13,13,14,14,15,15,16,16,17,17,19,19,20,20,21,21,22,22,23,23,24,24],"right_children":[2,4,6,8,10,12,-1,14,16,18,20,22,24,26,28,30,32,34,-1,36,38,40,42,44,46,-1,-1,-1,-1,-1,-1,-1,-1,-1,-1,-1,-1,-1,-1,-1,-1,-1,-1,-1,-1,-1,-1],"split_conditions":[1.2472117E0,7.946033E-1,1.7985538E0,-5.092759E-1,-3.4786174E-1,-5.0758886E-1,7.9961274E3,2.4492368E-1,-3.4786174E-1,8.3234316E-1,4.4967493E-1,-1.1383349E0,1.0083247E0,-9.2892575E-1,3.8558507E-1,7.534153E-2,-5.6913817E-1,-7.675582E-1,1.4057927E3,-5.2246106E-1,9.2056704E-1,-1.4104627E0,8.651431E-2,-5.0449654E-2,5.147331E-1,-4.4634946E2,-1.0608511E3,-2.379237E2,-6.693853E2,-2.7962204E2,-1.3340938E1,-1.6531432E2,-6.933159E2,1.1642578E2,4.544106E2,1.0188337E2,-4.6015146E2,-1.49875E1,5.3718427E2,-1.2068652E3,-3.5311093E2,-8.257344E0,3.574955E2,8.059052E2,1.5317156E3,9.7704877E2,3.1838806E3],"split_indices":[15,6,5,6,15,6,0,2,15,1,15,6,0,21,2,6,5,2,0,14,6,6,8,5,6,0,0,0,0,0,0,0,0,0,0,0,0,0,0,0,0,0,0,0,0,0,0],"split_type":[0,0,0,0,0,0,0,0,0,0,0,0,0,0,0,0,0,0,0,0,0,0,0,0,0,0,0,0,0,0,0,0,0,0,0,0,0,0,0,0,0,0,0,0,0,0,0],"sum_hessian":[2.82E2,1.94E2,8.8E1,1.54E2,4E1,8.6E1,2E0,9E1,6.4E1,1.1E1,2.9E1,2.1E1,6.5E1,7.9E1,1.1E1,2.1E1,4.3E1,9E0,2E0,1.8E1,1.1E1,5E0,1.6E1,5.4E1,1.1E1,4E0,7.5E1,2E0,9E0,1.2E1,9E0,5E0,3.8E1,1E0,8E0,6E0,1.2E1,2E0,9E0,1E0,4E0,9E0,7E0,8E0,4.6E1,4E0,7E0],"tree_param":{"num_deleted":"0","num_feature":"25","num_nodes":"47","size_leaf_vector":"1"}},{"base_weights":[6.3726306E2,-5.2441914E3,1.3516436E4,-7.1105806E3,1.9395789E3,1.1253691E4,7.4630522E3,-8.710074E3,-3.9576384E3,6.569668E3,2.2890625E1,-6.375877E2,1.504694E4,-8.868558E3,-5.2391144E2,-1.142091E3,-5.113077E3,3.9473796E3,1.312074E3,-2.514598E3,4.038673E3,-6.528926E3,1.4792133E3,1.2549643E4,2.2066646E4,-9.625832E2,-7.039371E2,-1.3423595E2,5.564922E1,-3.8247708E2,-5.2941566E1,-5.6125555E2,-1.5137682E2,1.1060469E2,4.1401895E2,9.3149895E1,-4.1767578E2,-1.3988543E1,4.8883737E2,-1.1465223E3,-3.2486218E2,-3.9199654E1,3.186066E2,8.3880585E2,1.3897592E3,9.250734E2,2.7051086E3],"categories":[],"categories_nodes":[],"categories_segments":[],"categories_sizes":[],"default_left":[0,0,0,0,0,0,0,0,0,0,0,0,0,0,0,0,0,0,0,0,0,0,0,0,0,0,0,0,0,0,0,0,0,0,0,0,0,0,0,0,0,0,0,0,0,0,0],"id":30,"left_children":[1,3,5,7,9,11,-1,13,15,17,19,21,23,25,27,29,31,33,-1,35,37,39,41,43,45,-1,-1,-1,-1,-1,-1,-1,-1,-1,-1,-1,-1,-1,-1,-1,-1,-1,-1,-1,-1,-1,-1],"loss_changes":[2.150764E10,2.6282957E9,1.1467542E10,7.4721024E8,3.6370154E8,3.933867E9,0E0,1.2768614E8,1.6983283E8,1.5435306E8,3.158557E8,2.8401507E8,8.800717E8,7.075994E7,3.3997748E6,2.5916508E7,5.981939E7,8.9912E5,0E0,1.1272196E8,4.329008E7,5.9909136E7,5.5544876E7,1.6951603E8,7.7184E8,0E0,0E0,0E0,0E0,0E0,0E0,0E0,0E0,0E0,0E0,0E0,0E0,0E0,0E0,0E0,0E0,0E0,0E0,0E0,0E0,0E0,0E0],"parents":[2147483647,0,0,1,1,2,2,3,3,4,4,5,5,7,7,8,8,9,9,10,10,11,11,12,12,13,13,14,14,15,15,16,16,17,17,19,19,20,20,21,21,22,22,23,23,24,24],"right_children":[2,4,6,8,10,12,-1,14,16,18,20,22,24,26,28,30,32,34,-1,36,38,40,42,44,46,-1,-1,-1,-1,-1,-1,-1,-1,-1,-1,-1,-1,-1,-1,-1,-1,-1,-1,-1,-1,-1,-1],"split_conditions":[1.2472117E0,7.946033E-1,1.7985538E0,-1.4310731E-1,-3.4786174E-1,-5.517504E-1,7.4630522E3,1.0614806E0,-3.4786174E-1,8.3234316E-1,4.4967493E-1,-1.1383349E0,6.545583E-1,-4.8049206E-1,-9.1488534E-1,-4.8758376E-2,1.9176855E0,-7.675582E-1,1.312074E3,-5.2246106E-1,9.2056704E-1,-1.4104627E0,-3.2541624E-1,6.543496E-1,5.147331E-1,-9.625832E2,-7.039371E2,-1.3423595E2,5.564922E1,-3.8247708E2,-5.2941566E1,-5.6125555E2,-1.5137682E2,1.1060469E2,4.1401895E2,9.3149895E1,-4.1767578E2,-1.3988543E1,4.8883737E2,-1.1465223E3,-3.2486218E2,-3.9199654E1,3.186066E2,8.3880585E2,1.3897592E3,9.250734E2,2.7051086E3],"split_indices":[15,6,5,0,15,5,0,1,15,1,15,6,0,13,0,7,7,2,0,14,6,6,20,5,6,0,0,0,0,0,0,0,0,0,0,0,0,0,0,0,0,0,0,0,0,0,0],"split_type":[0,0,0,0,0,0,0,0,0,0,0,0,0,0,0,0,0,0,0,0,0,0,0,0,0,0,0,0,0,0,0,0,0,0,0,0,0,0,0,0,0,0,0,0,0,0,0],"sum_hessian":[2.82E2,1.94E2,8.8E1,1.54E2,4E1,8.6E1,2E0,1.01E2,5.3E1,1.1E1,2.9E1,2.1E1,6.5E1,9.9E1,2E0,1.6E1,3.7E1,9E0,2E0,1.8E1,1.1E1,5E0,1.6E1,5E1,1.5E1,6.7E1,3.2E1,1E0,1E0,2E0,1.4E1,3.2E1,5E0,1E0,8E0,6E0,1.2E1,2E0,9E0,1E0,4E0,8E0,8E0,1.4E1,3.6E1,5E0,1E1],"tree_param":{"num_deleted":"0","num_feature":"25","num_nodes":"47","size_leaf_vector":"1"}},{"base_weights":[6.1319604E2,-4.72442E3,1.2301083E4,-7.191052E3,-2.1699174E2,1.0181965E4,6.965515E3,-8.0714834E3,-4.35255E3,-2.0284087E3,4.412971E3,-6.6625464E2,1.3643766E4,-8.600099E3,-5.5043857E3,-2.2893594E3,-6.272656E3,7.482637E2,-3.2061406E3,1.6758787E3,8.309125E3,-6.121267E3,1.2982354E3,1.174104E4,2.1227615E4,-8.933468E2,-4.6081027E2,-7.189551E1,-6.3567194E2,-1.5127328E2,-5.4093726E2,-8.0293036E2,-2.867066E2,-2.2871126E2,1.9506485E2,-4.820874E2,-1.1178576E2,4.8000342E2,-2.4597223E1,1.1538535E3,4.063772E2,-1.0891965E3,-2.9887344E2,-3.96967E1,2.849189E2,8.2410077E2,1.2965643E3,8.248787E2,2.668593E3],"categories":[],"categories_nodes":[],"categories_segments":[],"categories_sizes":[],"default_left":[0,0,0,0,0,0,0,0,0,0,0,0,0,0,0,0,0,0,0,0,0,0,0,0,0,0,0,0,0,0,0,0,0,0,0,0,0,0,0,0,0,0,0,0,0,0,0,0,0],"id":31,"left_children":[1,3,5,7,9,11,-1,13,15,17,19,21,23,25,27,29,31,33,35,37,39,41,43,45,47,-1,-1,-1,-1,-1,-1,-1,-1,-1,-1,-1,-1,-1,-1,-1,-1,-1,-1,-1,-1,-1,-1,-1,-1],"loss_changes":[1.77132E10,2.166482E9,1.0107836E10,2.7975578E8,5.960268E8,3.2763218E9,0E0,8.157747E7,1.1240909E8,1.69178E8,1.9935763E8,2.4370581E8,7.0314496E8,6.1305856E7,7.292666E7,3.3009504E7,7.269818E7,6.285639E7,1.1600371E8,7.923477E7,6.278989E7,5.711299E7,4.5827108E7,1.2888832E8,6.299832E8,0E0,0E0,0E0,0E0,0E0,0E0,0E0,0E0,0E0,0E0,0E0,0E0,0E0,0E0,0E0,0E0,0E0,0E0,0E0,0E0,0E0,0E0,0E0,0E0],"parents":[2147483647,0,0,1,1,2,2,3,3,4,4,5,5,7,7,8,8,9,9,10,10,11,11,12,12,13,13,14,14,15,15,16,16,17,17,18,18,19,19,20,20,21,21,22,22,23,23,24,24],"right_children":[2,4,6,8,10,12,-1,14,16,18,20,22,24,26,28,30,32,34,36,38,40,42,44,46,48,-1,-1,-1,-1,-1,-1,-1,-1,-1,-1,-1,-1,-1,-1,-1,-1,-1,-1,-1,-1,-1,-1,-1,-1],"split_conditions":[1.2472117E0,4.468853E-1,1.7985538E0,-4.080195E-1,1.5500039E0,-5.0758886E-1,6.965515E3,4.5024902E-1,9.5651625E-4,-3.4786174E-1,9.01935E-1,-1.1383349E0,1.0083247E0,4.4967493E-1,7.2701854E-1,9.1762775E-1,1.2964774E0,-4.9128377E-1,4.4967493E-1,1.7253947E0,4.0309608E-1,-1.4104627E0,-8.016211E-1,6.543496E-1,5.147331E-1,-8.933468E2,-4.6081027E2,-7.189551E1,-6.3567194E2,-1.5127328E2,-5.4093726E2,-8.0293036E2,-2.867066E2,-2.2871126E2,1.9506485E2,-4.820874E2,-1.1178576E2,4.8000342E2,-2.4597223E1,1.1538535E3,4.063772E2,-1.0891965E3,-2.9887344E2,-3.96967E1,2.849189E2,8.2410077E2,1.2965643E3,8.248787E2,2.668593E3],"split_indices":[15,0,5,5,6,6,0,13,3,15,4,6,0,15,13,1,14,19,15,5,13,6,6,5,6,0,0,0,0,0,0,0,0,0,0,0,0,0,0,0,0,0,0,0,0,0,0,0,0],"split_type":[0,0,0,0,0,0,0,0,0,0,0,0,0,0,0,0,0,0,0,0,0,0,0,0,0,0,0,0,0,0,0,0,0,0,0,0,0,0,0,0,0,0,0,0,0,0,0,0,0],"sum_hessian":[2.82E2,1.94E2,8.8E1,1.25E2,6.9E1,8.6E1,2E0,9.4E1,3.1E1,5E1,1.9E1,2.1E1,6.5E1,7.6E1,1.8E1,1.6E1,1.5E1,1.5E1,3.5E1,1.2E1,7E0,5E0,1.6E1,5.4E1,1.1E1,6.9E1,7E0,3E0,1.5E1,1.4E1,2E0,9E0,6E0,4E0,1.1E1,1.9E1,1.6E1,4E0,8E0,3E0,4E0,1E0,4E0,8E0,8E0,1.6E1,3.8E1,4E0,7E0],"tree_param":{"num_deleted":"0","num_feature":"25","num_nodes":"49","size_leaf_vector":"1"}},{"base_weights":[5.8361383E2,-4.264571E3,1.1199483E4,-5.8250586E3,1.7388479E3,9.215167E3,6.501148E3,-7.2022437E3,-3.3976587E3,3.738305E2,6.5507065E3,-3.9049014E2,1.247232E4,-7.6551265E3,-3.9381516E3,-1.0772025E3,-4.5005166E3,1.147907E3,-5.5252014E2,3.403299E3,1.1711089E3,-5.740483E3,1.4145347E3,1.0218081E4,1.9305248E4,-6.0618946E1,-7.7318256E2,-1.7764832E2,-5.846037E2,-2.2042557E2,5.4522396E1,-4.955704E2,-1.1710365E2,3.3302924E2,5.4013762E0,6.0829296E1,5.3474805E2,-1.0347363E3,-2.7496344E2,1.6141348E1,3.893875E2,4.891875E2,1.0819534E3,8.233044E2,2.2583044E3],"categories":[],"categories_nodes":[],"categories_segments":[],"categories_sizes":[],"default_left":[0,0,0,0,0,0,0,0,0,0,0,0,0,0,0,0,0,0,0,0,0,0,0,0,0,0,0,0,0,0,0,0,0,0,0,0,0,0,0,0,0,0,0,0,0],"id":32,"left_children":[1,3,5,7,9,11,-1,13,15,17,19,21,23,25,27,29,31,33,-1,35,-1,37,39,41,43,-1,-1,-1,-1,-1,-1,-1,-1,-1,-1,-1,-1,-1,-1,-1,-1,-1,-1,-1,-1],"loss_changes":[1.4613119E10,1.8369403E9,8.904329E9,4.9369037E8,2.6685027E8,2.726847E9,0E0,1.1472179E8,1.4358176E8,1.5703038E8,1.063201E8,2.3022811E8,8.039373E8,4.1268224E7,4.7353616E7,3.777303E7,5.3302656E7,7.143901E7,0E0,3.478516E7,0E0,5.421944E7,5.529593E7,1.1044864E8,3.5845888E8,0E0,0E0,0E0,0E0,0E0,0E0,0E0,0E0,0E0,0E0,0E0,0E0,0E0,0E0,0E0,0E0,0E0,0E0,0E0,0E0],"parents":[2147483647,0,0,1,1,2,2,3,3,4,4,5,5,7,7,8,8,9,9,10,10,11,11,12,12,13,13,14,14,15,15,16,16,17,17,19,19,21,21,22,22,23,23,24,24],"right_children":[2,4,6,8,10,12,-1,14,16,18,20,22,24,26,28,30,32,34,-1,36,-1,38,40,42,44,-1,-1,-1,-1,-1,-1,-1,-1,-1,-1,-1,-1,-1,-1,-1,-1,-1,-1,-1,-1],"split_conditions":[1.2472117E0,7.946033E-1,1.7985538E0,-2.4092323E-1,1.928776E0,-4.80628E-1,6.501148E3,2.2157332E-1,-3.4786174E-1,1.0608641E0,8.651431E-2,-1.1383349E0,6.545583E-1,-1.673924E0,-3.6507452E-1,7.534153E-2,1.9176855E0,-3.4786174E-1,-5.5252014E2,-3.7939888E-1,1.1711089E3,-1.4104627E0,1.9511363E-1,-4.1594234E-1,5.147331E-1,-6.0618946E1,-7.7318256E2,-1.7764832E2,-5.846037E2,-2.2042557E2,5.4522396E1,-4.955704E2,-1.1710365E2,3.3302924E2,5.4013762E0,6.0829296E1,5.3474805E2,-1.0347363E3,-2.7496344E2,1.6141348E1,3.893875E2,4.891875E2,1.0819534E3,8.233044E2,2.2583044E3],"split_indices":[15,6,5,7,6,5,0,1,15,13,8,6,0,1,21,6,7,15,0,17,0,6,0,21,6,0,0,0,0,0,0,0,0,0,0,0,0,0,0,0,0,0,0,0,0],"split_type":[0,0,0,0,0,0,0,0,0,0,0,0,0,0,0,0,0,0,0,0,0,0,0,0,0,0,0,0,0,0,0,0,0,0,0,0,0,0,0,0,0,0,0,0,0],"sum_hessian":[2.82E2,1.94E2,8.8E1,1.54E2,4E1,8.6E1,2E0,9.7E1,5.7E1,3.2E1,8E0,2.2E1,6.4E1,8.4E1,1.3E1,1.9E1,3.8E1,2.9E1,3E0,6E0,2E0,5E0,1.7E1,5E1,1.4E1,1E0,8.3E1,7E0,6E0,1.1E1,8E0,3.3E1,5E0,9E0,2E1,3E0,3E0,1E0,4E0,1.2E1,5E0,6E0,4.4E1,4E0,1E1],"tree_param":{"num_deleted":"0","num_feature":"25","num_nodes":"45","size_leaf_vector":"1"}},{"base_weights":[5.5856757E2,-3.842329E3,1.0194706E4,-5.0119717E3,2.757771E3,8.336743E3,6.0677397E3,-6.483451E3,-2.7959653E3,1.0780721E3,6.557283E3,2.841764E2,1.1579162E4,-6.899423E3,-3.6940488E3,-5.544069E2,-3.8559624E3,4.0557864E2,-3.630193E1,3.0841067E3,1.01277264E3,-5.384715E3,1.8903274E3,9.788933E3,1.8989412E4,-3.8092935E2,-7.127905E2,-1.0554498E2,-4.9078033E2,-1.6064561E2,1.6189922E2,-4.5124008E2,-1.7383009E1,-1.4528117E2,1.7388731E2,4.6492813E2,1.1391992E2,-9.8299963E2,-2.5296594E2,-2.2459219E1,3.4952332E2,3.3276096E2,1.0116613E3,7.4710547E2,2.2374915E3],"categories":[],"categories_nodes":[],"categories_segments":[],"categories_sizes":[],"default_left":[0,0,0,0,0,0,0,0,0,0,0,0,0,0,0,0,0,0,0,0,0,0,0,0,0,0,0,0,0,0,0,0,0,0,0,0,0,0,0,0,0,0,0,0,0],"id":33,"left_children":[1,3,5,7,9,11,-1,13,15,17,19,21,23,25,27,29,31,-1,33,35,-1,37,39,41,43,-1,-1,-1,-1,-1,-1,-1,-1,-1,-1,-1,-1,-1,-1,-1,-1,-1,-1,-1,-1],"loss_changes":[1.2040536E10,1.5191747E9,7.8419005E9,5.2316672E8,1.8439187E8,2.2682614E9,0E0,8.938368E7,1.5943331E8,7.314955E7,8.037203E7,2.4691134E8,6.36609E8,3.2861184E7,4.2859216E7,5.5190864E7,1.1040186E8,0E0,4.5273652E7,1.2968264E7,0E0,5.128261E7,7.2064184E7,7.64329E7,2.6178534E8,0E0,0E0,0E0,0E0,0E0,0E0,0E0,0E0,0E0,0E0,0E0,0E0,0E0,0E0,0E0,0E0,0E0,0E0,0E0,0E0],"parents":[2147483647,0,0,1,1,2,2,3,3,4,4,5,5,7,7,8,8,9,9,10,10,11,11,12,12,13,13,14,14,15,15,16,16,18,18,19,19,21,21,22,22,23,23,24,24],"right_children":[2,4,6,8,10,12,-1,14,16,18,20,22,24,26,28,30,32,-1,34,36,-1,38,40,42,44,-1,-1,-1,-1,-1,-1,-1,-1,-1,-1,-1,-1,-1,-1,-1,-1,-1,-1,-1,-1],"split_conditions":[1.2472117E0,1.1093413E0,1.7985538E0,-2.4092323E-1,9.01935E-1,-4.1264123E-1,6.0677397E3,2.2157332E-1,-3.4786174E-1,-3.4786174E-1,2.1688976E0,-1.1383349E0,1.0083247E0,-4.5748857E-1,5.87217E-1,8.565274E-4,1.9176855E0,4.0557864E2,1.1766697E0,9.111121E-2,1.01277264E3,-1.4104627E0,-7.617266E-1,-6.3248384E-1,5.147331E-1,-3.8092935E2,-7.127905E2,-1.0554498E2,-4.9078033E2,-1.6064561E2,1.6189922E2,-4.5124008E2,-1.7383009E1,-1.4528117E2,1.7388731E2,4.6492813E2,1.1391992E2,-9.8299963E2,-2.5296594E2,-2.2459219E1,3.4952332E2,3.3276096E2,1.0116613E3,7.4710547E2,2.2374915E3],"split_indices":[15,6,5,7,4,5,0,1,15,15,6,6,0,4,1,5,7,0,2,1,0,6,6,7,6,0,0,0,0,0,0,0,0,0,0,0,0,0,0,0,0,0,0,0,0],"split_type":[0,0,0,0,0,0,0,0,0,0,0,0,0,0,0,0,0,0,0,0,0,0,0,0,0,0,0,0,0,0,0,0,0,0,0,0,0,0,0,0,0,0,0,0,0],"sum_hessian":[2.82E2,1.94E2,8.8E1,1.65E2,2.9E1,8.6E1,2E0,9.8E1,6.7E1,2.1E1,8E0,2.5E1,6.1E1,8.4E1,1.4E1,2.2E1,4.5E1,5E0,1.6E1,5E0,3E0,5E0,2E1,5.1E1,1E1,7E0,7.7E1,5E0,9E0,1.5E1,7E0,3.8E1,7E0,9E0,7E0,2E0,3E0,1E0,4E0,9E0,1.1E1,3E0,4.8E1,3E0,7E0],"tree_param":{"num_deleted":"0","num_feature":"25","num_nodes":"45","size_leaf_vector":"1"}},{"base_weights":[5.3576715E2,-3.458772E3,9.281827E3,-5.073869E3,5.4047876E2,7.542367E3,5.663223E3,-5.981783E3,-2.9776506E3,-4.134651E2,5.6741196E3,-2.0681413E2,1.0330461E4,-9.449299E2,-5.6456235E3,-4.194954E3,-1.4446534E3,1.8305312E3,-1.3633645E3,1.0660011E3,2.726721E3,-6.4481934E3,9.918683E2,8.779592E3,1.6319261E4,-2.2926859E2,-6.036082E2,-1.9276701E2,-5.6767523E2,-2.9467365E2,-7.2529945E0,-1.4878438E2,2.4555E2,-2.7254208E2,6.344052E1,4.2447226E2,5.2703907E1,-9.338496E2,-2.371927E2,-7.022926E1,2.5958594E2,6.0558795E2,9.6020557E2,6.498862E2,2.0417102E3],"categories":[],"categories_nodes":[],"categories_segments":[],"categories_sizes":[],"default_left":[0,0,0,0,0,0,0,0,0,0,0,0,0,0,0,0,0,0,0,0,0,0,0,0,0,0,0,0,0,0,0,0,0,0,0,0,0,0,0,0,0,0,0,0,0],"id":34,"left_children":[1,3,5,7,9,11,-1,13,15,17,19,21,23,-1,25,27,29,31,33,-1,35,37,39,41,43,-1,-1,-1,-1,-1,-1,-1,-1,-1,-1,-1,-1,-1,-1,-1,-1,-1,-1,-1,-1],"loss_changes":[9.919128E9,1.2622825E9,6.903267E9,2.46731E8,2.8148672E8,1.8818104E9,0E0,5.855437E7,7.604918E7,1.0694265E8,1.0319181E8,1.8595011E8,4.511452E8,0E0,1.0398746E8,6.968886E7,4.3068184E7,3.4761612E7,9.696665E7,0E0,2.1136708E7,2.4976352E7,5.888885E7,6.057907E7,3.502213E8,0E0,0E0,0E0,0E0,0E0,0E0,0E0,0E0,0E0,0E0,0E0,0E0,0E0,0E0,0E0,0E0,0E0,0E0,0E0,0E0],"parents":[2147483647,0,0,1,1,2,2,3,3,4,4,5,5,7,7,8,8,9,9,10,10,11,11,12,12,14,14,15,15,16,16,17,17,18,18,20,20,21,21,22,22,23,23,24,24],"right_children":[2,4,6,8,10,12,-1,14,16,18,20,22,24,-1,26,28,30,32,34,-1,36,38,40,42,44,-1,-1,-1,-1,-1,-1,-1,-1,-1,-1,-1,-1,-1,-1,-1,-1,-1,-1,-1,-1],"split_conditions":[1.2472117E0,4.2603102E-1,1.7985538E0,-2.4092323E-1,1.928776E0,-3.9069214E-1,5.663223E3,-1.3240883E0,-8.379731E-3,-3.4786174E-1,-3.4786174E-1,-1.0414498E0,1.0083247E0,-9.449299E2,-4.5748857E-1,3.971033E-1,4.060892E-1,-8.0612653E-1,4.4967493E-1,1.0660011E3,4.8999083E-1,-1.2766142E0,-8.016211E-1,6.543496E-1,5.147331E-1,-2.2926859E2,-6.036082E2,-1.9276701E2,-5.6767523E2,-2.9467365E2,-7.2529945E0,-1.4878438E2,2.4555E2,-2.7254208E2,6.344052E1,4.2447226E2,5.2703907E1,-9.338496E2,-2.371927E2,-7.022926E1,2.5958594E2,6.0558795E2,9.6020557E2,6.498862E2,2.0417102E3],"split_indices":[15,6,5,7,6,6,0,13,4,15,15,5,0,0,4,7,0,21,15,0,1,0,6,5,6,0,0,0,0,0,0,0,0,0,0,0,0,0,0,0,0,0,0,0,0],"split_type":[0,0,0,0,0,0,0,0,0,0,0,0,0,0,0,0,0,0,0,0,0,0,0,0,0,0,0,0,0,0,0,0,0,0,0,0,0,0,0,0,0,0,0,0,0],"sum_hessian":[2.82E2,1.94E2,8.8E1,1.38E2,5.6E1,8.6E1,2E0,9.5E1,4.3E1,4.8E1,8E0,2.3E1,6.3E1,6E0,8.9E1,2.3E1,2E1,1.4E1,3.4E1,2E0,6E0,3E0,2E1,5.2E1,1.1E1,1E1,7.9E1,1E1,1.3E1,9E0,1.1E1,2E0,1.2E1,2E1,1.4E1,3E0,3E0,1E0,2E0,1E1,1E1,1.4E1,3.8E1,4E0,7E0],"tree_param":{"num_deleted":"0","num_feature":"25","num_nodes":"45","size_leaf_vector":"1"}},{"base_weights":[5.087996E2,-5.188577E1,5.2856733E3,-3.1201226E3,6.825793E3,-4.1101255E3,2.4618967E3,-4.7367392E2,9.303669E3,-5.2542617E3,-2.2514783E3,1.7904803E3,1.0966484E3,-8.8715704E2,3.1130185E2,7.4972476E3,1.4825259E4,-5.3724097E2,4.354141E1,-2.6693048E1,-3.0653802E2,3.3322704E1,3.3280212E2,-1.2159674E2,1.9491136E2,3.3767905E2,7.971602E2,6.412763E2,1.730137E3],"categories":[],"categories_nodes":[],"categories_segments":[],"categories_sizes":[],"default_left":[0,0,0,0,0,0,0,0,0,0,0,0,0,0,0,0,0,0,0,0,0,0,0,0,0,0,0,0,0],"id":35,"left_children":[1,3,-1,5,7,9,11,13,15,17,19,21,-1,-1,23,25,27,-1,-1,-1,-1,-1,-1,-1,-1,-1,-1,-1,-1],"loss_changes":[8.308996E9,5.9510564E9,0E0,1.0877306E9,1.5779909E9,3.4117658E8,1.5166827E8,1.5438107E8,5.371827E8,7.090611E7,1.0417149E8,6.386801E7,0E0,0E0,5.7400412E7,7.27639E7,2.0150451E8,0E0,0E0,0E0,0E0,0E0,0E0,0E0,0E0,0E0,0E0,0E0,0E0],"parents":[2147483647,0,0,1,1,3,3,4,4,5,5,6,6,7,7,8,8,9,9,10,10,11,11,14,14,15,15,16,16],"right_children":[2,4,-1,6,8,10,12,14,16,18,20,22,-1,-1,24,26,28,-1,-1,-1,-1,-1,-1,-1,-1,-1,-1,-1,-1],"split_conditions":[2.5898044E0,1.2472117E0,5.2856733E3,1.1093413E0,-4.80628E-1,-1.4310731E-1,1.2733994E0,-1.4104627E0,6.545583E-1,1.0614806E0,-3.4786174E-1,-9.4677486E-2,1.0966484E3,-8.8715704E2,-8.059993E-1,-4.1594234E-1,5.147331E-1,-5.3724097E2,4.354141E1,-2.6693048E1,-3.0653802E2,3.3322704E1,3.3280212E2,-1.2159674E2,1.9491136E2,3.3767905E2,7.971602E2,6.412763E2,1.730137E3],"split_indices":[6,15,0,6,5,0,4,6,0,1,15,3,0,0,6,21,6,0,0,0,0,0,0,0,0,0,0,0,0],"split_type":[0,0,0,0,0,0,0,0,0,0,0,0,0,0,0,0,0,0,0,0,0,0,0,0,0,0,0,0,0],"sum_hessian":[2.82E2,2.8E2,2E0,1.94E2,8.6E1,1.65E2,2.9E1,2.2E1,6.4E1,1.01E2,6.4E1,2.8E1,1E0,1E0,2.1E1,5E1,1.4E1,9.9E1,2E0,1.9E1,4.5E1,1.5E1,1.3E1,1.1E1,1E1,6E0,4.4E1,4E0,1E1],"tree_param":{"num_deleted":"0","num_feature":"25","num_nodes":"29","size_leaf_vector":"1"}},{"base_weights":[4.8835342E2,-3.4856915E1,4.933294E3,-2.8048506E3,6.1741504E3,-3.7040955E3,2.2644648E3,-2.857578E2,8.500145E3,-4.4987505E3,-1.5332836E3,1.6240563E3,1.0418157E3,-5.813551E3,7.8076263E2,7.156587E3,1.3725849E4,-8.300711E2,-4.228207E2,5.5509113E1,-2.2054898E2,3.0198584E1,3.0189902E2,-8.4279926E2,-2.1327396E2,-6.137214E1,2.3760672E2,3.262349E2,7.494271E2,5.5552124E2,1.7116766E3],"categories":[],"categories_nodes":[],"categories_segments":[],"categories_sizes":[],"default_left":[0,0,0,0,0,0,0,0,0,0,0,0,0,0,0,0,0,0,0,0,0,0,0,0,0,0,0,0,0,0,0],"id":36,"left_children":[1,3,-1,5,7,9,11,13,15,17,19,21,-1,23,25,27,29,-1,-1,-1,-1,-1,-1,-1,-1,-1,-1,-1,-1,-1,-1],"loss_changes":[7.2340654E9,4.8502113E9,0E0,8.973061E8,1.309666E9,2.794596E8,1.3973112E8,1.460311E8,3.511163E8,8.93632E7,6.5799904E7,5.257012E7,0E0,2.0518352E7,4.8175404E7,4.524723E7,2.373842E8,0E0,0E0,0E0,0E0,0E0,0E0,0E0,0E0,0E0,0E0,0E0,0E0,0E0,0E0],"parents":[2147483647,0,0,1,1,3,3,4,4,5,5,6,6,7,7,8,8,9,9,10,10,11,11,13,13,14,14,15,15,16,16],"right_children":[2,4,-1,6,8,10,12,14,16,18,20,22,-1,24,26,28,30,-1,-1,-1,-1,-1,-1,-1,-1,-1,-1,-1,-1,-1,-1],"split_conditions":[2.5898044E0,1.2472117E0,4.933294E3,1.1093413E0,-3.9069214E-1,4.060892E-1,1.2733994E0,-1.0414498E0,1.0083247E0,-1.141399E0,-5.744215E-1,-9.4677486E-2,1.0418157E3,-1.2766142E0,-3.2541624E-1,-5.4149693E-1,5.147331E-1,-8.300711E2,-4.228207E2,5.5509113E1,-2.2054898E2,3.0198584E1,3.0189902E2,-8.4279926E2,-2.1327396E2,-6.137214E1,2.3760672E2,3.262349E2,7.494271E2,5.5552124E2,1.7116766E3],"split_indices":[6,15,0,6,6,0,4,5,0,5,2,3,0,0,20,22,6,0,0,0,0,0,0,0,0,0,0,0,0,0,0],"split_type":[0,0,0,0,0,0,0,0,0,0,0,0,0,0,0,0,0,0,0,0,0,0,0,0,0,0,0,0,0,0,0],"sum_hessian":[2.82E2,2.8E2,2E0,1.94E2,8.6E1,1.65E2,2.9E1,2.3E1,6.3E1,1.2E2,4.5E1,2.8E1,1E0,3E0,2E1,5.2E1,1.1E1,6E0,1.14E2,1.1E1,3.4E1,1.5E1,1.3E1,1E0,2E0,1.1E1,9E0,5E0,4.7E1,4E0,7E0],"tree_param":{"num_deleted":"0","num_feature":"25","num_nodes":"31","size_leaf_vector":"1"}},{"base_weights":[4.6549518E2,-2.2765295E1,4.6044062E3,-2.524592E3,5.585039E3,-3.3422278E3,2.0838123E3,-5.3112225E2,7.663296E3,-4.6212017E3,-2.1277434E3,1.4730989E3,9.8972504E2,-8.0065936E2,1.7260796E2,6.1142095E3,1.2419302E4,-1.0103054E2,-4.8484576E2,-4.0575653E1,-3.0737405E2,1.7587654E2,-3.2627814E2,2.804681E2,-5.6811287E1,2.3713333E2,6.4694934E2,5.4165314E2,1.4473353E3],"categories":[],"categories_nodes":[],"categories_segments":[],"categories_sizes":[],"default_left":[0,0,0,0,0,0,0,0,0,0,0,0,0,0,0,0,0,0,0,0,0,0,0,0,0,0,0,0,0],"id":37,"left_children":[1,3,-1,5,7,9,11,13,15,17,19,21,-1,-1,23,25,27,-1,-1,-1,-1,-1,-1,-1,-1,-1,-1,-1,-1],"loss_changes":[6.29899E9,3.956461E9,0E0,7.417238E8,1.1099231E9,2.4801408E8,1.2857351E8,1.22378456E8,4.0295066E8,6.074931E7,1.4047533E8,4.4972044E7,0E0,0E0,4.4485268E7,5.2477696E7,1.3736525E8,0E0,0E0,0E0,0E0,0E0,0E0,0E0,0E0,0E0,0E0,0E0,0E0],"parents":[2147483647,0,0,1,1,3,3,4,4,5,5,6,6,7,7,8,8,9,9,10,10,11,11,14,14,15,15,16,16],"right_children":[2,4,-1,6,8,10,12,14,16,18,20,22,-1,-1,24,26,28,-1,-1,-1,-1,-1,-1,-1,-1,-1,-1,-1,-1],"split_conditions":[2.5898044E0,1.2472117E0,4.6044062E3,1.1093413E0,-4.80628E-1,-5.6040525E-1,1.2733994E0,-1.4104627E0,6.545583E-1,-7.1892184E-1,-3.4786174E-1,1.4169164E0,9.8972504E2,-8.0065936E2,-1.7096924E0,-5.4149693E-1,5.147331E-1,-1.0103054E2,-4.8484576E2,-4.0575653E1,-3.0737405E2,1.7587654E2,-3.2627814E2,2.804681E2,-5.6811287E1,2.3713333E2,6.4694934E2,5.4165314E2,1.4473353E3],"split_indices":[6,15,0,6,5,7,4,6,0,12,15,13,0,0,23,22,6,0,0,0,0,0,0,0,0,0,0,0,0],"split_type":[0,0,0,0,0,0,0,0,0,0,0,0,0,0,0,0,0,0,0,0,0,0,0,0,0,0,0,0,0],"sum_hessian":[2.82E2,2.8E2,2E0,1.94E2,8.6E1,1.65E2,2.9E1,2.2E1,6.4E1,7.9E1,8.6E1,2.8E1,1E0,1E0,2.1E1,5E1,1.4E1,5E0,7.4E1,3.1E1,5.5E1,2.7E1,1E0,4E0,1.7E1,5E0,4.5E1,4E0,1E1],"tree_param":{"num_deleted":"0","num_feature":"25",