{"learner":{"attributes":{"scikit_learn":"{\"_estimator_type\": \"regressor\"}"},"feature_names":[],"feature_types":[],"gradient_booster":{"model":{"cats":{"enc":[],"feature_segments":[],"sorted_idx":[]},"gbtree_model_param":{"num_parallel_tree":"1","num_trees":"120"},"iteration_indptr":[0,1,2,3,4,5,6,7,8,9,10,11,12,13,14,15,16,17,18,19,20,21,22,23,24,25,26,27,28,29,30,31,32,33,34,35,36,37,38,39,40,41,42,43,44,45,46,47,48,49,50,51,52,53,54,55,56,57,58,59,60,61,62,63,64,65,66,67,68,69,70,71,72,73,74,75,76,77,78,79,80,81,82,83,84,85,86,87,88,89,90,91,92,93,94,95,96,97,98,99,100,101,102,103,104,105,106,107,108,109,110,111,112,113,114,115,116,117,118,119,120],"tree_info":[0,0,0,0,0,0,0,0,0,0,0,0,0,0,0,0,0,0,0,0,0,0,0,0,0,0,0,0,0,0,0,0,0,0,0,0,0,0,0,0,0,0,0,0,0,0,0,0,0,0,0,0,0,0,0,0,0,0,0,0,0,0,0,0,0,0,0,0,0,0,0,0,0,0,0,0,0,0,0,0,0,0,0,0,0,0,0,0,0,0,0,0,0,0,0,0,0,0,0,0,0,0,0,0,0,0,0,0,0,0,0,0,0,0,0,0,0,0,0,0],"trees":[{"base_weights":[-1.5618934E-4,-1.3192836E2,4.9667075E2,-2.577105E2,-3.363072E1,3.540697E2,7.2860016E1,-2.789786E2,-3.3979736E1,-9.3658646E1,2.7306147E1,6.1609375E1,3.9485828E2,-3.168931E2,-1.9186356E2,-5.6029177E0,6.7460938E0,-5.9402023E1,-1.9363458E2,1.17706696E2,-2.0794384E1,1.8526856E0,6.9794593E0,2.3892114E2,4.3090923E1,-1.7887989E1,-3.400788E1,-2.1171171E1,-2.2052248E0,-1.9133301E-1,1.2032471E0,-1.9771797E1,-2.9362755E0,-5.6607585E0,-2.2469835E1,3.8180664E0,1.8041748E1,-1.0421416E1,2.4592228E0,5.227661E0,2.6579473E1],"categories":[],"categories_nodes":[],"categories_segments":[],"categories_sizes":[],"default_left":[0,0,0,0,0,0,0,0,0,0,0,0,0,0,0,0,0,0,0,0,0,0,0,0,0,0,0,0,0,0,0,0,0,0,0,0,0,0,0,0,0],"id":0,"left_children":[1,3,5,7,9,11,-1,13,15,17,19,21,23,25,27,-1,29,31,33,35,37,-1,-1,39,-1,-1,-1,-1,-1,-1,-1,-1,-1,-1,-1,-1,-1,-1,-1,-1,-1],"loss_changes":[1.0615034E7,1.5739362E6,8.6652E5,2.56987E5,2.6958516E5,2.5004075E5,0E0,1.0764875E5,5.7658677E3,1.1521669E5,1.6333527E5,1.1748535E2,9.48025E3,4.79645E4,5.5999125E4,0E0,1.6035301E2,1.14686836E5,2.5589562E4,5.794436E4,9.721639E4,0E0,0E0,1.62E4,0E0,0E0,0E0,0E0,0E0,0E0,0E0,0E0,0E0,0E0,0E0,0E0,0E0,0E0,0E0,0E0,0E0],"parents":[2147483647,0,0,1,1,2,2,3,3,4,4,5,5,7,7,8,8,9,9,10,10,11,11,12,12,13,13,14,14,16,16,17,17,18,18,19,19,20,20,23,23],"right_children":[2,4,6,8,10,12,-1,14,16,18,20,22,24,26,28,-1,30,32,34,36,38,-1,-1,40,-1,-1,-1,-1,-1,-1,-1,-1,-1,-1,-1,-1,-1,-1,-1,-1,-1],"split_conditions":[6.153268E-1,-5.845299E-1,1.8107349E0,1.3139924E0,-1.9461012E-2,-1.1228204E0,7.2860016E1,4.318438E-2,-2.7127877E-1,-2.6051226E-1,-4.6294963E-1,-4.4555315E-1,-2.939819E-1,-9.8842174E-1,8.239226E-1,-5.6029177E0,-1.6146693E0,-6.6650647E-1,-2.939819E-1,-6.6693693E-1,-4.9266163E-1,1.8526856E0,6.9794593E0,7.853485E-2,4.3090923E1,-1.7887989E1,-3.400788E1,-2.1171171E1,-2.2052248E0,-1.9133301E-1,1.2032471E0,-1.9771797E1,-2.9362755E0,-5.6607585E0,-2.2469835E1,3.8180664E0,1.8041748E1,-1.0421416E1,2.4592228E0,5.227661E0,2.6579473E1],"split_indices":[5,6,6,13,6,9,0,7,1,5,23,0,20,12,23,0,0,5,20,2,12,0,0,2,0,0,0,0,0,0,0,0,0,0,0,0,0,0,0,0,0],"split_type":[0,0,0,0,0,0,0,0,0,0,0,0,0,0,0,0,0,0,0,0,0,0,0,0,0,0,0,0,0,0,0,0,0,0,0,0,0,0,0,0,0],"sum_hessian":[1.6E2,1.27E2,3.3E1,5.5E1,7.2E1,2.2E1,1.1E1,5E1,5E0,3.6E1,3.6E1,3E0,1.9E1,3.3E1,1.7E1,3E0,2E0,2.8E1,8E0,1.2E1,2.4E1,1E0,2E0,5E0,1.4E1,6E0,2.7E1,1.5E1,2E0,1E0,1E0,4E0,2.4E1,2E0,6E0,6E0,6E0,8E0,1.6E1,1E0,4E0],"tree_param":{"num_deleted":"0","num_feature":"25","num_nodes":"41","size_leaf_vector":"1"}},{"base_weights":[2.4699602E-1,-1.19648056E2,4.5160934E2,-2.2838219E2,-2.629147E1,3.2230322E2,6.6181195E2,-2.887356E2,-1.5125035E2,-8.950301E1,3.5894516E1,5.7656494E1,3.591174E2,6.876851E1,1.8860401E1,-5.693799E1,-3.0229083E2,-2.0280632E2,-8.520824E1,4.912221E1,-1.1987796E2,6.850234E1,-8.6795654E1,1.7600586E0,6.51416E0,3.8053107E2,1.7832996E2,-1.0775146E0,-7.463184E0,-3.082498E1,-6.4740233E0,-2.4486763E1,-9.890307E0,-4.0191703E0,-1.5819966E1,9.788633E0,-4.852539E0,-2.6621622E1,-8.581519E0,1.1807057E1,1.4367285E0,-1.5948511E1,-1.128496E0,1.5993245E1,3.9928207E1,2.0466473E1,4.9662843E0],"categories":[],"categories_nodes":[],"categories_segments":[],"categories_sizes":[],"default_left":[0,0,0,0,0,0,0,0,0,0,0,0,0,0,0,0,0,0,0,0,0,0,0,0,0,0,0,0,0,0,0,0,0,0,0,0,0,0,0,0,0,0,0,0,0,0,0],"id":1,"left_children":[1,3,5,7,9,11,13,15,17,19,21,23,25,-1,-1,27,29,31,33,35,37,39,41,-1,-1,43,45,-1,-1,-1,-1,-1,-1,-1,-1,-1,-1,-1,-1,-1,-1,-1,-1,-1,-1,-1,-1],"loss_changes":[8.766728E6,1.2933295E6,7.108325E5,2.309835E5,2.7837372E5,2.0337775E5,1.722E4,8.33345E4,7.8055375E4,1.5326438E5,1.4996945E5,5.276172E1,9.56625E3,0E0,0E0,1.6462266E3,2.25105E4,4.13365E4,3.9643188E4,3.8081863E4,1.217105E5,7.612164E4,4.2110863E4,0E0,0E0,6.4615E3,3.3894453E3,0E0,0E0,0E0,0E0,0E0,0E0,0E0,0E0,0E0,0E0,0E0,0E0,0E0,0E0,0E0,0E0,0E0,0E0,0E0,0E0],"parents":[2147483647,0,0,1,1,2,2,3,3,4,4,5,5,6,6,7,7,8,8,9,9,10,10,11,11,12,12,15,15,16,16,17,17,18,18,19,19,20,20,21,21,22,22,25,25,26,26],"right_children":[2,4,6,8,10,12,14,16,18,20,22,24,26,-1,-1,28,30,32,34,36,38,40,42,-1,-1,44,46,-1,-1,-1,-1,-1,-1,-1,-1,-1,-1,-1,-1,-1,-1,-1,-1,-1,-1,-1,-1],"split_conditions":[6.153268E-1,-6.2227774E-1,1.8107349E0,-6.894315E-2,-1.9461012E-2,-1.1228204E0,1.6972257E0,-1.6876789E0,-5.648513E-1,-9.782458E-1,1.0826803E0,-4.4555315E-1,-2.198676E-1,6.876851E1,1.8860401E1,-6.0316557E-1,1.5001962E0,1.4496063E-1,-1.9940433E-1,1.3526592E0,-6.25251E-1,8.7221277E-1,-3.1343767E-1,1.7600586E0,6.51416E0,-1.4309406E0,1.1399161E0,-1.0775146E0,-7.463184E0,-3.082498E1,-6.4740233E0,-2.4486763E1,-9.890307E0,-4.0191703E0,-1.5819966E1,9.788633E0,-4.852539E0,-2.6621622E1,-8.581519E0,1.1807057E1,1.4367285E0,-1.5948511E1,-1.128496E0,1.5993245E1,3.9928207E1,2.0466473E1,4.9662843E0],"split_indices":[5,5,6,13,6,9,22,1,1,14,8,0,7,0,0,0,21,7,17,15,7,0,24,0,0,22,0,0,0,0,0,0,0,0,0,0,0,0,0,0,0,0,0,0,0,0,0],"split_type":[0,0,0,0,0,0,0,0,0,0,0,0,0,0,0,0,0,0,0,0,0,0,0,0,0,0,0,0,0,0,0,0,0,0,0,0,0,0,0,0,0,0,0,0,0,0,0],"sum_hessian":[1.6E2,1.27E2,3.3E1,5.8E1,6.9E1,2.2E1,1.1E1,3.1E1,2.7E1,3.4E1,3.5E1,3E0,1.9E1,1E1,1E0,2E0,2.9E1,1.4E1,1.3E1,6E0,2.8E1,2.8E1,7E0,1E0,2E0,1.6E1,3E0,1E0,1E0,2.8E1,1E0,9E0,5E0,9E0,4E0,4E0,2E0,4E0,2.4E1,1.4E1,1.4E1,3E0,4E0,2E0,1.4E1,2E0,1E0],"tree_param":{"num_deleted":"0","num_feature":"25","num_nodes":"47","size_leaf_vector":"1"}},{"base_weights":[4.9004787E-1,-1.10792915E2,4.0427423E2,-2.0723975E2,-2.6718191E1,2.881E2,6.0293317E2,-2.612943E2,-1.3806169E2,-8.1417465E1,2.8744461E1,5.395935E1,3.189792E2,6.2516823E1,1.7917383E1,-5.4090984E1,-2.7330484E2,-1.8481752E2,-7.8104614E1,4.491518E1,-1.0910406E2,5.885934E1,-8.025067E1,1.672046E0,6.079883E0,3.4576746E2,1.6410323E2,-1.0236329E0,-7.090015E0,-2.78983E1,-5.431909E0,-2.1792658E1,-7.501406E0,-1.621612E1,-4.043817E0,9.005547E0,-4.5290365E0,-5.291786E0,-1.8429134E1,1.0705058E1,3.0216238E-1,-1.4752357E1,-1.0382227E0,1.4927034E1,3.6201572E1,1.815392E1,4.717969E0],"categories":[],"categories_nodes":[],"categories_segments":[],"categories_sizes":[],"default_left":[0,0,0,0,0,0,0,0,0,0,0,0,0,0,0,0,0,0,0,0,0,0,0,0,0,0,0,0,0,0,0,0,0,0,0,0,0,0,0,0,0,0,0,0,0,0,0],"id":2,"left_children":[1,3,5,7,9,11,13,15,17,19,21,23,25,-1,-1,27,29,31,33,35,37,39,41,-1,-1,43,45,-1,-1,-1,-1,-1,-1,-1,-1,-1,-1,-1,-1,-1,-1,-1,-1,-1,-1,-1,-1],"loss_changes":[7.279213E6,1.0242734E6,6.34062E5,1.8454925E5,2.1167022E5,1.5630988E5,1.054E3,6.485225E4,6.4058438E4,1.27320625E5,1.19606625E5,2.1933594E0,3.03845E4,0E0,0E0,1.4857227E3,2.214925E4,3.8184812E4,3.776807E4,3.2581977E4,1.12757875E5,7.502144E4,3.6070395E4,0E0,0E0,2.3825E2,1.6284062E3,0E0,0E0,0E0,0E0,0E0,0E0,0E0,0E0,0E0,0E0,0E0,0E0,0E0,0E0,0E0,0E0,0E0,0E0,0E0,0E0],"parents":[2147483647,0,0,1,1,2,2,3,3,4,4,5,5,6,6,7,7,8,8,9,9,10,10,11,11,12,12,15,15,16,16,17,17,18,18,19,19,20,20,21,21,22,22,25,25,26,26],"right_children":[2,4,6,8,10,12,14,16,18,20,22,24,26,-1,-1,28,30,32,34,36,38,40,42,-1,-1,44,46,-1,-1,-1,-1,-1,-1,-1,-1,-1,-1,-1,-1,-1,-1,-1,-1,-1,-1,-1,-1],"split_conditions":[6.130142E-1,-6.2227774E-1,1.8107349E0,-6.894315E-2,-1.9461012E-2,-1.1228204E0,1.6972257E0,-1.6876789E0,-5.648513E-1,-9.782458E-1,1.0826803E0,-4.4555315E-1,-2.198676E-1,6.2516823E1,1.7917383E1,-6.0316557E-1,9.617872E-1,1.4462124E0,-7.751393E-1,1.3526592E0,2.1588679E-1,8.7221277E-1,-3.1343767E-1,1.672046E0,6.079883E0,-1.4309406E0,1.1399161E0,-1.0236329E0,-7.090015E0,-2.78983E1,-5.431909E0,-2.1792658E1,-7.501406E0,-1.621612E1,-4.043817E0,9.005547E0,-4.5290365E0,-5.291786E0,-1.8429134E1,1.0705058E1,3.0216238E-1,-1.4752357E1,-1.0382227E0,1.4927034E1,3.6201572E1,1.815392E1,4.717969E0],"split_indices":[5,5,6,13,6,9,22,1,1,14,8,0,7,0,0,0,3,24,19,15,2,0,24,0,0,22,0,0,0,0,0,0,0,0,0,0,0,0,0,0,0,0,0,0,0,0,0],"split_type":[0,0,0,0,0,0,0,0,0,0,0,0,0,0,0,0,0,0,0,0,0,0,0,0,0,0,0,0,0,0,0,0,0,0,0,0,0,0,0,0,0,0,0,0,0,0,0],"sum_hessian":[1.6E2,1.26E2,3.4E1,5.8E1,6.8E1,2.3E1,1.1E1,3.1E1,2.7E1,3.4E1,3.4E1,3E0,2E1,1E1,1E0,2E0,2.9E1,1.4E1,1.3E1,6E0,2.8E1,2.7E1,7E0,1E0,2E0,1.6E1,4E0,1E0,1E0,2.8E1,1E0,1E1,4E0,3E0,1E1,4E0,2E0,1.7E1,1.1E1,1.4E1,1.3E1,3E0,4E0,2E0,1.4E1,3E0,1E0],"tree_param":{"num_deleted":"0","num_feature":"25","num_nodes":"47","size_leaf_vector":"1"}},{"base_weights":[7.340156E-1,-9.877897E1,3.7534955E2,-1.9262292E2,-2.5435947E1,2.7424966E2,5.6180835E2,-2.2227657E2,-8.77851E1,-1.8084314E2,-1.1349491E1,5.050134E0,3.038089E2,2.9054321E1,6.2721493E1,-2.3583676E2,-7.205166E1,-2.4386936E1,-1.6825151E2,-2.1442183E1,-7.579053E0,3.5870243E1,-5.9624233E1,2.1675928E2,3.5103284E2,-5.1386557E0,-2.4441822E1,-1.1254508E1,-7.541016E-1,-3.809082E0,1.5717773E0,-1.9772589E1,-7.2868495E0,-1.8286241E0,8.803393E0,-2.398342E0,-1.4276384E1,4.48208E0,2.3088346E1,1.820464E1,3.871343E1],"categories":[],"categories_nodes":[],"categories_segments":[],"categories_sizes":[],"default_left":[0,0,0,0,0,0,0,0,0,0,0,0,0,0,0,0,0,0,0,0,0,0,0,0,0,0,0,0,0,0,0,0,0,0,0,0,0,0,0,0,0],"id":3,"left_children":[1,3,5,7,9,11,13,15,17,19,21,-1,23,-1,-1,25,27,29,31,-1,-1,33,35,37,39,-1,-1,-1,-1,-1,-1,-1,-1,-1,-1,-1,-1,-1,-1,-1,-1],"loss_changes":[6.0390135E6,8.760986E5,4.86857E5,1.5458175E5,1.577545E5,1.4338912E5,1.29345E4,7.060175E4,6.731678E4,4.9140312E3,1.5714614E5,0E0,1.023775E4,0E0,0E0,4.91715E4,1.221258E4,5.5450156E3,2.4601406E3,0E0,0E0,1.0048488E5,9.732359E4,1.3936531E4,2.731375E3,0E0,0E0,0E0,0E0,0E0,0E0,0E0,0E0,0E0,0E0,0E0,0E0,0E0,0E0,0E0,0E0],"parents":[2147483647,0,0,1,1,2,2,3,3,4,4,5,5,6,6,7,7,8,8,9,9,10,10,12,12,15,15,16,16,17,17,18,18,21,21,22,22,23,23,24,24],"right_children":[2,4,6,8,10,12,14,16,18,20,22,-1,24,-1,-1,26,28,30,32,-1,-1,34,36,38,40,-1,-1,-1,-1,-1,-1,-1,-1,-1,-1,-1,-1,-1,-1,-1,-1],"split_conditions":[6.153268E-1,-5.845299E-1,1.8829763E0,4.6677715E-1,-6.6650647E-1,-1.1228204E0,9.681547E-1,3.6168548E-1,3.8339588E-1,-2.9699126E-1,2.2899655E-1,5.050134E0,4.468019E-1,2.9054321E1,6.2721493E1,-1.6876789E0,-1.5446461E0,-2.7127877E-1,-8.934863E-1,-2.1442183E1,-7.579053E0,3.0985007E-3,7.6441385E-2,-4.503184E-1,-6.780095E-1,-5.1386557E0,-2.4441822E1,-1.1254508E1,-7.541016E-1,-3.809082E0,1.5717773E0,-1.9772589E1,-7.2868495E0,-1.8286241E0,8.803393E0,-2.398342E0,-1.4276384E1,4.48208E0,2.3088346E1,1.820464E1,3.871343E1],"split_indices":[5,6,6,13,5,9,0,1,22,3,23,0,9,0,0,1,0,1,0,0,0,12,3,8,13,0,0,0,0,0,0,0,0,0,0,0,0,0,0,0,0],"split_type":[0,0,0,0,0,0,0,0,0,0,0,0,0,0,0,0,0,0,0,0,0,0,0,0,0,0,0,0,0,0,0,0,0,0,0,0,0,0,0,0,0],"sum_hessian":[1.6E2,1.27E2,3.3E1,5.5E1,7.2E1,2.3E1,1E1,4.2E1,1.3E1,5E0,6.7E1,3E0,2E1,3E0,7E0,3.8E1,4E0,8E0,5E0,3E0,2E0,3.4E1,3.3E1,9E0,1.1E1,2E0,3.6E1,2E0,2E0,6E0,2E0,3E0,2E0,1.7E1,1.7E1,2.4E1,9E0,1E0,8E0,3E0,8E0],"tree_param":{"num_deleted":"0","num_feature":"25","num_nodes":"41","size_leaf_vector":"1"}},{"base_weights":[1.1060374E0,-9.145729E1,3.3694708E2,-1.7462642E2,-2.5499939E1,2.455788E2,5.139707E2,-1.893113E2,-2.0700684E1,-1.6759558E2,-1.239436E1,4.6713623E1,2.7057343E2,1.4935718E1,5.3549634E2,-2.1882216E2,-1.2305124E2,6.682129E0,-5.0310874E0,-1.9834003E1,-7.0737796E0,1.0747954E1,-9.333758E1,1.3359375E0,5.337858E0,1.520926E2,2.964741E2,5.6039864E1,1.5568799E1,-2.2869278E1,-4.0594893E0,-1.5057535E1,-4.2907147E0,-8.640625E-1,1.4669923E0,-1.300398E1,2.1796014E0,-1.3598571E1,5.7941165E0,1.654792E1,4.2579837E0,1.239266E1,3.1121866E1],"categories":[],"categories_nodes":[],"categories_segments":[],"categories_sizes":[],"default_left":[0,0,0,0,0,0,0,0,0,0,0,0,0,0,0,0,0,0,0,0,0,0,0,0,0,0,0,0,0,0,0,0,0,0,0,0,0,0,0,0,0,0,0],"id":4,"left_children":[1,3,5,7,9,11,13,15,17,19,21,23,25,-1,27,29,31,33,-1,-1,-1,35,37,-1,-1,39,41,-1,-1,-1,-1,-1,-1,-1,-1,-1,-1,-1,-1,-1,-1,-1,-1],"loss_changes":[5.0357525E6,6.922201E5,4.3988175E5,1.22662375E5,1.3200444E5,1.11624625E5,6.35375E3,7.279875E4,5.201045E3,3.8368906E3,1.26508484E5,1.7611328E2,2.24205E4,0E0,7.3335E3,5.0529375E4,3.3245344E4,6.163372E2,0E0,0E0,0E0,8.527222E4,1.0465548E5,0E0,0E0,1.7499375E3,4.682125E3,0E0,0E0,0E0,0E0,0E0,0E0,0E0,0E0,0E0,0E0,0E0,0E0,0E0,0E0,0E0,0E0],"parents":[2147483647,0,0,1,1,2,2,3,3,4,4,5,5,6,6,7,7,8,8,9,9,10,10,11,11,12,12,14,14,15,15,16,16,17,17,21,21,22,22,25,25,26,26],"right_children":[2,4,6,8,10,12,14,16,18,20,22,24,26,-1,28,30,32,34,-1,-1,-1,36,38,-1,-1,40,42,-1,-1,-1,-1,-1,-1,-1,-1,-1,-1,-1,-1,-1,-1,-1,-1],"split_conditions":[6.130142E-1,-5.845299E-1,1.8829763E0,1.3139924E0,-6.6650647E-1,-1.1228204E0,-1.3809612E0,4.318438E-2,-4.1254693E-1,-2.9699126E-1,7.6441385E-2,-4.4555315E-1,7.853485E-2,1.4935718E1,1.6972257E0,1.4611181E0,1.5325847E-1,-3.4107625E-1,-5.0310874E0,-1.9834003E1,-7.0737796E0,-1.5560672E0,8.537049E-1,1.3359375E0,5.337858E0,1.1399161E0,-1.4309406E0,5.6039864E1,1.5568799E1,-2.2869278E1,-4.0594893E0,-1.5057535E1,-4.2907147E0,-8.640625E-1,1.4669923E0,-1.300398E1,2.1796014E0,-1.3598571E1,5.7941165E0,1.654792E1,4.2579837E0,1.239266E1,3.1121866E1],"split_indices":[5,6,6,13,5,9,23,7,3,3,3,0,2,0,22,21,13,1,0,0,0,22,2,0,0,0,22,0,0,0,0,0,0,0,0,0,0,0,0,0,0,0,0],"split_type":[0,0,0,0,0,0,0,0,0,0,0,0,0,0,0,0,0,0,0,0,0,0,0,0,0,0,0,0,0,0,0,0,0,0,0,0,0,0,0,0,0,0,0],"sum_hessian":[1.6E2,1.26E2,3.4E1,5.5E1,7.1E1,2.4E1,1E1,5E1,5E0,5E0,6.6E1,3E0,2.1E1,1E0,9E0,3.3E1,1.7E1,3E0,2E0,3E0,2E0,5.2E1,1.4E1,1E0,2E0,5E0,1.6E1,8E0,1E0,3.1E1,2E0,1.2E1,5E0,1E0,2E0,3E0,4.9E1,1.1E1,3E0,4E0,1E0,2E0,1.4E1],"tree_param":{"num_deleted":"0","num_feature":"25","num_nodes":"43","size_leaf_vector":"1"}},{"base_weights":[1.3760964E0,-8.156426E1,3.135817E2,-1.5472775E2,-1.8732687E1,2.2862184E2,4.704412E2,-2.020264E2,-1.05489426E2,-6.7389786E1,2.909318E1,4.3710693E1,2.5295627E2,5.431479E1,2.7456358E1,-1.2480164E2,-2.361025E2,-1.3521115E2,-4.7162415E1,3.940625E1,-9.084435E1,-1.2169947E1,4.6489464E1,1.2691406E0,4.981999E0,1.7917769E2,2.9335873E2,-2.500678E1,-4.656836E0,-2.4551895E1,-3.3303223E0,-1.662146E1,-7.884977E0,-1.2820258E1,-5.904297E-1,8.055791E0,-4.231527E0,-1.1226694E1,3.4437401E0,9.969593E0,2.0375462E-1,2.0798132E1,8.397693E0,1.6765615E1,3.35253E1],"categories":[],"categories_nodes":[],"categories_segments":[],"categories_sizes":[],"default_left":[0,0,0,0,0,0,0,0,0,0,0,0,0,0,0,0,0,0,0,0,0,0,0,0,0,0,0,0,0,0,0,0,0,0,0,0,0,0,0,0,0,0,0,0,0],"id":5,"left_children":[1,3,5,7,9,11,13,15,17,19,21,23,25,-1,-1,27,29,31,33,35,37,-1,39,-1,-1,41,43,-1,-1,-1,-1,-1,-1,-1,-1,-1,-1,-1,-1,-1,-1,-1,-1,-1,-1],"loss_changes":[4.1945825E6,5.855148E5,3.4555675E5,1.16093875E5,1.6485534E5,9.6936E4,7.529E3,4.6848125E4,4.7364094E4,9.124975E4,1.0009408E5,1.2573779E2,1.003425E4,0E0,0E0,9.615456E4,2.810675E4,2.1841969E4,3.936583E4,2.694966E4,8.169808E4,0E0,7.784614E4,0E0,0E0,9.955625E3,6.9874375E3,0E0,0E0,0E0,0E0,0E0,0E0,0E0,0E0,0E0,0E0,0E0,0E0,0E0,0E0,0E0,0E0,0E0,0E0],"parents":[2147483647,0,0,1,1,2,2,3,3,4,4,5,5,6,6,7,7,8,8,9,9,10,10,11,11,12,12,15,15,16,16,17,17,18,18,19,19,20,20,22,22,25,25,26,26],"right_children":[2,4,6,8,10,12,14,16,18,20,22,24,26,-1,-1,28,30,32,34,36,38,-1,40,-1,-1,42,44,-1,-1,-1,-1,-1,-1,-1,-1,-1,-1,-1,-1,-1,-1,-1,-1,-1,-1],"split_conditions":[6.153268E-1,-6.2227774E-1,1.8829763E0,-1.4863217E-1,-1.9461012E-2,-1.1228204E0,1.2370653E0,-1.2802167E0,-3.7140116E-1,-9.782458E-1,-1.4501157E0,-4.4555315E-1,4.468019E-1,5.431479E1,2.7456358E1,-1.5704597E0,1.5151376E0,-3.570333E-2,-7.751393E-1,1.3526592E0,3.1831115E-1,-1.2169947E1,2.2051615E-1,1.2691406E0,4.981999E0,1.1399161E0,1.3541394E0,-2.500678E1,-4.656836E0,-2.4551895E1,-3.3303223E0,-1.662146E1,-7.884977E0,-1.2820258E1,-5.904297E-1,8.055791E0,-4.231527E0,-1.1226694E1,3.4437401E0,9.969593E0,2.0375462E-1,2.0798132E1,8.397693E0,1.6765615E1,3.35253E1],"split_indices":[5,5,6,13,6,9,1,13,1,14,13,0,9,0,0,13,20,7,19,15,7,0,13,0,0,0,6,0,0,0,0,0,0,0,0,0,0,0,0,0,0,0,0,0,0],"split_type":[0,0,0,0,0,0,0,0,0,0,0,0,0,0,0,0,0,0,0,0,0,0,0,0,0,0,0,0,0,0,0,0,0,0,0,0,0,0,0,0,0,0,0,0,0],"sum_hessian":[1.6E2,1.27E2,3.3E1,5.8E1,6.9E1,2.3E1,1E1,2.8E1,3E1,3.4E1,3.5E1,3E0,2E1,6E0,4E0,1E1,1.8E1,1.9E1,1.1E1,6E0,2.8E1,3E0,3.2E1,1E0,2E0,9E0,1.1E1,3E0,7E0,1.7E1,1E0,1.1E1,8E0,3E0,8E0,4E0,2E0,2.4E1,4E0,1.4E1,1.8E1,6E0,3E0,4E0,7E0],"tree_param":{"num_deleted":"0","num_feature":"25","num_nodes":"45","size_leaf_vector":"1"}},{"base_weights":[1.6489303E0,-7.564579E1,2.8207123E2,-1.4412311E2,-2.1335014E1,2.0533421E2,4.3083066E2,-1.665104E2,-6.506757E1,-5.7375732E1,1.6299473E1,4.0902466E1,2.2589752E2,4.965922E1,2.5259834E1,-7.095856E1,-1.8311887E2,-1.3758518E1,-1.3118657E2,-3.164458E1,-1.3391214E2,6.3704178E1,-3.4644356E1,1.2056885E0,4.64987E0,1.291905E2,2.4674133E2,-1.6706823E1,2.01209E0,-1.9113428E1,-3.1237955E0,-3.9931965E0,-5.7582315E-2,-1.5422882E1,-5.67347E0,1.7544851E0,-7.2707553E0,-1.8530073E1,-5.5741115E0,8.930176E0,-2.5829396E0,8.502942E0,-6.4247737E0,1.4052774E1,3.6252198E0,2.5412283E1,6.4318604E0],"categories":[],"categories_nodes":[],"categories_segments":[],"categories_sizes":[],"default_left":[0,0,0,0,0,0,0,0,0,0,0,0,0,0,0,0,0,0,0,0,0,0,0,0,0,0,0,0,0,0,0,0,0,0,0,0,0,0,0,0,0,0,0,0,0,0,0],"id":6,"left_children":[1,3,5,7,9,11,13,15,17,19,21,23,25,-1,-1,27,29,31,33,35,37,39,41,-1,-1,43,45,-1,-1,-1,-1,-1,-1,-1,-1,-1,-1,-1,-1,-1,-1,-1,-1,-1,-1,-1,-1],"loss_changes":[3.5110385E6,4.692452E5,3.11073E5,8.8276625E4,9.8594125E4,7.529175E4,3.490875E3,5.524575E4,4.5690113E4,6.862907E4,8.914617E4,8.507666E1,1.2469625E4,0E0,0E0,7.33905E4,3.785525E4,3.0823354E3,1.5431016E3,5.9851703E4,2.5825031E4,4.5851617E4,6.9232414E4,0E0,0E0,1.2275391E3,6.546625E3,0E0,0E0,0E0,0E0,0E0,0E0,0E0,0E0,0E0,0E0,0E0,0E0,0E0,0E0,0E0,0E0,0E0,0E0,0E0,0E0],"parents":[2147483647,0,0,1,1,2,2,3,3,4,4,5,5,6,6,7,7,8,8,9,9,10,10,11,11,12,12,15,15,16,16,17,17,18,18,19,19,20,20,21,21,22,22,25,25,26,26],"right_children":[2,4,6,8,10,12,14,16,18,20,22,24,26,-1,-1,28,30,32,34,36,38,40,42,-1,-1,44,46,-1,-1,-1,-1,-1,-1,-1,-1,-1,-1,-1,-1,-1,-1,-1,-1,-1,-1,-1,-1],"split_conditions":[6.130142E-1,-5.845299E-1,1.8829763E0,4.6677715E-1,-1.9461012E-2,-1.1228204E0,1.2370653E0,-9.8842174E-1,3.8339588E-1,-2.6051226E-1,8.7221277E-1,-4.4555315E-1,7.853485E-2,4.965922E1,2.5259834E1,-4.445008E-1,1.5001962E0,-1.1594013E0,-8.934863E-1,2.2574903E-1,-1.6287863E-1,1.0826803E0,-1.0850959E0,1.2056885E0,4.64987E0,1.1399161E0,1.416991E0,-1.6706823E1,2.01209E0,-1.9113428E1,-3.1237955E0,-3.9931965E0,-5.7582315E-2,-1.5422882E1,-5.67347E0,1.7544851E0,-7.2707553E0,-1.8530073E1,-5.5741115E0,8.930176E0,-2.5829396E0,8.502942E0,-6.4247737E0,1.4052774E1,3.6252198E0,2.5412283E1,6.4318604E0],"split_indices":[5,6,6,13,6,9,1,12,22,5,0,0,2,0,0,7,21,6,0,14,5,8,1,0,0,0,0,0,0,0,0,0,0,0,0,0,0,0,0,0,0,0,0,0,0,0,0],"split_type":[0,0,0,0,0,0,0,0,0,0,0,0,0,0,0,0,0,0,0,0,0,0,0,0,0,0,0,0,0,0,0,0,0,0,0,0,0,0,0,0,0,0,0,0,0,0,0],"sum_hessian":[1.6E2,1.26E2,3.4E1,5.5E1,7.1E1,2.4E1,1E1,4.2E1,1.3E1,3.6E1,3.5E1,3E0,2.1E1,6E0,4E0,7E0,3.5E1,8E0,5E0,2.8E1,8E0,1.8E1,1.7E1,1E0,2E0,5E0,1.6E1,3E0,4E0,3.3E1,2E0,2E0,6E0,3E0,2E0,1.3E1,1.5E1,4E0,4E0,1.4E1,4E0,3E0,1.4E1,4E0,1E0,1.5E1,1E0],"tree_param":{"num_deleted":"0","num_feature":"25","num_nodes":"47","size_leaf_vector":"1"}},{"base_weights":[1.7761413E0,-7.3965E1,2.4060648E2,-1.284756E2,-2.3348211E1,1.104245E2,3.173692E2,-1.690937E2,-8.633365E1,-2.214668E0,-8.7931274E1,1.19180176E2,-1.0455322E0,1.2518614E1,3.495465E2,-9.4166405E1,-1.9810266E2,-1.1757689E2,-4.516906E1,-3.5348087E1,2.9729567E1,-1.1920834E2,3.5702026E1,1.3386662E2,1.5812175E1,1.0705387E1,3.705427E2,-3.541341E-1,-1.8408321E1,-2.2494474E1,-9.7980385E0,-6.0306334E0,-1.5163566E1,-1.1045636E1,-1.9642538E0,-7.0687532E0,3.5331762E0,6.461642E0,-5.6842895E0,-1.8823146E0,-1.6173254E1,8.0317545E0,-4.9072266E0,1.53841505E1,5.046277E0,2.0563476E0,3.1547853E-1,3.8431225E1,6.822998E0],"categories":[],"categories_nodes":[],"categories_segments":[],"categories_sizes":[],"default_left":[0,0,0,0,0,0,0,0,0,0,0,0,0,0,0,0,0,0,0,0,0,0,0,0,0,0,0,0,0,0,0,0,0,0,0,0,0,0,0,0,0,0,0,0,0,0,0,0,0],"id":7,"left_children":[1,3,5,7,9,11,13,15,17,19,21,23,-1,-1,25,27,29,31,33,35,37,39,41,43,45,-1,47,-1,-1,-1,-1,-1,-1,-1,-1,-1,-1,-1,-1,-1,-1,-1,-1,-1,-1,-1,-1,-1,-1],"loss_changes":[2.9301705E6,3.36376E5,3.5468625E5,8.639344E4,8.852175E4,1.8180219E4,1.04656E5,4.4378688E4,3.4558734E4,5.397197E4,6.612617E4,2.0654922E4,0E0,0E0,6.216025E4,8.083526E4,3.1709562E4,2.4014969E4,2.2828725E4,6.494217E4,8.2199234E4,5.2450047E4,1.907036E4,1.3894484E4,1.1554382E2,0E0,4.870725E4,0E0,0E0,0E0,0E0,0E0,0E0,0E0,0E0,0E0,0E0,0E0,0E0,0E0,0E0,0E0,0E0,0E0,0E0,0E0,0E0,0E0,0E0],"parents":[2147483647,0,0,1,1,2,2,3,3,4,4,5,5,6,6,7,7,8,8,9,9,10,10,11,11,14,14,15,15,16,16,17,17,18,18,19,19,20,20,21,21,22,22,23,23,24,24,26,26],"right_children":[2,4,6,8,10,12,14,16,18,20,22,24,-1,-1,26,28,30,32,34,36,38,40,42,44,46,-1,48,-1,-1,-1,-1,-1,-1,-1,-1,-1,-1,-1,-1,-1,-1,-1,-1,-1,-1,-1,-1,-1,-1],"split_conditions":[4.6197277E-1,-6.2227774E-1,1.4260864E0,-1.4863217E-1,5.6226153E-2,1.5936799E0,-6.930498E-1,-1.1170374E0,-5.648513E-1,-1.71706E-1,-3.9654426E-2,1.1656681E0,-1.0455322E0,1.2518614E1,2.8894886E-1,9.98096E-3,6.302124E-1,-2.1095571E-1,-7.751393E-1,1.2283487E-1,1.0504721E-1,-6.270097E-1,-7.274403E-3,1.4797901E0,8.27427E-2,1.0705387E1,3.3034608E0,-3.541341E-1,-1.8408321E1,-2.2494474E1,-9.7980385E0,-6.0306334E0,-1.5163566E1,-1.1045636E1,-1.9642538E0,-7.0687532E0,3.5331762E0,6.461642E0,-5.6842895E0,-1.8823146E0,-1.6173254E1,8.0317545E0,-4.9072266E0,1.53841505E1,5.046277E0,2.0563476E0,3.1547853E-1,3.8431225E1,6.822998E0],"split_indices":[5,5,5,13,3,8,11,1,1,7,5,2,0,0,0,21,19,22,19,1,13,2,0,17,0,0,3,0,0,0,0,0,0,0,0,0,0,0,0,0,0,0,0,0,0,0,0,0,0],"split_type":[0,0,0,0,0,0,0,0,0,0,0,0,0,0,0,0,0,0,0,0,0,0,0,0,0,0,0,0,0,0,0,0,0,0,0,0,0,0,0,0,0,0,0,0,0,0,0,0,0],"sum_hessian":[1.6E2,1.22E2,3.8E1,5.8E1,6.4E1,1.5E1,2.3E1,2.8E1,3E1,4.9E1,1.5E1,1.4E1,1E0,4E0,1.9E1,9E0,1.9E1,1.6E1,1.4E1,2.4E1,2.5E1,1.2E1,3E0,1.2E1,2E0,2E0,1.7E1,5E0,4E0,1.4E1,5E0,7E0,9E0,3E0,1.1E1,1.6E1,8E0,1.8E1,7E0,4E0,8E0,2E0,1E0,9E0,3E0,1E0,1E0,1.6E1,1E0],"tree_param":{"num_deleted":"0","num_feature":"25","num_nodes":"49","size_leaf_vector":"1"}},{"base_weights":[1.5195994E0,-5.684229E1,2.5826126E2,-1.1707308E2,-8.052305E0,1.8960031E2,3.5962106E2,-1.5394484E2,-7.88036E1,-4.5540207E1,3.7390526E1,1.062609E2,2.1029607E2,4.2108624E1,2.016456E1,-2.3763176E1,-1.2660874E2,-1.0200735E2,-3.35637E1,3.4111546E1,-6.588341E1,-1.9587364E1,6.935971E1,4.515869E0,1.2552234E1,7.2888675E0,2.2582884E2,-3.7615235E0,-1.6104048E1,-1.1511596E1,-2.0793946E0,-1.0217231E1,6.583116E-2,-2.5233643E0,4.46839E0,-7.72592E0,7.36276E0,-7.3574805E0,1.2582031E0,8.491507E0,-5.746257E0,1.3000847E1,2.6946552E1],"categories":[],"categories_nodes":[],"categories_segments":[],"categories_sizes":[],"default_left":[0,0,0,0,0,0,0,0,0,0,0,0,0,0,0,0,0,0,0,0,0,0,0,0,0,0,0,0,0,0,0,0,0,0,0,0,0,0,0,0,0,0,0],"id":8,"left_children":[1,3,5,7,9,11,13,15,17,19,21,23,25,-1,-1,-1,27,29,31,33,35,37,39,-1,-1,-1,41,-1,-1,-1,-1,-1,-1,-1,-1,-1,-1,-1,-1,-1,-1,-1,-1],"loss_changes":[2.4270928E6,3.869603E5,1.4059962E5,7.112131E4,1.2776593E5,1.214925E4,2.1899625E4,3.6256312E4,2.9118062E4,6.868262E4,6.3290816E4,1.3930703E3,1.55543125E4,0E0,0E0,0E0,6.748322E4,1.8898172E4,2.8242352E4,6.774302E3,5.8061016E4,2.3503385E4,4.828028E4,0E0,0E0,0E0,1.9323875E4,0E0,0E0,0E0,0E0,0E0,0E0,0E0,0E0,0E0,0E0,0E0,0E0,0E0,0E0,0E0,0E0],"parents":[2147483647,0,0,1,1,2,2,3,3,4,4,5,5,6,6,7,7,8,8,9,9,10,10,11,11,12,12,16,16,17,17,18,18,19,19,20,20,21,21,22,22,26,26],"right_children":[2,4,6,8,10,12,14,16,18,20,22,24,26,-1,-1,-1,28,30,32,34,36,38,40,-1,-1,-1,42,-1,-1,-1,-1,-1,-1,-1,-1,-1,-1,-1,-1,-1,-1,-1,-1],"split_conditions":[1.1826426E0,-6.2227774E-1,1.8829763E0,-1.4863217E-1,6.2107828E-2,-2.939819E-1,1.2370653E0,-1.0202347E0,-3.7140116E-1,-8.150291E-1,-2.9702747E-1,7.564153E-1,-7.443126E-1,4.2108624E1,2.016456E1,-2.3763176E1,-1.1170374E0,6.48348E-1,-7.751393E-1,-1.1186353E0,1.4253539E0,-7.751393E-1,7.274942E-1,4.515869E0,1.2552234E1,7.2888675E0,-6.780095E-1,-3.7615235E0,-1.6104048E1,-1.1511596E1,-2.0793946E0,-1.0217231E1,6.583116E-2,-2.5233643E0,4.46839E0,-7.72592E0,7.36276E0,-7.3574805E0,1.2582031E0,8.491507E0,-5.746257E0,1.3000847E1,2.6946552E1],"split_indices":[6,5,6,13,6,20,1,23,1,2,2,2,2,0,0,0,1,16,19,2,2,19,22,0,0,0,13,0,0,0,0,0,0,0,0,0,0,0,0,0,0,0,0],"split_type":[0,0,0,0,0,0,0,0,0,0,0,0,0,0,0,0,0,0,0,0,0,0,0,0,0,0,0,0,0,0,0,0,0,0,0,0,0,0,0,0,0,0,0],"sum_hessian":[1.6E2,1.31E2,2.9E1,5.8E1,7.3E1,1.9E1,1E1,2.8E1,3E1,4E1,3.3E1,5E0,1.4E1,6E0,4E0,5E0,2.3E1,1.9E1,1.1E1,8E0,3.2E1,1.2E1,2.1E1,2E0,3E0,2E0,1.2E1,7E0,1.6E1,1.6E1,3E0,3E0,8E0,1E0,7E0,3E1,2E0,4E0,8E0,1.9E1,2E0,5E0,7E0],"tree_param":{"num_deleted":"0","num_feature":"25","num_nodes":"43","size_leaf_vector":"1"}},{"base_weights":[1.7243835E0,-5.168185E1,2.3665433E2,-1.0953809E2,-8.933391E0,1.7730292E2,3.3762686E2,-1.3453711E2,-5.781301E1,-3.516812E1,4.095197E1,1.05456406E2,1.990111E2,4.0811646E1,1.8551397E1,-8.333217E1,-1.6566173E2,-8.6064156E1,-4.6782837E0,-4.698825E1,8.297471E0,-7.296865E1,6.39368E1,1.2124346E1,4.3992515E0,2.1549257E2,6.1254396E0,-4.481603E0,-1.8767658E1,-1.9278158E1,-6.1211915E0,-1.0688644E1,-3.137119E0,1.7275585E0,-3.095105E0,-3.6685886E0,-1.485672E1,-9.058642E0,-1.2487793E-1,8.233609E0,-1.8767872E0,2.2535572E1,4.8567386E0],"categories":[],"categories_nodes":[],"categories_segments":[],"categories_sizes":[],"default_left":[0,0,0,0,0,0,0,0,0,0,0,0,0,0,0,0,0,0,0,0,0,0,0,0,0,0,0,0,0,0,0,0,0,0,0,0,0,0,0,0,0,0,0],"id":9,"left_children":[1,3,5,7,9,11,13,15,17,19,21,23,25,-1,-1,27,29,31,33,35,-1,37,39,-1,-1,41,-1,-1,-1,-1,-1,-1,-1,-1,-1,-1,-1,-1,-1,-1,-1,-1,-1],"loss_changes":[2.0322531E6,3.254924E5,1.19923625E5,6.4634312E4,1.02212336E5,1.176575E4,3.15125E4,4.5163188E4,2.9619703E4,7.511845E4,7.536344E4,1.4585312E3,2.0856625E4,0E0,0E0,5.589218E4,5.0518062E4,1.1451672E4,5.1490083E3,4.3735344E4,0E0,6.2045977E3,3.654454E4,0E0,0E0,1.0458375E4,0E0,0E0,0E0,0E0,0E0,0E0,0E0,0E0,0E0,0E0,0E0,0E0,0E0,0E0,0E0,0E0,0E0],"parents":[2147483647,0,0,1,1,2,2,3,3,4,4,5,5,6,6,7,7,8,8,9,9,10,10,11,11,12,12,15,15,16,16,17,17,18,18,19,19,21,21,22,22,25,25],"right_children":[2,4,6,8,10,12,14,16,18,20,22,24,26,-1,-1,28,30,32,34,36,-1,38,40,-1,-1,42,-1,-1,-1,-1,-1,-1,-1,-1,-1,-1,-1,-1,-1,-1,-1,-1,-1],"split_conditions":[1.1826426E0,-5.845299E-1,1.8996642E0,4.318438E-2,5.2533954E-2,1.9513872E-1,1.2370653E0,-1.9940433E-1,1.5325847E-1,1.4384545E0,-5.318916E-1,6.4769024E-1,3.3034608E0,4.0811646E1,1.8551397E1,9.506654E-1,7.522673E-1,-7.7967805E-1,7.522673E-1,1.6842262E0,8.297471E0,-1.8750632E-1,-1.3484564E-1,1.2124346E1,4.3992515E0,1.416991E0,6.1254396E0,-4.481603E0,-1.8767658E1,-1.9278158E1,-6.1211915E0,-1.0688644E1,-3.137119E0,1.7275585E0,-3.095105E0,-3.6685886E0,-1.485672E1,-9.058642E0,-1.2487793E-1,8.233609E0,-1.8767872E0,2.2535572E1,4.8567386E0],"split_indices":[6,6,6,7,5,2,1,17,13,2,1,15,3,0,0,2,9,2,9,19,0,3,7,0,0,0,0,0,0,0,0,0,0,0,0,0,0,0,0,0,0,0,0],"split_type":[0,0,0,0,0,0,0,0,0,0,0,0,0,0,0,0,0,0,0,0,0,0,0,0,0,0,0,0,0,0,0,0,0,0,0,0,0,0,0,0,0,0,0],"sum_hessian":[1.6E2,1.31E2,2.9E1,5.5E1,7.6E1,2E1,9E0,3.6E1,1.9E1,5E1,2.6E1,6E0,1.4E1,5E0,4E0,1.5E1,2.1E1,1.2E1,7E0,4.6E1,4E0,4E0,2.2E1,4E0,2E0,1.2E1,2E0,1.2E1,3E0,1.6E1,5E0,8E0,4E0,4E0,3E0,4.3E1,3E0,3E0,1E0,1.8E1,4E0,1.1E1,1E0],"tree_param":{"num_deleted":"0","num_feature":"25","num_nodes":"43","size_leaf_vector":"1"}},{"base_weights":[1.7538471E0,-5.5953255E1,1.8370819E2,-9.972433E1,-1.9083647E1,8.4152954E1,2.4242384E2,-1.9679216E1,-8.6349205E1,-5.889299E1,3.9690163E0,9.474815E1,6.657715E0,9.255733E0,2.677693E2,-1.1914973E2,-4.448404E1,-1.1335276E2,-1.5029622E1,2.562162E1,-4.963501E1,1.03516975E2,-9.623291E-1,1.1172851E0,-1.1862793E-1,2.0241678E2,3.6022153E2,-1.7663183E1,-9.157799E0,-1.4550163E0,-8.493645E0,-1.4307607E1,1.36014E0,1.2116477E0,-7.174512E0,-9.099195E0,3.6428921E0,1.5536551E0,-1.0771586E1,1.9365561E0,1.1705673E1,1.051084E1,2.308293E1,1.0496509E1,3.852701E1],"categories":[],"categories_nodes":[],"categories_segments":[],"categories_sizes":[],"default_left":[0,0,0,0,0,0,0,0,0,0,0,0,0,0,0,0,0,0,0,0,0,0,0,0,0,0,0,0,0,0,0,0,0,0,0,0,0,0,0,0,0,0,0,0,0],"id":10,"left_children":[1,3,5,7,9,11,13,-1,15,17,19,21,23,-1,25,27,29,31,33,35,37,39,-1,-1,-1,41,43,-1,-1,-1,-1,-1,-1,-1,-1,-1,-1,-1,-1,-1,-1,-1,-1,-1,-1],"loss_changes":[1.7007884E6,1.9659703E5,2.0757175E5,5.5711625E4,6.2638117E4,1.25064375E4,6.6378375E4,0E0,6.4732938E4,5.801607E4,5.2341066E4,1.380918E4,1.1950423E2,0E0,4.7925E4,2.8201062E4,2.78257E4,4.34545E4,2.3963363E4,4.3643637E4,5.088138E4,1.2545203E4,0E0,0E0,0E0,1.444475E4,4.3166875E3,0E0,0E0,0E0,0E0,0E0,0E0,0E0,0E0,0E0,0E0,0E0,0E0,0E0,0E0,0E0,0E0,0E0,0E0],"parents":[2147483647,0,0,1,1,2,2,3,3,4,4,5,5,6,6,8,8,9,9,10,10,11,11,12,12,14,14,15,15,16,16,17,17,18,18,19,19,20,20,21,21,25,25,26,26],"right_children":[2,4,6,8,10,12,14,-1,16,18,20,22,24,-1,26,28,30,32,34,36,38,40,-1,-1,-1,42,44,-1,-1,-1,-1,-1,-1,-1,-1,-1,-1,-1,-1,-1,-1,-1,-1,-1,-1],"split_conditions":[4.6197277E-1,-5.845299E-1,1.4260864E0,-6.0560703E-1,3.998072E-1,1.1656681E0,-6.930498E-1,-1.9679216E1,-6.894315E-2,1.6442424E-1,9.304344E-1,1.5936799E0,8.27427E-2,9.255733E0,1.3676476E0,-1.0202347E0,-2.8529686E-1,1.4089696E0,9.8155034E-1,-6.931067E-1,9.1209775E-1,-1.5873489E0,-9.623291E-1,1.1172851E0,-1.1862793E-1,-6.4782125E-1,3.49058E-1,-1.7663183E1,-9.157799E0,-1.4550163E0,-8.493645E0,-1.4307607E1,1.36014E0,1.2116477E0,-7.174512E0,-9.099195E0,3.6428921E0,1.5536551E0,-1.0771586E1,1.9365561E0,1.1705673E1,1.051084E1,2.308293E1,1.0496509E1,3.852701E1],"split_indices":[5,6,5,7,9,2,11,0,13,22,23,8,0,0,2,23,3,23,19,5,20,22,0,0,0,13,0,0,0,0,0,0,0,0,0,0,0,0,0,0,0,0,0,0,0],"split_type":[0,0,0,0,0,0,0,0,0,0,0,0,0,0,0,0,0,0,0,0,0,0,0,0,0,0,0,0,0,0,0,0,0,0,0,0,0,0,0,0,0,0,0,0,0],"sum_hessian":[1.6E2,1.22E2,3.8E1,5.5E1,6.7E1,1.5E1,2.3E1,5E0,5E1,2.4E1,4.3E1,1.3E1,2E0,4E0,1.9E1,2.7E1,2.3E1,1E1,1.4E1,3.1E1,1.2E1,1.2E1,1E0,1E0,1E0,1.3E1,6E0,7E0,2E1,1.4E1,9E0,8E0,2E0,1E1,4E0,2E0,2.9E1,6E0,6E0,2E0,1E1,4E0,9E0,1E0,5E0],"tree_param":{"num_deleted":"0","num_feature":"25","num_nodes":"45","size_leaf_vector":"1"}},{"base_weights":[1.6748153E0,-4.3009922E1,1.9823184E2,-8.8894E1,-5.845459E0,1.5415274E2,3.0018024E2,-1.18413E2,-5.8411896E1,-3.4101597E1,2.8400045E1,8.838958E1,1.721639E2,3.531644E1,9.415186E0,-5.923164E1,-1.4208304E2,-1.417596E1,-4.7775517E1,-1.0260035E1,-9.086371E1,-2.5995428E1,5.214797E1,1.03791895E1,3.325586E0,6.6615233E0,1.9002322E2,-1.3894854E1,1.7071046E0,-1.6367056E1,-6.4433756E0,-1.4770639E0,-7.7595363E0,8.3590186E-1,-1.050271E1,-1.575501E1,-2.0723424E0,-1.7864041E-1,-8.995736E0,1.7742643E0,9.854116E0,9.669981E0,2.1768263E1],"categories":[],"categories_nodes":[],"categories_segments":[],"categories_sizes":[],"default_left":[0,0,0,0,0,0,0,0,0,0,0,0,0,0,0,0,0,0,0,0,0,0,0,0,0,0,0,0,0,0,0,0,0,0,0,0,0,0,0,0,0,0,0],"id":11,"left_children":[1,3,5,7,9,11,13,15,17,19,21,23,25,-1,-1,27,29,-1,31,33,35,37,39,-1,-1,-1,41,-1,-1,-1,-1,-1,-1,-1,-1,-1,-1,-1,-1,-1,-1,-1,-1],"loss_changes":[1.4226049E6,2.2457431E5,8.8540125E4,4.617153E4,7.257428E4,1.202525E4,5.4078812E4,3.2208094E4,2.0709414E4,5.455293E4,4.5276113E4,2.492621E3,1.9387031E4,0E0,0E0,6.319813E4,2.2979188E4,0E0,2.739568E4,5.381211E4,5.2863844E4,1.6872314E4,3.6559773E4,0E0,0E0,0E0,1.5087875E4,0E0,0E0,0E0,0E0,0E0,0E0,0E0,0E0,0E0,0E0,0E0,0E0,0E0,0E0,0E0,0E0],"parents":[2147483647,0,0,1,1,2,2,3,3,4,4,5,5,6,6,7,7,8,8,9,9,10,10,11,11,12,12,15,15,16,16,18,18,19,19,20,20,21,21,22,22,26,26],"right_children":[2,4,6,8,10,12,14,16,18,20,22,24,26,-1,-1,28,30,-1,32,34,36,38,40,-1,-1,-1,42,-1,-1,-1,-1,-1,-1,-1,-1,-1,-1,-1,-1,-1,-1,-1,-1],"split_conditions":[1.1826426E0,-6.2227774E-1,1.3676476E0,-1.4863217E-1,6.2107828E-2,1.3356097E0,6.4769024E-1,-1.1170374E0,-6.0560703E-1,-2.6051226E-1,-3.672638E-1,6.4769024E-1,-1.024279E0,3.531644E1,9.415186E0,-5.8633566E-1,6.302124E-1,-1.417596E1,-3.673029E-1,1.4903789E0,-1.6287863E-1,2.2574903E-1,4.468019E-1,1.03791895E1,3.325586E0,6.6615233E0,-6.4782125E-1,-1.3894854E1,1.7071046E0,-1.6367056E1,-6.4433756E0,-1.4770639E0,-7.7595363E0,8.3590186E-1,-1.050271E1,-1.575501E1,-2.0723424E0,-1.7864041E-1,-8.995736E0,1.7742643E0,9.854116E0,9.669981E0,2.1768263E1],"split_indices":[6,5,2,13,6,5,15,1,7,5,2,15,22,0,0,22,19,0,3,12,5,14,9,0,0,0,13,0,0,0,0,0,0,0,0,0,0,0,0,0,0,0,0],"split_type":[0,0,0,0,0,0,0,0,0,0,0,0,0,0,0,0,0,0,0,0,0,0,0,0,0,0,0,0,0,0,0,0,0,0,0,0,0,0,0,0,0,0,0],"sum_hessian":[1.6E2,1.31E2,2.9E1,5.8E1,7.3E1,2.2E1,7E0,2.8E1,3E1,4E1,3.3E1,6E0,1.6E1,5E0,2E0,9E0,1.9E1,2E0,2.8E1,2.9E1,1.1E1,1E1,2.3E1,4E0,2E0,3E0,1.3E1,4E0,5E0,1.4E1,5E0,1.4E1,1.4E1,2.5E1,4E0,5E0,6E0,8E0,2E0,1.4E1,9E0,4E0,9E0],"tree_param":{"num_deleted":"0","num_feature":"25","num_nodes":"43","size_leaf_vector":"1"}},{"base_weights":[1.5886382E0,-4.697732E1,1.5471747E2,-8.3257416E1,-1.6408756E1,7.223392E1,2.0325995E2,-1.03156654E2,-3.5516983E1,-5.106457E1,3.6549737E0,1.4742065E1,8.436726E1,7.6251366E1,2.2484909E2,-1.5275206E2,-8.078748E1,-5.8580345E1,6.347656E-1,-9.92749E1,-1.2306022E1,3.655944E1,-2.5288727E1,4.055103E0,-7.3779297E0,1.0724403E2,2.6315624E1,2.2541993E0,8.404322E0,1.6889708E2,3.0463184E1,1.3881836E0,-1.7080364E1,-3.902031E0,-1.2275085E1,-1.6452831E0,-8.03028E0,1.9495801E0,-2.310022E0,-1.2560721E1,1.281364E0,1.2565119E0,-6.4561324E0,7.9612516E-2,9.457532E0,-5.126762E0,4.5126815E0,-9.0527344E-1,-2.0141602E-1,2.661499E0,1.1399579E1,-1.2871094E-1,3.3538086E0,5.9733562E0,1.821132E1],"categories":[],"categories_nodes":[],"categories_segments":[],"categories_sizes":[],"default_left":[0,0,0,0,0,0,0,0,0,0,0,0,0,0,0,0,0,0,0,0,0,0,0,0,0,0,0,0,0,0,0,0,0,0,0,0,0,0,0,0,0,0,0,0,0,0,0,0,0,0,0,0,0,0,0],"id":12,"left_children":[1,3,5,7,9,11,13,15,17,19,21,23,25,27,29,31,33,35,37,39,41,43,45,-1,47,49,51,-1,-1,53,-1,-1,-1,-1,-1,-1,-1,-1,-1,-1,-1,-1,-1,-1,-1,-1,-1,-1,-1,-1,-1,-1,-1,-1,-1],"loss_changes":[1.2046009E6,1.350446E5,1.41472E5,4.9536094E4,4.7468734E4,9.917352E3,4.8663125E4,3.0926469E4,1.5045238E4,4.549238E4,4.2829133E4,2.5827588E3,1.4442242E4,1.9797461E2,3.7828688E4,3.545911E4,4.6038266E4,8.745035E3,4.0316887E3,3.4076523E4,2.0305957E4,4.3496348E4,4.6217176E4,0E0,8.7161255E0,1.8655E3,1.0399658E3,0E0,0E0,9.3198125E3,0E0,0E0,0E0,0E0,0E0,0E0,0E0,0E0,0E0,0E0,0E0,0E0,0E0,0E0,0E0,0E0,0E0,0E0,0E0,0E0,0E0,0E0,0E0,0E0,0E0],"parents":[2147483647,0,0,1,1,2,2,3,3,4,4,5,5,6,6,7,7,8,8,9,9,10,10,11,11,12,12,13,13,14,14,15,15,16,16,17,17,18,18,19,19,20,20,21,21,22,22,24,24,25,25,26,26,29,29],"right_children":[2,4,6,8,10,12,14,16,18,20,22,24,26,28,30,32,34,36,38,40,42,44,46,-1,48,50,52,-1,-1,54,-1,-1,-1,-1,-1,-1,-1,-1,-1,-1,-1,-1,-1,-1,-1,-1,-1,-1,-1,-1,-1,-1,-1,-1,-1],"split_conditions":[4.6197277E-1,-5.845299E-1,1.4260864E0,5.50712E-2,3.998072E-1,-4.9266163E-1,-6.930498E-1,-7.751393E-1,-2.861516E-3,1.6442424E-1,8.447951E-2,1.6180182E-1,9.800849E-1,7.564153E-1,1.3676476E0,-1.4473461E0,8.2774645E-1,-3.1343767E-1,7.522673E-1,1.4089696E0,9.8155034E-1,-9.251989E-1,5.2533954E-2,4.055103E0,6.5098655E-1,-7.443126E-1,-4.4555315E-1,2.2541993E0,8.404322E0,2.8894886E-1,3.0463184E1,1.3881836E0,-1.7080364E1,-3.902031E0,-1.2275085E1,-1.6452831E0,-8.03028E0,1.9495801E0,-2.310022E0,-1.2560721E1,1.281364E0,1.2565119E0,-6.4561324E0,7.9612516E-2,9.457532E0,-5.126762E0,4.5126815E0,-9.0527344E-1,-2.0141602E-1,2.661499E0,1.1399579E1,-1.2871094E-1,3.3538086E0,5.9733562E0,1.821132E1],"split_indices":[5,6,5,7,9,12,11,19,13,22,13,0,21,2,2,1,14,24,9,23,19,13,5,0,0,2,0,0,0,0,0,0,0,0,0,0,0,0,0,0,0,0,0,0,0,0,0,0,0,0,0,0,0,0,0],"split_type":[0,0,0,0,0,0,0,0,0,0,0,0,0,0,0,0,0,0,0,0,0,0,0,0,0,0,0,0,0,0,0,0,0,0,0,0,0,0,0,0,0,0,0,0,0,0,0,0,0,0,0,0,0,0,0],"sum_hessian":[1.6E2,1.22E2,3.8E1,5.5E1,6.7E1,1.5E1,2.3E1,3.8E1,1.7E1,2.4E1,4.3E1,3E0,1.2E1,4E0,1.9E1,1E1,2.8E1,1E1,7E0,1E1,1.4E1,2E1,2.3E1,1E0,2E0,8E0,4E0,1E0,3E0,1.3E1,6E0,1E0,9E0,1.5E1,1.3E1,4E0,6E0,4E0,3E0,8E0,2E0,1E1,4E0,1.3E1,7E0,1.7E1,6E0,1E0,1E0,1E0,7E0,1E0,3E0,2E0,1.1E1],"tree_param":{"num_deleted":"0","num_feature":"25","num_nodes":"55","size_leaf_vector":"1"}},{"base_weights":[1.6538708E0,-4.2681705E1,1.4143906E2,-7.568003E1,-1.48789425E1,6.627524E1,1.8565497E2,-1.5820232E2,-6.448761E1,-2.24806E1,6.74183E1,7.4866455E1,4.091146E0,7.075791E1,2.0509648E2,-4.7341065E0,-1.7090635E1,-1.2039362E2,-4.791556E1,-9.352704E1,-1.192967E1,9.000655E0,-2.2761476E0,8.19485E1,-8.600098E-1,8.050049E-1,-1.9133301E-1,2.1414795E0,7.773999E0,1.5373479E2,2.7852036E2,-4.8118286E0,-1.7260336E1,-6.65101E0,-1.4704713E0,-1.0961747E1,9.552979E-1,-1.0081529E1,-3.15356E-1,1.3134766E0,9.326602E0,7.6842384E0,1.7680754E1,7.977759E0,2.9834791E1],"categories":[],"categories_nodes":[],"categories_segments":[],"categories_sizes":[],"default_left":[0,0,0,0,0,0,0,0,0,0,0,0,0,0,0,0,0,0,0,0,0,0,0,0,0,0,0,0,0,0,0,0,0,0,0,0,0,0,0,0,0,0,0,0,0],"id":13,"left_children":[1,3,5,7,9,11,13,15,17,19,21,23,25,27,29,-1,-1,31,33,35,37,-1,-1,39,-1,-1,-1,-1,-1,41,43,-1,-1,-1,-1,-1,-1,-1,-1,-1,-1,-1,-1,-1,-1],"loss_changes":[1.00382744E6,1.1171967E5,1.1730969E5,4.1520875E4,4.4056094E4,8.2415E3,3.9098375E4,3.594375E2,4.1481594E4,4.610943E4,1.4270695E4,8.980367E3,8.671582E1,5.780078E1,3.260525E4,0E0,0E0,3.320286E4,2.4341148E4,1.4315984E4,4.336599E4,0E0,0E0,8.899383E3,0E0,0E0,0E0,0E0,0E0,1.12513125E4,3.7825625E3,0E0,0E0,0E0,0E0,0E0,0E0,0E0,0E0,0E0,0E0,0E0,0E0,0E0,0E0],"parents":[2147483647,0,0,1,1,2,2,3,3,4,4,5,5,6,6,7,7,8,8,9,9,10,10,11,11,12,12,13,13,14,14,17,17,18,18,19,19,20,20,23,23,29,29,30,30],"right_children":[2,4,6,8,10,12,14,16,18,20,22,24,26,28,30,-1,-1,32,34,36,38,-1,-1,40,-1,-1,-1,-1,-1,42,44,-1,-1,-1,-1,-1,-1,-1,-1,-1,-1,-1,-1,-1,-1],"split_conditions":[4.6197277E-1,-5.845299E-1,1.4260864E0,-6.0560703E-1,1.5563627E0,1.1656681E0,-6.930498E-1,-1.3248155E0,-1.0202347E0,-1.2745322E0,-2.3111016E-1,1.5936799E0,8.27427E-2,7.564153E-1,1.3676476E0,-4.7341065E0,-1.7090635E1,2.2665824E-1,1.5325847E-1,4.4230613E-1,-6.931067E-1,9.000655E0,-2.2761476E0,-1.5873489E0,-8.600098E-1,8.050049E-1,-1.9133301E-1,2.1414795E0,7.773999E0,-6.4782125E-1,3.49058E-1,-4.8118286E0,-1.7260336E1,-6.65101E0,-1.4704713E0,-1.0961747E1,9.552979E-1,-1.0081529E1,-3.15356E-1,1.3134766E0,9.326602E0,7.6842384E0,1.7680754E1,7.977759E0,2.9834791E1],"split_indices":[5,6,5,7,1,2,11,0,23,22,4,8,0,2,2,0,0,16,13,3,5,0,0,22,0,0,0,0,0,13,0,0,0,0,0,0,0,0,0,0,0,0,0,0,0],"split_type":[0,0,0,0,0,0,0,0,0,0,0,0,0,0,0,0,0,0,0,0,0,0,0,0,0,0,0,0,0,0,0,0,0,0,0,0,0,0,0,0,0,0,0,0,0],"sum_hessian":[1.6E2,1.22E2,3.8E1,5.5E1,6.7E1,1.5E1,2.3E1,5E0,5E1,6.2E1,5E0,1.3E1,2E0,4E0,1.9E1,1E0,4E0,1E1,4E1,7E0,5.5E1,4E0,1E0,1.2E1,1E0,1E0,1E0,1E0,3E0,1.3E1,6E0,5E0,5E0,2.5E1,1.5E1,6E0,1E0,4E0,5.1E1,2E0,1E1,4E0,9E0,1E0,5E0],"tree_param":{"num_deleted":"0","num_feature":"25","num_nodes":"45","size_leaf_vector":"1"}},{"base_weights":[1.5990225E0,-3.89476E1,1.2943584E2,-6.760938E1,-1.2332332E1,6.029727E1,1.7013506E2,-3.7860023E1,-8.837038E1,-3.647294E0,-9.712732E1,1.1936157E1,7.053936E1,1.4183664E2,2.7616796E1,-1.0056718E2,-1.8140835E1,-1.1313101E2,-3.9670036E1,-3.1053009E1,2.6719263E1,-1.0874361E1,-1.952295E0,3.386011E0,-6.658529E0,9.0682076E1,2.017461E1,5.0562015E0,1.5424007E2,-1.1605278E1,-1.156958E0,1.1883464E0,-5.235591E0,-1.3510306E1,-3.202173E0,-5.778076E-1,-6.013025E0,-7.69103E0,1.9611176E0,6.8432336E0,-1.1449631E0,-8.170166E-1,-1.817627E-1,2.0268066E0,9.695032E0,-1.8793945E-1,2.6157959E0,2.8714356E0,1.5993486E1],"categories":[],"categories_nodes":[],"categories_segments":[],"categories_sizes":[],"default_left":[0,0,0,0,0,0,0,0,0,0,0,0,0,0,0,0,0,0,0,0,0,0,0,0,0,0,0,0,0,0,0,0,0,0,0,0,0,0,0,0,0,0,0,0,0,0,0,0,0],"id":14,"left_children":[1,3,5,7,9,11,13,15,17,19,21,23,25,27,-1,29,31,33,35,37,39,-1,-1,-1,41,43,45,-1,47,-1,-1,-1,-1,-1,-1,-1,-1,-1,-1,-1,-1,-1,-1,-1,-1,-1,-1,-1,-1],"loss_changes":[8.3956075E5,9.299566E4,9.948281E4,3.309425E4,4.7514844E4,7.083133E3,3.2842812E4,3.0325523E4,3.651103E4,5.076275E4,3.2858516E3,1.8561343E3,1.1358805E4,1.59758125E4,0E0,6.9264062E3,2.2195125E4,3.488078E4,8.667238E3,7.585462E4,4.6955645E4,0E0,0E0,0E0,7.1027374E0,2.0073516E3,7.0894507E2,0E0,8.27475E3,0E0,0E0,0E0,0E0,0E0,0E0,0E0,0E0,0E0,0E0,0E0,0E0,0E0,0E0,0E0,0E0,0E0,0E0,0E0,0E0],"parents":[2147483647,0,0,1,1,2,2,3,3,4,4,5,5,6,6,7,7,8,8,9,9,10,10,11,11,12,12,13,13,15,15,16,16,17,17,18,18,19,19,20,20,24,24,25,25,26,26,28,28],"right_children":[2,4,6,8,10,12,14,16,18,20,22,24,26,28,-1,30,32,34,36,38,40,-1,-1,-1,42,44,46,-1,48,-1,-1,-1,-1,-1,-1,-1,-1,-1,-1,-1,-1,-1,-1,-1,-1,-1,-1,-1,-1],"split_conditions":[4.6197277E-1,-6.2227774E-1,1.4260864E0,-1.9940433E-1,2.111607E0,-4.9266163E-1,2.5645225E0,-1.3516608E0,4.318438E-2,4.468019E-1,-1.33594E-1,1.6180182E-1,9.800849E-1,-1.024279E0,2.7616796E1,-7.117323E-2,-8.5660136E-1,7.522673E-1,-1.7349724E-1,-2.1924227E-1,8.447951E-2,-1.0874361E1,-1.952295E0,3.386011E0,6.5098655E-1,-1.5873489E0,-4.4555315E-1,5.0562015E0,-1.5361826E-1,-1.1605278E1,-1.156958E0,1.1883464E0,-5.235591E0,-1.3510306E1,-3.202173E0,-5.778076E-1,-6.013025E0,-7.69103E0,1.9611176E0,6.8432336E0,-1.1449631E0,-8.170166E-1,-1.817627E-1,2.0268066E0,9.695032E0,-1.8793945E-1,2.6157959E0,2.8714356E0,1.5993486E1],"split_indices":[5,5,5,17,4,12,5,21,7,9,1,0,21,22,0,3,0,9,10,1,13,0,0,0,0,22,0,0,1,0,0,0,0,0,0,0,0,0,0,0,0,0,0,0,0,0,0,0,0],"split_type":[0,0,0,0,0,0,0,0,0,0,0,0,0,0,0,0,0,0,0,0,0,0,0,0,0,0,0,0,0,0,0,0,0,0,0,0,0,0,0,0,0,0,0,0,0,0,0,0,0],"sum_hessian":[1.6E2,1.22E2,3.8E1,5.8E1,6.4E1,1.5E1,2.3E1,2.5E1,3.3E1,5.9E1,5E0,3E0,1.2E1,2E1,3E0,5E0,2E1,2.1E1,1.2E1,3.1E1,2.8E1,4E0,1E0,1E0,2E0,8E0,4E0,3E0,1.7E1,4E0,1E0,1.1E1,9E0,1.6E1,5E0,5E0,7E0,1.6E1,1.5E1,1.3E1,1.5E1,1E0,1E0,1E0,7E0,1E0,3E0,1E0,1.6E1],"tree_param":{"num_deleted":"0","num_feature":"25","num_nodes":"49","size_leaf_vector":"1"}},{"base_weights":[1.5329134E0,-3.5483517E1,1.1823773E2,-6.152838E1,-1.129689E1,8.658976E1,2.0135786E2,-8.4412796E1,-3.8135593E1,2.920879E0,-5.5021362E1,5.6736588E1,1.1665507E2,2.5208235E1,1.0021689E1,-3.5276806E1,-1.04760155E2,-1.0966813E1,-2.9420654E1,1.3299997E1,-5.3231995E1,-8.004428E1,4.005847E1,8.350727E1,2.3661839E1,1.7761438E1,8.388303E1,3.2004802E0,-1.0895938E1,-1.2205833E1,-4.405469E0,-3.5401368E-1,-5.3339796E0,-7.5735474E0,2.1871045E0,-7.922339E0,1.6494792E0,-1.1954806E1,-2.9105608E0,-2.8444824E-1,5.5307617E0,6.3395995E-1,9.236078E0,-5.636963E-1,3.9250734E0,1.0859782E1,4.5187745E0],"categories":[],"categories_nodes":[],"categories_segments":[],"categories_sizes":[],"default_left":[0,0,0,0,0,0,0,0,0,0,0,0,0,0,0,0,0,0,0,0,0,0,0,0,0,0,0,0,0,0,0,0,0,0,0,0,0,0,0,0,0,0,0,0,0,0,0],"id":15,"left_children":[1,3,5,7,9,11,13,15,17,19,21,23,25,-1,-1,27,29,-1,31,33,35,37,39,41,43,-1,45,-1,-1,-1,-1,-1,-1,-1,-1,-1,-1,-1,-1,-1,-1,-1,-1,-1,-1,-1,-1],"loss_changes":[6.9971475E5,7.678722E4,8.515725E4,2.836536E4,4.0568902E4,2.0307734E4,2.6040344E4,2.5298219E4,1.6098945E4,2.9848854E4,4.1273254E4,1.3076441E4,1.30698125E4,0E0,0E0,5.306204E4,1.5624641E4,0E0,1.776332E4,3.4470883E4,1.5805146E4,2.2679992E4,2.7742559E3,5.5633125E3,4.331878E3,0E0,5.612508E3,0E0,0E0,0E0,0E0,0E0,0E0,0E0,0E0,0E0,0E0,0E0,0E0,0E0,0E0,0E0,0E0,0E0,0E0,0E0,0E0],"parents":[2147483647,0,0,1,1,2,2,3,3,4,4,5,5,6,6,7,7,8,8,9,9,10,10,11,11,12,12,15,15,16,16,18,18,19,19,20,20,21,21,22,22,23,23,24,24,26,26],"right_children":[2,4,6,8,10,12,14,16,18,20,22,24,26,-1,-1,28,30,-1,32,34,36,38,40,42,44,-1,46,-1,-1,-1,-1,-1,-1,-1,-1,-1,-1,-1,-1,-1,-1,-1,-1,-1,-1,-1,-1],"split_conditions":[4.6197277E-1,-6.2227774E-1,1.8996642E0,-1.4863217E-1,5.6226153E-2,4.468019E-1,1.2370653E0,-1.1170374E0,-6.0560703E-1,1.2592825E0,9.684428E-1,-1.7445266E-1,5.312522E-1,2.5208235E1,1.0021689E1,9.98096E-3,6.302124E-1,-1.0966813E1,-3.673029E-1,-1.5560672E0,-7.932978E-2,-2.0278722E-1,-1.2054782E0,8.27427E-2,9.1496766E-1,1.7761438E1,-6.6614416E-3,3.2004802E0,-1.0895938E1,-1.2205833E1,-4.405469E0,-3.5401368E-1,-5.3339796E0,-7.5735474E0,2.1871045E0,-7.922339E0,1.6494792E0,-1.1954806E1,-2.9105608E0,-2.8444824E-1,5.5307617E0,6.3395995E-1,9.236078E0,-5.636963E-1,3.9250734E0,1.0859782E1,4.5187745E0],"split_indices":[5,5,6,13,3,9,1,1,7,22,9,23,1,0,0,21,19,0,3,22,1,5,0,0,5,0,21,0,0,0,0,0,0,0,0,0,0,0,0,0,0,0,0,0,0,0,0],"split_type":[0,0,0,0,0,0,0,0,0,0,0,0,0,0,0,0,0,0,0,0,0,0,0,0,0,0,0,0,0,0,0,0,0,0,0,0,0,0,0,0,0,0,0,0,0,0,0],"sum_hessian":[1.6E2,1.22E2,3.8E1,5.8E1,6.4E1,2.9E1,9E0,2.8E1,3E1,4.9E1,1.5E1,1.6E1,1.3E1,5E0,4E0,9E0,1.9E1,2E0,2.8E1,4.2E1,7E0,1.2E1,3E0,8E0,8E0,3E0,1E1,5E0,4E0,1.4E1,5E0,1.4E1,1.4E1,3E0,3.9E1,5E0,2E0,6E0,6E0,1E0,2E0,1E0,7E0,3E0,5E0,5E0,5E0],"tree_param":{"num_deleted":"0","num_feature":"25","num_nodes":"47","size_leaf_vector":"1"}},{"base_weights":[1.4999318E0,-3.244114E1,1.08506386E2,-5.7522945E1,-1.1308457E1,8.277847E1,1.9785474E2,-7.326114E1,-2.022781E1,-1.7665054E1,5.7320557E1,5.5100483E1,1.1442871E2,2.3458033E1,5.8451986E0,-3.9302933E1,-9.284739E1,-4.4491535E1,3.6323242E0,-7.6617676E1,-8.927804E0,7.764238E0,-2.2144287E0,6.656458E1,9.688086E0,1.4133908E2,5.49917E1,-4.9370117E-2,-8.912999E0,-1.1430697E1,-2.4401717E0,-9.358073E0,-1.7097378E0,2.1776855E0,-7.254883E-1,-9.029171E0,9.550293E-1,-5.358073E-2,-7.8771815E0,8.560069E0,2.3743653E0,-5.950033E-1,2.2096841E0,4.1915526E0,1.637579E1,6.0584373E0,1.351416E0],"categories":[],"categories_nodes":[],"categories_segments":[],"categories_sizes":[],"default_left":[0,0,0,0,0,0,0,0,0,0,0,0,0,0,0,0,0,0,0,0,0,0,0,0,0,0,0,0,0,0,0,0,0,0,0,0,0,0,0,0,0,0,0,0,0,0,0],"id":16,"left_children":[1,3,5,7,9,11,13,15,17,19,21,23,25,-1,-1,27,29,31,33,35,37,-1,-1,39,41,43,45,-1,-1,-1,-1,-1,-1,-1,-1,-1,-1,-1,-1,-1,-1,-1,-1,-1,-1,-1,-1],"loss_changes":[5.882582E5,6.4545125E4,7.327297E4,3.138775E4,3.0677367E4,2.1727406E4,2.72455E4,2.2290266E4,1.0582451E4,3.1766254E4,1.1408559E4,9.24675E3,1.4620125E4,0E0,0E0,3.0895994E4,3.2462266E4,1.0502832E4,2.1334214E3,1.028843E4,3.278111E4,0E0,0E0,1.0194672E4,1.101725E3,1.3196609E4,5.730762E2,0E0,0E0,0E0,0E0,0E0,0E0,0E0,0E0,0E0,0E0,0E0,0E0,0E0,0E0,0E0,0E0,0E0,0E0,0E0,0E0],"parents":[2147483647,0,0,1,1,2,2,3,3,4,4,5,5,6,6,7,7,8,8,9,9,10,10,11,11,12,12,15,15,16,16,17,17,18,18,19,19,20,20,23,23,24,24,25,25,26,26],"right_children":[2,4,6,8,10,12,14,16,18,20,22,24,26,-1,-1,28,30,32,34,36,38,-1,-1,40,42,44,46,-1,-1,-1,-1,-1,-1,-1,-1,-1,-1,-1,-1,-1,-1,-1,-1,-1,-1,-1,-1],"split_conditions":[4.6197277E-1,-5.845299E-1,1.3676476E0,5.50712E-2,1.5563627E0,1.4759309E0,6.4769024E-1,-1.9940433E-1,-4.6120903E-1,-1.2745322E0,-2.3111016E-1,1.1194681E0,-1.8172401E-1,2.3458033E1,5.8451986E0,8.2774645E-1,7.522673E-1,-1.5985975E0,-1.7967404E-1,4.4230613E-1,2.111607E0,7.764238E0,-2.2144287E0,9.800849E-1,7.6441385E-2,-6.4782125E-1,1.4364681E0,-4.9370117E-2,-8.912999E0,-1.1430697E1,-2.4401717E0,-9.358073E0,-1.7097378E0,2.1776855E0,-7.254883E-1,-9.029171E0,9.550293E-1,-5.358073E-2,-7.8771815E0,8.560069E0,2.3743653E0,-5.950033E-1,2.2096841E0,4.1915526E0,1.637579E1,6.0584373E0,1.351416E0],"split_indices":[5,6,2,7,1,6,15,17,22,22,4,13,11,0,0,14,9,1,22,3,4,0,0,21,3,13,1,0,0,0,0,0,0,0,0,0,0,0,0,0,0,0,0,0,0,0,0],"split_type":[0,0,0,0,0,0,0,0,0,0,0,0,0,0,0,0,0,0,0,0,0,0,0,0,0,0,0,0,0,0,0,0,0,0,0,0,0,0,0,0,0,0,0,0,0,0,0],"sum_hessian":[1.6E2,1.22E2,3.8E1,5.5E1,6.7E1,3.1E1,7E0,3.8E1,1.7E1,6.2E1,5E0,1.8E1,1.3E1,5E0,2E0,1.5E1,2.3E1,8E0,9E0,7E0,5.5E1,4E0,1E0,1.4E1,4E0,8E0,5E0,9E0,6E0,1.7E1,6E0,2E0,6E0,3E0,6E0,6E0,1E0,5E1,5E0,9E0,5E0,2E0,2E0,2E0,6E0,4E0,1E0],"tree_param":{"num_deleted":"0","num_feature":"25","num_nodes":"47","size_leaf_vector":"1"}},{"base_weights":[1.5172065E0,-2.954579E1,9.944621E1,-5.23501E1,-1.033127E1,7.576703E1,1.8173218E2,-1.2217261E2,-4.310922E1,-8.950519E0,-5.3000865E0,4.5092743E1,1.0018006E2,2.1503199E1,5.455518E0,-3.366333E0,-1.331418E1,-8.814429E1,-2.9975193E1,1.4399457E1,-2.6065224E1,2.9242676E1,7.411436E1,1.3114899E2,6.538692E1,-3.1156862E0,-1.30441E1,-8.7426406E-1,-4.9780354E0,3.2383509E-3,6.9810686E0,1.5813599E0,-4.8754783E0,4.8229423E0,2.2176921E-1,8.807044E0,9.1450197E-1,3.9121258E0,1.5530469E1,6.937467E0,1.4748535E0],"categories":[],"categories_nodes":[],"categories_segments":[],"categories_sizes":[],"default_left":[0,0,0,0,0,0,0,0,0,0,0,0,0,0,0,0,0,0,0,0,0,0,0,0,0,0,0,0,0,0,0,0,0,0,0,0,0,0,0,0,0],"id":17,"left_children":[1,3,5,7,9,11,13,15,17,-1,19,21,23,-1,-1,-1,-1,25,27,29,31,33,35,37,39,-1,-1,-1,-1,-1,-1,-1,-1,-1,-1,-1,-1,-1,-1,-1,-1],"loss_changes":[4.9269516E5,5.335454E4,6.2220812E4,3.0865656E4,2.6612637E4,1.944589E4,2.2148656E4,1.34325E3,2.752393E4,0E0,2.6964467E4,5.1926094E3,9.742172E3,0E0,0E0,0E0,0E0,2.2450055E4,1.6805867E4,2.7065045E4,3.1177766E4,6.0504404E3,3.7281816E3,1.1708234E4,9.9616406E2,0E0,0E0,0E0,0E0,0E0,0E0,0E0,0E0,0E0,0E0,0E0,0E0,0E0,0E0,0E0,0E0],"parents":[2147483647,0,0,1,1,2,2,3,3,4,4,5,5,6,6,7,7,8,8,10,10,11,11,12,12,17,17,18,18,19,19,20,20,21,21,22,22,23,23,24,24],"right_children":[2,4,6,8,10,12,14,16,18,-1,20,22,24,-1,-1,-1,-1,26,28,30,32,34,36,38,40,-1,-1,-1,-1,-1,-1,-1,-1,-1,-1,-1,-1,-1,-1,-1,-1],"split_conditions":[4.6197277E-1,-5.845299E-1,1.3676476E0,-6.0560703E-1,-7.2316223E-1,1.4260864E0,6.4769024E-1,-1.3248155E0,-1.0202347E0,-8.950519E0,2.8502056E-1,1.957059E-1,6.06812E-2,2.1503199E1,5.455518E0,-3.366333E0,-1.331418E1,2.2665824E-1,-4.1254693E-1,1.4462124E0,-3.762484E-1,6.4769024E-1,1.000835E0,-6.4782125E-1,1.1219671E0,-3.1156862E0,-1.30441E1,-8.7426406E-1,-4.9780354E0,3.2383509E-3,6.9810686E0,1.5813599E0,-4.8754783E0,4.8229423E0,2.2176921E-1,8.807044E0,9.1450197E-1,3.9121258E0,1.5530469E1,6.937467E0,1.4748535E0],"split_indices":[5,6,2,7,5,5,15,0,23,0,23,22,8,0,0,0,0,16,3,24,14,15,0,13,3,0,0,0,0,0,0,0,0,0,0,0,0,0,0,0,0],"split_type":[0,0,0,0,0,0,0,0,0,0,0,0,0,0,0,0,0,0,0,0,0,0,0,0,0,0,0,0,0,0,0,0,0,0,0,0,0,0,0,0,0],"sum_hessian":[1.6E2,1.22E2,3.8E1,5.5E1,6.7E1,3.1E1,7E0,5E0,5E1,3E0,6.4E1,1.5E1,1.6E1,5E0,2E0,1E0,4E0,1E1,4E1,3.3E1,3.1E1,1.1E1,4E0,7E0,9E0,5E0,5E0,2E1,2E1,2.7E1,6E0,1.1E1,2E1,6E0,5E0,3E0,1E0,2E0,5E0,8E0,1E0],"tree_param":{"num_deleted":"0","num_feature":"25","num_nodes":"41","size_leaf_vector":"1"}},{"base_weights":[1.524593E0,-2.6948647E1,9.128572E1,-4.6991196E1,-8.341586E0,6.952231E1,1.6692865E2,-6.6200745E1,-2.7505127E1,-1.4023072E0,-7.634412E1,4.150644E1,9.180064E1,1.9711248E1,5.0918136E0,-2.2735449E1,-8.462335E1,-9.297022E0,-1.9784424E1,-2.4591843E1,2.42345E1,-3.7740479E0,-1.0236759E1,2.6738932E1,6.864717E1,1.2046454E2,5.9689453E1,-8.772705E0,3.5213459E0,-1.0508814E1,-4.079016E0,-4.1159058E-1,-4.914302E0,-6.2498565E0,1.722104E0,5.9291606E0,-7.955124E-1,4.4095635E0,2.032959E-1,9.248242E0,2.1929526E0,3.6513183E0,1.42362795E1,6.320801E0,1.401123E0],"categories":[],"categories_nodes":[],"categories_segments":[],"categories_sizes":[],"default_left":[0,0,0,0,0,0,0,0,0,0,0,0,0,0,0,0,0,0,0,0,0,0,0,0,0,0,0,0,0,0,0,0,0,0,0,0,0,0,0,0,0,0,0,0,0],"id":18,"left_children":[1,3,5,7,9,11,13,15,17,19,21,23,25,-1,-1,27,29,-1,31,33,35,-1,-1,37,39,41,43,-1,-1,-1,-1,-1,-1,-1,-1,-1,-1,-1,-1,-1,-1,-1,-1,-1,-1],"loss_changes":[4.1394222E5,4.5478766E4,5.2598406E4,2.0263922E4,3.0565697E4,1.6162375E4,1.7976531E4,2.1297625E4,1.3829172E4,3.626631E4,2.164207E3,4.57726E3,8.456875E3,0E0,0E0,4.0751098E4,1.36541875E4,0E0,1.3137898E4,5.1795938E4,3.3197453E4,0E0,0E0,5.056127E3,3.539539E3,9.508992E3,7.2158984E2,0E0,0E0,0E0,0E0,0E0,0E0,0E0,0E0,0E0,0E0,0E0,0E0,0E0,0E0,0E0,0E0,0E0,0E0],"parents":[2147483647,0,0,1,1,2,2,3,3,4,4,5,5,6,6,7,7,8,8,9,9,10,10,11,11,12,12,15,15,16,16,18,18,19,19,20,20,23,23,24,24,25,25,26,26],"right_children":[2,4,6,8,10,12,14,16,18,20,22,24,26,-1,-1,28,30,-1,32,34,36,-1,-1,38,40,42,44,-1,-1,-1,-1,-1,-1,-1,-1,-1,-1,-1,-1,-1,-1,-1,-1,-1,-1],"split_conditions":[4.6197277E-1,-6.2227774E-1,1.3676476E0,-1.4863217E-1,2.111607E0,1.4260864E0,6.4769024E-1,-1.1170374E0,-6.0560703E-1,4.468019E-1,-3.021567E-1,1.957059E-1,6.06812E-2,1.9711248E1,5.0918136E0,-5.8633566E-1,-5.7278726E-2,-9.297022E0,5.774947E-1,-2.1924227E-1,8.447951E-2,-3.7740479E0,-1.0236759E1,6.4769024E-1,7.9859513E-1,-6.4782125E-1,1.1219671E0,-8.772705E0,3.5213459E0,-1.0508814E1,-4.079016E0,-4.1159058E-1,-4.914302E0,-6.2498565E0,1.722104E0,5.9291606E0,-7.955124E-1,4.4095635E0,2.032959E-1,9.248242E0,2.1929526E0,3.6513183E0,1.42362795E1,6.320801E0,1.401123E0],"split_indices":[5,5,2,13,4,5,15,1,7,9,13,22,8,0,0,22,15,0,4,1,13,0,0,15,5,13,3,0,0,0,0,0,0,0,0,0,0,0,0,0,0,0,0,0,0],"split_type":[0,0,0,0,0,0,0,0,0,0,0,0,0,0,0,0,0,0,0,0,0,0,0,0,0,0,0,0,0,0,0,0,0,0,0,0,0,0,0,0,0,0,0,0,0],"sum_hessian":[1.6E2,1.22E2,3.8E1,5.8E1,6.4E1,3.1E1,7E0,2.8E1,3E1,5.9E1,5E0,1.5E1,1.6E1,5E0,2E0,9E0,1.9E1,2E0,2.8E1,3.1E1,2.8E1,3E0,2E0,1.1E1,4E0,7E0,9E0,4E0,5E0,1.2E1,7E0,1.9E1,9E0,1.6E1,1.5E1,1.3E1,1.5E1,6E0,5E0,2E0,2E0,2E0,5E0,8E0,1E0],"tree_param":{"num_deleted":"0","num_feature":"25","num_nodes":"45","size_leaf_vector":"1"}},{"base_weights":[1.4876323E0,-2.4642975E1,8.3861404E1,-4.2876225E1,-7.7136717E0,6.387207E1,1.5333606E2,-2.1193312E1,-5.819621E1,3.953164E0,-4.369043E1,3.8359222E1,8.412698E1,1.7119629E0,1.7034988E1,-7.711333E1,-7.520885E0,-7.6586235E1,-2.2597994E1,1.3007347E1,-4.5207214E1,-6.53433E1,3.7604004E1,2.4449463E1,6.40708E1,1.1065399E2,5.4492676E1,-9.008283E0,-1.2617676E0,-8.745508E0,4.8452884E-1,-9.297388E0,-1.7390219E0,2.3395996E-1,-3.847644E0,2.0427136E0,-6.444238E0,1.3191894E0,-6.687223E0,-7.673556E0,3.5681884E0,-2.279297E-1,5.1658206E0,1.5120444E-1,4.061733E0,8.631705E0,2.0467613E0,3.407894E0,1.3049919E1,5.758952E0,1.3310547E0],"categories":[],"categories_nodes":[],"categories_segments":[],"categories_sizes":[],"default_left":[0,0,0,0,0,0,0,0,0,0,0,0,0,0,0,0,0,0,0,0,0,0,0,0,0,0,0,0,0,0,0,0,0,0,0,0,0,0,0,0,0,0,0,0,0,0,0,0,0,0,0],"id":19,"left_children":[1,3,5,7,9,11,13,15,17,19,21,23,25,-1,-1,27,29,31,33,35,37,39,41,43,45,47,49,-1,-1,-1,-1,-1,-1,-1,-1,-1,-1,-1,-1,-1,-1,-1,-1,-1,-1,-1,-1,-1,-1,-1,-1],"loss_changes":[3.486153E5,3.7636445E4,4.4367438E4,1.836536E4,2.7455486E4,1.3309289E4,1.5624172E4,1.9298662E4,2.0527477E4,2.2843379E4,3.0621295E4,4.1557734E3,7.3340234E3,0E0,0E0,3.045746E3,2.2170307E4,1.9724977E4,5.237634E3,2.6026785E4,1.1003913E4,1.7699832E4,2.3598555E3,4.388773E3,3.083336E3,7.7099062E3,5.0879883E2,0E0,0E0,0E0,0E0,0E0,0E0,0E0,0E0,0E0,0E0,0E0,0E0,0E0,0E0,0E0,0E0,0E0,0E0,0E0,0E0,0E0,0E0,0E0,0E0],"parents":[2147483647,0,0,1,1,2,2,3,3,4,4,5,5,6,6,7,7,8,8,9,9,10,10,11,11,12,12,15,15,16,16,17,17,18,18,19,19,20,20,21,21,22,22,23,23,24,24,25,25,26,26],"right_children":[2,4,6,8,10,12,14,16,18,20,22,24,26,-1,-1,28,30,32,34,36,38,40,42,44,46,48,50,-1,-1,-1,-1,-1,-1,-1,-1,-1,-1,-1,-1,-1,-1,-1,-1,-1,-1,-1,-1,-1,-1,-1,-1],"split_conditions":[4.6197277E-1,-6.2227774E-1,1.3676476E0,-1.9940433E-1,5.6226153E-2,1.4260864E0,-1.5361826E-1,-1.4197218E0,4.318438E-2,1.2592825E0,9.684428E-1,1.957059E-1,6.06812E-2,1.7119629E0,1.7034988E1,-7.117323E-2,-1.5704597E0,7.522673E-1,-1.7349724E-1,2.111607E0,-3.4898204E-1,1.4253539E0,-1.2054782E0,1.8833117E-1,7.9859513E-1,-6.4782125E-1,1.1219671E0,-9.008283E0,-1.2617676E0,-8.745508E0,4.8452884E-1,-9.297388E0,-1.7390219E0,2.3395996E-1,-3.847644E0,2.0427136E0,-6.444238E0,1.3191894E0,-6.687223E0,-7.673556E0,3.5681884E0,-2.279297E-1,5.1658206E0,1.5120444E-1,4.061733E0,8.631705E0,2.0467613E0,3.407894E0,1.3049919E1,5.758952E0,1.3310547E0],"split_indices":[5,5,2,17,3,5,1,2,7,22,9,22,8,0,0,3,13,9,10,4,13,2,0,9,5,13,3,0,0,0,0,0,0,0,0,0,0,0,0,0,0,0,0,0,0,0,0,0,0,0,0],"split_type":[0,0,0,0,0,0,0,0,0,0,0,0,0,0,0,0,0,0,0,0,0,0,0,0,0,0,0,0,0,0,0,0,0,0,0,0,0,0,0,0,0,0,0,0,0,0,0,0,0,0,0],"sum_hessian":[1.6E2,1.22E2,3.8E1,5.8E1,6.4E1,3.1E1,7E0,2.5E1,3.3E1,4.9E1,1.5E1,1.5E1,1.6E1,1E0,6E0,4E0,2.1E1,2.1E1,1.2E1,4.2E1,7E0,1.2E1,3E0,1.1E1,4E0,7E0,9E0,3E0,1E0,2E0,1.9E1,1.6E1,5E0,5E0,7E0,3.9E1,3E0,2E0,5E0,1.1E1,1E0,1E0,2E0,5E0,6E0,2E0,2E0,2E0,5E0,8E0,1E0],"tree_param":{"num_deleted":"0","num_feature":"25","num_nodes":"51","size_leaf_vector":"1"}},{"base_weights":[1.4325262E0,-2.2521025E1,7.6941605E1,-3.181438E1,4.901161E0,6.3879135E1,1.7526844E1,-3.703836E1,1.4726074E1,-4.2435547E1,2.2448212E1,3.545401E1,8.2494514E1,-2.8728035E1,-7.004234E1,-6.105957E0,6.536947E0,-7.6643753E0,2.5976562E-1,-1.2164946E1,5.8075115E1,2.235563E1,5.9799316E1,8.833342E1,1.8016602E0,-5.978331E0,-1.7204055E0,6.458741E-2,-8.64047E0,1.1103613E0,-2.609143E0,-9.621257E-1,1.00542E0,-3.2107975E0,6.501449E0,-2.1393068E0,6.7244315E0,3.7393208E0,1.0858561E-1,8.056251E0,1.9103028E0,3.5019042E0,9.614118E0],"categories":[],"categories_nodes":[],"categories_segments":[],"categories_sizes":[],"default_left":[0,0,0,0,0,0,0,0,0,0,0,0,0,0,0,0,0,0,0,0,0,0,0,0,0,0,0,0,0,0,0,0,0,0,0,0,0,0,0,0,0,0,0],"id":20,"left_children":[1,3,5,7,9,11,-1,13,15,17,19,21,23,25,27,29,-1,-1,31,33,35,37,39,41,-1,-1,-1,-1,-1,-1,-1,-1,-1,-1,-1,-1,-1,-1,-1,-1,-1,-1,-1],"loss_changes":[2.9293516E5,3.1501766E4,3.889528E4,2.2913047E4,2.753243E4,1.6124453E4,0E0,2.0752555E4,1.0949189E4,1.316468E4,3.0302309E4,3.765293E3,6.314625E3,2.3307352E4,1.8561812E4,3.0412405E3,0E0,0E0,5.806291E2,2.2096977E4,1.0182488E4,3.7975469E3,2.6859355E3,4.5422656E3,0E0,0E0,0E0,0E0,0E0,0E0,0E0,0E0,0E0,0E0,0E0,0E0,0E0,0E0,0E0,0E0,0E0,0E0,0E0],"parents":[2147483647,0,0,1,1,2,2,3,3,4,4,5,5,7,7,8,8,9,9,10,10,11,11,12,12,13,13,14,14,15,15,18,18,19,19,20,20,21,21,22,22,23,23],"right_children":[2,4,6,8,10,12,-1,14,16,18,20,22,24,26,28,30,-1,-1,32,34,36,38,40,42,-1,-1,-1,-1,-1,-1,-1,-1,-1,-1,-1,-1,-1,-1,-1,-1,-1,-1,-1],"split_conditions":[4.6197277E-1,-1.9461012E-2,2.5645225E0,1.3139924E0,3.998072E-1,1.4260864E0,1.7526844E1,9.602842E-1,4.1383913E-1,-3.1343767E-1,-2.9702747E-1,1.957059E-1,3.3034608E0,-1.0202347E0,-1.4166384E0,-9.1848254E-1,6.536947E0,-7.6643753E0,4.6216196E-1,1.541436E0,-1.4733219E0,6.4769024E-1,7.9859513E-1,2.8894886E-1,1.8016602E0,-5.978331E0,-1.7204055E0,6.458741E-2,-8.64047E0,1.1103613E0,-2.609143E0,-9.621257E-1,1.00542E0,-3.2107975E0,6.501449E0,-2.1393068E0,6.7244315E0,3.7393208E0,1.0858561E-1,8.056251E0,1.9103028E0,3.5019042E0,9.614118E0],"split_indices":[5,6,5,13,9,5,0,23,23,24,2,22,3,23,0,0,0,0,0,23,13,15,5,0,0,0,0,0,0,0,0,0,0,0,0,0,0,0,0,0,0,0,0],"split_type":[0,0,0,0,0,0,0,0,0,0,0,0,0,0,0,0,0,0,0,0,0,0,0,0,0,0,0,0,0,0,0,0,0,0,0,0,0,0,0,0,0,0,0],"sum_hessian":[1.6E2,1.22E2,3.8E1,9.1E1,3.1E1,3.5E1,3E0,8.2E1,9E0,8E0,2.3E1,1.5E1,2E1,6.7E1,1.5E1,7E0,2E0,4E0,4E0,1.2E1,1.1E1,1.1E1,4E0,1.8E1,2E0,1.7E1,5E1,3E0,1.2E1,4E0,3E0,2E0,2E0,1E1,2E0,1E0,1E1,6E0,5E0,2E0,2E0,3E0,1.5E1],"tree_param":{"num_deleted":"0","num_feature":"25","num_nodes":"43","size_leaf_vector":"1"}},{"base_weights":[1.5083523E0,-2.0358244E1,7.0433556E1,-3.6496193E1,-5.396747E0,5.9658665E1,1.7984602E1,-7.823038E1,-2.93737E1,4.615049E0,-3.6346313E1,3.2772125E1,7.6500755E1,6.2109377E-2,-8.95836E1,2.6615017E1,-4.015835E1,-6.165601E0,1.0156946E1,-5.560209E1,3.5321533E1,2.0440836E1,5.5812794E1,2.385315E0,8.3558105E1,-2.6713867E0,-9.560958E0,4.5800586E0,2.1064453E-1,-7.496274E0,-2.7716985E0,1.9539149E0,-3.8023682E0,3.9804688E-1,-7.3874903E0,-1.3051759E-1,4.79655E0,6.904297E-2,3.444964E0,6.6959596E0,5.612793E-1,1.1456543E0,8.692728E0],"categories":[],"categories_nodes":[],"categories_segments":[],"categories_sizes":[],"default_left":[0,0,0,0,0,0,0,0,0,0,0,0,0,0,0,0,0,0,0,0,0,0,0,0,0,0,0,0,0,0,0,0,0,0,0,0,0,0,0,0,0,0,0],"id":21,"left_children":[1,3,5,7,9,11,-1,13,15,17,19,21,23,-1,25,27,29,-1,31,33,35,37,39,-1,41,-1,-1,-1,-1,-1,-1,-1,-1,-1,-1,-1,-1,-1,-1,-1,-1,-1,-1],"loss_changes":[2.440866E5,2.9501133E4,3.5248016E4,1.5239914E4,2.0308688E4,1.4247469E4,0E0,7.2173906E3,3.2467402E4,1.8989605E4,2.404427E4,3.4050781E3,6.1810312E3,0E0,9.786328E1,4.135422E3,1.6974883E4,0E0,2.1988848E4,1.44476875E4,1.9150298E3,3.2963691E3,2.4220186E3,0E0,3.619625E3,0E0,0E0,0E0,0E0,0E0,0E0,0E0,0E0,0E0,0E0,0E0,0E0,0E0,0E0,0E0,0E0,0E0,0E0],"parents":[2147483647,0,0,1,1,2,2,3,3,4,4,5,5,7,7,8,8,9,9,10,10,11,11,12,12,14,14,15,15,16,16,18,18,19,19,20,20,21,21,22,22,24,24],"right_children":[2,4,6,8,10,12,-1,14,16,18,20,22,24,-1,26,28,30,-1,32,34,36,38,40,-1,42,-1,-1,-1,-1,-1,-1,-1,-1,-1,-1,-1,-1,-1,-1,-1,-1,-1,-1],"split_conditions":[4.6197277E-1,-6.2227774E-1,2.7558093E0,-1.3516608E0,5.6226153E-2,1.4260864E0,1.7984602E1,-9.6131796E-1,-9.5368814E-1,-1.5560672E0,9.684428E-1,1.957059E-1,-1.024279E0,6.2109377E-2,-1.2535151E0,6.5809295E-2,-1.0202347E0,-6.165601E0,1.2592825E0,-4.9367732E-1,-1.2054782E0,1.8833117E-1,1.000835E0,2.385315E0,-1.5361826E-1,-2.6713867E0,-9.560958E0,4.5800586E0,2.1064453E-1,-7.496274E0,-2.7716985E0,1.9539149E0,-3.8023682E0,3.9804688E-1,-7.3874903E0,-1.3051759E-1,4.79655E0,6.904297E-2,3.444964E0,6.6959596E0,5.612793E-1,1.1456543E0,8.692728E0],"split_indices":[5,5,5,21,3,5,0,8,21,22,9,22,22,0,6,10,23,0,22,23,0,9,0,0,1,0,0,0,0,0,0,0,0,0,0,0,0,0,0,0,0,0,0],"split_type":[0,0,0,0,0,0,0,0,0,0,0,0,0,0,0,0,0,0,0,0,0,0,0,0,0,0,0,0,0,0,0,0,0,0,0,0,0,0,0,0,0,0,0],"sum_hessian":[1.6E2,1.22E2,3.8E1,5.8E1,6.4E1,3.6E1,2E0,7E0,5.1E1,4.9E1,1.5E1,1.5E1,2.1E1,1E0,6E0,8E0,4.3E1,3E0,4.6E1,1.2E1,3E0,1.1E1,4E0,3E0,1.8E1,1E0,5E0,4E0,4E0,1E1,3.3E1,3.9E1,7E0,3E0,9E0,1E0,2E0,5E0,6E0,3E0,1E0,1E0,1.7E1],"tree_param":{"num_deleted":"0","num_feature":"25","num_nodes":"43","size_leaf_vector":"1"}},{"base_weights":[1.4381536E0,-1.8550045E1,6.444098E1,-3.31458E1,-5.0162034E0,5.4314293E1,1.6785645E1,-7.389081E1,-2.623992E1,5.1313883E-1,-5.947359E1,3.0168274E1,6.9406204E1,-8.512772E1,2.3837891E-1,-8.995343E0,-2.050331E1,-1.7254852E1,2.0101503E1,-2.5031128E0,-8.557235E0,1.8689737E1,5.1683105E1,7.86952E1,3.1519694E0,-2.5378175E0,-9.0856285E0,2.2598083E0,-2.8224924E0,-5.0635943E0,1.9290985E0,4.9875665E0,-7.20723E-1,3.1717703E0,3.754883E-2,7.072787E0,1.5410645E0,4.4230776E0,9.839722E0],"categories":[],"categories_nodes":[],"categories_segments":[],"categories_sizes":[],"default_left":[0,0,0,0,0,0,0,0,0,0,0,0,0,0,0,0,0,0,0,0,0,0,0,0,0,0,0,0,0,0,0,0,0,0,0,0,0,0,0],"id":22,"left_children":[1,3,5,7,9,11,-1,13,15,17,19,21,23,25,-1,-1,27,29,31,-1,-1,33,35,37,-1,-1,-1,-1,-1,-1,-1,-1,-1,-1,-1,-1,-1,-1,-1],"loss_changes":[2.0394478E5,2.4130742E4,3.1725969E4,1.4662543E4,1.9602898E4,1.1389297E4,0E0,7.0596523E3,1.716164E4,2.1229602E4,3.251461E3,2.9853965E3,5.261953E3,9.018359E1,0E0,0E0,1.6945635E4,4.001489E4,2.3939207E4,0E0,0E0,2.8512598E3,2.36404E3,7.191133E3,0E0,0E0,0E0,0E0,0E0,0E0,0E0,0E0,0E0,0E0,0E0,0E0,0E0,0E0,0E0],"parents":[2147483647,0,0,1,1,2,2,3,3,4,4,5,5,7,7,8,8,9,9,10,10,11,11,12,12,13,13,16,16,17,17,18,18,21,21,22,22,23,23],"right_children":[2,4,6,8,10,12,-1,14,16,18,20,22,24,26,-1,-1,28,30,32,-1,-1,34,36,38,-1,-1,-1,-1,-1,-1,-1,-1,-1,-1,-1,-1,-1,-1,-1],"split_conditions":[4.6197277E-1,-6.2227774E-1,2.7558093E0,-1.1264772E0,2.111607E0,1.4260864E0,1.6785645E1,7.9189174E-2,-1.5704597E0,4.468019E-1,-3.021567E-1,1.957059E-1,1.0826803E0,-1.1204392E0,2.3837891E-1,-8.995343E0,-1.2802167E0,-2.1924227E-1,8.447951E-2,-2.5031128E0,-8.557235E0,6.4769024E-1,7.9859513E-1,-7.707482E-1,3.1519694E0,-2.5378175E0,-9.0856285E0,2.2598083E0,-2.8224924E0,-5.0635943E0,1.9290985E0,4.9875665E0,-7.20723E-1,3.1717703E0,3.754883E-2,7.072787E0,1.5410645E0,4.4230776E0,9.839722E0],"split_indices":[5,5,5,19,4,5,0,13,13,9,13,22,8,1,0,0,13,1,13,0,0,15,5,23,0,0,0,0,0,0,0,0,0,0,0,0,0,0,0],"split_type":[0,0,0,0,0,0,0,0,0,0,0,0,0,0,0,0,0,0,0,0,0,0,0,0,0,0,0,0,0,0,0,0,0,0,0,0,0,0,0],"sum_hessian":[1.6E2,1.22E2,3.8E1,5.8E1,6.4E1,3.6E1,2E0,7E0,5.1E1,5.9E1,5E0,1.5E1,2.1E1,6E0,1E0,3E0,4.8E1,3.1E1,2.8E1,3E0,2E0,1.1E1,4E0,1.6E1,5E0,1E0,5E0,7E0,4.1E1,1.6E1,1.5E1,1.3E1,1.5E1,6E0,5E0,2E0,2E0,7E0,9E0],"tree_param":{"num_deleted":"0","num_feature":"25","num_nodes":"39","size_leaf_vector":"1"}},{"base_weights":[1.3883519E0,-1.694616E1,5.9176983E1,-6.0364967E1,-1.2569585E1,4.9673088E1,1.5666602E1,-7.318533E1,-1.7822266E0,4.004438E1,-1.6959642E1,2.789035E1,6.3257214E1,-8.3161316E1,3.3112794E-1,-7.266846E-1,4.593506E-1,2.2470703E0,5.8568525E0,-5.6934586E1,-1.0183996E1,6.516431E0,2.1061132E1,6.8264114E1,8.7921554E-1,-8.967899E0,-1.8768799E0,1.118335E0,-4.4594726E-1,-9.18944E0,-3.8527486E-1,8.33664E-3,-3.328854E0,3.3858724E0,1.5983538E-1,8.972423E0,4.6480346E0],"categories":[],"categories_nodes":[],"categories_segments":[],"categories_sizes":[],"default_left":[0,0,0,0,0,0,0,0,0,0,0,0,0,0,0,0,0,0,0,0,0,0,0,0,0,0,0,0,0,0,0,0,0,0,0,0,0],"id":23,"left_children":[1,3,5,7,9,11,-1,13,15,17,19,21,23,25,-1,-1,-1,27,-1,29,31,-1,33,35,-1,-1,-1,-1,-1,-1,-1,-1,-1,-1,-1,-1,-1],"loss_changes":[1.7158656E5,2.2614395E4,2.8352422E4,8.1311367E3,2.6779693E4,9.184008E3,0E0,7.143535E3,1.3828569E2,6.1698574E3,2.7860064E4,2.7003975E3,5.3992344E3,1.6743477E3,0E0,0E0,0E0,2.89598E2,0E0,2.7481918E4,2.1590043E4,0E0,3.6820317E3,5.1792344E3,0E0,0E0,0E0,0E0,0E0,0E0,0E0,0E0,0E0,0E0,0E0,0E0,0E0],"parents":[2147483647,0,0,1,1,2,2,3,3,4,4,5,5,7,7,8,8,9,9,10,10,11,11,12,12,13,13,17,17,19,19,20,20,22,22,23,23],"right_children":[2,4,6,8,10,12,-1,14,16,18,20,22,24,26,-1,-1,-1,28,-1,30,32,-1,34,36,-1,-1,-1,-1,-1,-1,-1,-1,-1,-1,-1,-1,-1],"split_conditions":[4.6197277E-1,-1.4359431E0,2.7558093E0,1.4903789E0,-1.3112397E0,1.4260864E0,1.5666602E1,1.2093402E0,-1.6117154E0,-7.622477E-1,-1.119908E0,4.768623E-1,3.3034608E0,-1.4108355E-1,3.3112794E-1,-7.266846E-1,4.593506E-1,-1.6876789E0,5.8568525E0,7.522673E-1,3.0450976E-2,6.516431E0,6.4769024E-1,6.06812E-2,8.7921554E-1,-8.967899E0,-1.8768799E0,1.118335E0,-4.4594726E-1,-9.18944E0,-3.8527486E-1,8.33664E-3,-3.328854E0,3.3858724E0,1.5983538E-1,8.972423E0,4.6480346E0],"split_indices":[5,13,5,12,13,5,0,1,0,15,6,5,3,5,0,0,0,1,0,9,3,0,15,8,0,0,0,0,0,0,0,0,0,0,0,0,0],"split_type":[0,0,0,0,0,0,0,0,0,0,0,0,0,0,0,0,0,0,0,0,0,0,0,0,0,0,0,0,0,0,0,0,0,0,0,0,0],"sum_hessian":[1.6E2,1.22E2,3.8E1,1E1,1.12E2,3.6E1,2E0,8E0,2E0,8E0,1.04E2,1.5E1,2.1E1,7E0,1E0,1E0,1E0,3E0,5E0,1.4E1,9E1,1E0,1.4E1,1.9E1,2E0,6E0,1E0,1E0,2E0,8E0,6E0,6.3E1,2.7E1,8E0,6E0,8E0,1.1E1],"tree_param":{"num_deleted":"0","num_feature":"25","num_nodes":"37","size_leaf_vector":"1"}},{"base_weights":[1.3928541E0,-1.539099E1,5.4290802E1,-5.6604935E1,-1.1242809E1,4.536963E1,1.4622169E1,-6.639193E1,-8.375651E0,-5.5308617E1,-6.4275994E0,2.5730316E1,5.759051E1,1.1245117E-1,-7.4972046E1,2.5063476E-1,-1.5069824E0,-6.703502E1,-1.6931967E0,-1.4969088E1,1.6985996E1,1.5328735E1,4.5548046E1,6.2118675E1,8.205892E-1,-7.99412E0,-2.0093994E0,-7.620084E0,3.145752E-1,-6.9035643E-1,4.3637696E-1,-6.471715E-1,-4.9093623E0,-1.05414E0,4.1545835E0,-5.9138995E-2,2.678474E0,6.2711916E0,1.3201498E0,8.174853E0,4.221973E0],"categories":[],"categories_nodes":[],"categories_segments":[],"categories_sizes":[],"default_left":[0,0,0,0,0,0,0,0,0,0,0,0,0,0,0,0,0,0,0,0,0,0,0,0,0,0,0,0,0,0,0,0,0,0,0,0,0,0,0,0,0],"id":24,"left_children":[1,3,5,7,9,11,-1,13,15,17,19,21,23,-1,25,-1,-1,27,29,31,33,35,37,39,-1,-1,-1,-1,-1,-1,-1,-1,-1,-1,-1,-1,-1,-1,-1,-1,-1],"loss_changes":[1.4377638E5,2.0392041E4,2.535111E4,4.6361367E3,2.3621527E4,7.398539E3,0E0,5.297996E3,2.563082E2,6.802375E3,2.085292E4,2.5999775E3,4.4099375E3,0E0,5.752422E2,0E0,0E0,6.029086E3,1.24802635E2,2.1719916E4,1.9367863E4,2.2044126E3,1.9480684E3,4.360875E3,0E0,0E0,0E0,0E0,0E0,0E0,0E0,0E0,0E0,0E0,0E0,0E0,0E0,0E0,0E0,0E0,0E0],"parents":[2147483647,0,0,1,1,2,2,3,3,4,4,5,5,7,7,8,8,9,9,10,10,11,11,12,12,14,14,17,17,18,18,19,19,20,20,21,21,22,22,23,23],"right_children":[2,4,6,8,10,12,-1,14,16,18,20,22,24,-1,26,-1,-1,28,30,32,34,36,38,40,-1,-1,-1,-1,-1,-1,-1,-1,-1,-1,-1,-1,-1,-1,-1,-1,-1],"split_conditions":[4.6197277E-1,-1.412432E0,2.7558093E0,4.6677715E-1,-1.4359431E0,1.4260864E0,1.4622169E1,-9.6131796E-1,-4.9751362E-1,1.4903789E0,-1.9461012E-2,1.957059E-1,3.3034608E0,1.1245117E-1,9.9372524E-1,2.5063476E-1,-1.5069824E0,1.2093402E0,-1.6117154E0,9.602842E-1,4.468019E-1,1.8833117E-1,7.9859513E-1,6.06812E-2,8.205892E-1,-7.99412E0,-2.0093994E0,-7.620084E0,3.145752E-1,-6.9035643E-1,4.3637696E-1,-6.471715E-1,-4.9093623E0,-1.05414E0,4.1545835E0,-5.9138995E-2,2.678474E0,6.2711916E0,1.3201498E0,8.174853E0,4.221973E0],"split_indices":[5,21,5,13,13,5,0,8,0,12,6,22,3,0,0,0,0,1,0,23,9,9,5,8,0,0,0,0,0,0,0,0,0,0,0,0,0,0,0,0,0],"split_type":[0,0,0,0,0,0,0,0,0,0,0,0,0,0,0,0,0,0,0,0,0,0,0,0,0,0,0,0,0,0,0,0,0,0,0,0,0,0,0,0,0],"sum_hessian":[1.6E2,1.22E2,3.8E1,1E1,1.12E2,3.6E1,2E0,8E0,2E0,1E1,1.02E2,1.5E1,2.1E1,1E0,7E0,1E0,1E0,8E0,2E0,7.5E1,2.7E1,1.1E1,4E0,1.9E1,2E0,6E0,1E0,7E0,1E0,1E0,1E0,6.1E1,1.4E1,1.3E1,1.4E1,5E0,6E0,2E0,2E0,8E0,1.1E1],"tree_param":{"num_deleted":"0","num_feature":"25","num_nodes":"41","size_leaf_vector":"1"}},{"base_weights":[1.3583423E0,-1.4024071E1,4.9837276E1,-1.7747824E1,2.550395E1,4.1465755E1,1.3647364E1,-1.5327712E1,-7.986395E1,3.7049072E1,-4.4973636E0,2.5139078E1,5.4086475E1,-5.195783E1,-1.1145123E1,-1.1628907E0,-9.873267E0,4.8032063E1,-3.0898926E0,4.870342E0,1.4927595E1,4.9747314E0,6.246062E1,-6.0851727E0,-7.956869E-1,-4.3271428E-1,-4.196441E0,1.9306315E0,5.348138E0,5.18219E-1,2.3932688E0,1.2548828E-1,5.7963866E-1,-1.5932618E-1,6.656357E0],"categories":[],"categories_nodes":[],"categories_segments":[],"categories_sizes":[],"default_left":[0,0,0,0,0,0,0,0,0,0,0,0,0,0,0,0,0,0,0,0,0,0,0,0,0,0,0,0,0,0,0,0,0,0,0],"id":25,"left_children":[1,3,5,7,9,11,-1,13,15,17,-1,19,21,23,25,-1,-1,27,-1,-1,29,31,33,-1,-1,-1,-1,-1,-1,-1,-1,-1,-1,-1,-1],"loss_changes":[1.2076032E5,1.8557334E4,2.2626867E4,1.576293E4,1.0616627E4,6.264332E3,0E0,1.6273893E4,4.001879E3,8.946859E3,0E0,3.6042588E3,7.9146484E3,3.820545E3,2.0830941E4,0E0,0E0,3.7629297E2,0E0,0E0,1.104592E3,4.95195E0,4.5738203E3,0E0,0E0,0E0,0E0,0E0,0E0,0E0,0E0,0E0,0E0,0E0,0E0],"parents":[2147483647,0,0,1,1,2,2,3,3,4,4,5,5,7,7,8,8,9,9,11,11,12,12,13,13,14,14,17,17,20,20,21,21,22,22],"right_children":[2,4,6,8,10,12,-1,14,16,18,-1,20,22,24,26,-1,-1,28,-1,-1,30,32,34,-1,-1,-1,-1,-1,-1,-1,-1,-1,-1,-1,-1],"split_conditions":[4.6197277E-1,1.5001962E0,2.7558093E0,1.6933187E0,4.8889524E-1,-3.6736402E-1,1.3647364E1,-1.412432E0,-1.4217875E0,-3.6060882E-1,-4.4973636E0,-8.970217E-1,-8.970217E-1,4.6677715E-1,7.8046376E-1,-1.1628907E0,-9.873267E0,-1.4166384E0,-3.0898926E0,4.870342E0,6.5098655E-1,8.236033E-1,-6.084485E-1,-6.0851727E0,-7.956869E-1,-4.3271428E-1,-4.196441E0,1.9306315E0,5.348138E0,5.18219E-1,2.3932688E0,1.2548828E-1,5.7963866E-1,-1.5932618E-1,6.656357E0],"split_indices":[5,21,5,23,6,22,0,21,0,3,0,20,20,13,21,0,0,0,0,0,0,0,1,0,0,0,0,0,0,0,0,0,0,0,0],"split_type":[0,0,0,0,0,0,0,0,0,0,0,0,0,0,0,0,0,0,0,0,0,0,0,0,0,0,0,0,0,0,0,0,0,0,0],"sum_hessian":[1.6E2,1.22E2,3.8E1,1.12E2,1E1,3.6E1,2E0,1.09E2,3E0,9E0,1E0,1.7E1,1.9E1,1E1,9.9E1,1E0,2E0,8E0,1E0,4E0,1.3E1,3E0,1.6E1,8E0,2E0,8.2E1,1.7E1,2E0,6E0,7E0,6E0,1E0,2E0,1E0,1.5E1],"tree_param":{"num_deleted":"0","num_feature":"25","num_nodes":"35","size_leaf_vector":"1"}},{"base_weights":[1.2583508E0,-1.0412772E1,5.4741142E1,-1.890511E1,8.437413E0,4.464323E1,1.2737533E1,-2.3385084E1,2.016919E1,2.6055098E1,-1.650034E1,6.131333E1,3.2901882E1,-1.2257319E1,-3.9061646E1,1.6283569E0,6.288835E0,3.572735E1,1.0356445E0,4.3041016E1,-3.1278011E1,1.35859375E1,7.1546936E0,4.5063763E1,7.352679E0,-6.6876507E-1,-7.46366E0,-4.2650104E0,3.9678712E0,1.1894125E0,-1.9445963E0,7.1582274E0,2.3784213E0,-2.7124634E0,2.335674E0,5.331966E0,6.1025393E-1,4.3487307E-1,-4.462853E0,1.1921387E-1,1.9186767E0,2.5113342E0,6.7971683E0,8.566651E-1,3.442383E-3],"categories":[],"categories_nodes":[],"categories_segments":[],"categories_sizes":[],"default_left":[0,0,0,0,0,0,0,0,0,0,0,0,0,0,0,0,0,0,0,0,0,0,0,0,0,0,0,0,0,0,0,0,0,0,0,0,0,0,0,0,0,0,0,0,0],"id":26,"left_children":[1,3,5,7,9,11,-1,13,15,17,19,21,23,25,27,29,-1,31,33,35,37,39,-1,41,43,-1,-1,-1,-1,-1,-1,-1,-1,-1,-1,-1,-1,-1,-1,-1,-1,-1,-1,-1,-1],"loss_changes":[1.0106688E5,2.1450432E4,1.5583719E4,1.657643E4,1.8882428E4,3.267371E3,0E0,1.4000148E4,7.818082E3,6.0128594E3,1.7184123E4,3.9122031E3,5.2617363E3,1.6872453E4,1.1299219E4,1.9620452E3,0E0,6.0054355E3,5.6620884E3,1.1933252E3,7.3286094E3,1.8537341E2,0E0,3.7772734E3,6.1894196E1,0E0,0E0,0E0,0E0,0E0,0E0,0E0,0E0,0E0,0E0,0E0,0E0,0E0,0E0,0E0,0E0,0E0,0E0,0E0,0E0],"parents":[2147483647,0,0,1,1,2,2,3,3,4,4,5,5,7,7,8,8,9,9,10,10,11,11,12,12,13,13,14,14,15,15,17,17,18,18,19,19,20,20,21,21,23,23,24,24],"right_children":[2,4,6,8,10,12,-1,14,16,18,20,22,24,26,28,30,-1,32,34,36,38,40,-1,42,44,-1,-1,-1,-1,-1,-1,-1,-1,-1,-1,-1,-1,-1,-1,-1,-1,-1,-1,-1,-1],"split_conditions":[1.1890721E0,-1.9461012E-2,2.7558093E0,1.3139924E0,8.7221277E-1,-5.7278726E-2,1.2737533E1,8.2774645E-1,4.1383913E-1,1.0089658E0,-1.0850959E0,-8.970217E-1,-4.1254693E-1,1.6933187E0,1.3360314E0,-8.449239E-1,6.288835E0,-3.083005E-1,-5.280955E-1,1.1622156E0,-8.969723E-1,8.236033E-1,7.1546936E0,9.681547E-1,1.7982725E0,-6.6876507E-1,-7.46366E0,-4.2650104E0,3.9678712E0,1.1894125E0,-1.9445963E0,7.1582274E0,2.3784213E0,-2.7124634E0,2.335674E0,5.331966E0,6.1025393E-1,4.3487307E-1,-4.462853E0,1.1921387E-1,1.9186767E0,2.5113342E0,6.7971683E0,8.566651E-1,3.442383E-3],"split_indices":[6,6,5,13,0,15,0,14,23,1,1,20,3,23,1,0,0,21,2,0,23,0,0,0,5,0,0,0,0,0,0,0,0,0,0,0,0,0,0,0,0,0,0,0,0],"split_type":[0,0,0,0,0,0,0,0,0,0,0,0,0,0,0,0,0,0,0,0,0,0,0,0,0,0,0,0,0,0,0,0,0,0,0,0,0,0,0,0,0,0,0,0,0],"sum_hessian":[1.6E2,1.32E2,2.8E1,9.1E1,4.1E1,2.6E1,2E0,8.2E1,9E0,2.4E1,1.7E1,9E0,1.7E1,4.9E1,3.3E1,7E0,2E0,1.7E1,7E0,3E0,1.4E1,2E0,7E0,1.1E1,6E0,4.6E1,3E0,3.2E1,1E0,5E0,2E0,3E0,1.4E1,3E0,4E0,2E0,1E0,4E0,1E1,1E0,1E0,7E0,4E0,5E0,1E0],"tree_param":{"num_deleted":"0","num_feature":"25","num_nodes":"45","size_leaf_vector":"1"}},{"base_weights":[1.3827564E0,-9.309924E0,5.0373924E1,-1.5774067E1,1.15854645E1,4.0896015E1,1.1888379E1,-3.933364E1,-8.020689E0,-7.473366E-1,3.519784E1,5.610122E1,3.0176676E1,2.7760986E1,-4.9744774E1,1.9676607E1,-1.7910732E1,2.8535854E1,-1.3512024E1,5.7801547E0,-3.4869142E0,6.2083008E1,1.13256834E-1,4.1333088E1,6.7404437E0,3.6216798E0,1.1967774E-1,-7.0851283E0,-1.7331837E0,-1.5588406E0,4.257726E0,2.450444E0,-2.7257736E0,6.318197E0,2.0410156E-1,-4.786556E0,-5.1854074E-1,-3.2272785E0,2.6461265E0,7.13689E0,3.2633424E0,6.7576785E0,2.507666E0,7.852946E-1,3.2714845E-3],"categories":[],"categories_nodes":[],"categories_segments":[],"categories_sizes":[],"default_left":[0,0,0,0,0,0,0,0,0,0,0,0,0,0,0,0,0,0,0,0,0,0,0,0,0,0,0,0,0,0,0,0,0,0,0,0,0,0,0,0,0,0,0,0,0],"id":27,"left_children":[1,3,5,7,9,11,-1,13,15,17,19,21,23,25,27,29,31,33,35,-1,37,39,-1,41,43,-1,-1,-1,-1,-1,-1,-1,-1,-1,-1,-1,-1,-1,-1,-1,-1,-1,-1,-1,-1],"loss_changes":[8.480833E4,1.8147164E4,1.3968711E4,1.831648E4,9.344921E3,2.7077734E3,0E0,1.8844238E4,2.1718768E4,8.608975E3,9.820158E3,3.2177969E3,4.427754E3,8.5514404E2,1.3822738E4,1.762314E4,2.3662309E4,6.296647E3,4.328577E3,0E0,5.164401E3,1.3217969E2,0E0,3.4249434E3,5.1979645E1,0E0,0E0,0E0,0E0,0E0,0E0,0E0,0E0,0E0,0E0,0E0,0E0,0E0,0E0,0E0,0E0,0E0,0E0,0E0,0E0],"parents":[2147483647,0,0,1,1,2,2,3,3,4,4,5,5,7,7,8,8,9,9,10,10,11,11,12,12,13,13,14,14,15,15,16,16,17,17,18,18,20,20,21,21,23,23,24,24],"right_children":[2,4,6,8,10,12,-1,14,16,18,20,22,24,26,28,30,32,34,36,-1,38,40,-1,42,44,-1,-1,-1,-1,-1,-1,-1,-1,-1,-1,-1,-1,-1,-1,-1,-1,-1,-1,-1,-1],"split_conditions":[1.1890721E0,-6.166641E-2,2.7558093E0,-7.751393E-1,4.468019E-1,-5.7278726E-2,1.1888379E1,-1.3472592E0,-6.6813153E-1,-6.515372E-1,5.6638736E-1,1.4297439E0,-4.1254693E-1,3.9073887E-1,4.468019E-1,-8.970217E-1,-9.782458E-1,4.4025305E-1,-6.995234E-1,5.7801547E0,-3.552692E-1,1.7423332E0,1.13256834E-1,3.654028E-1,1.7982725E0,3.6216798E0,1.1967774E-1,-7.0851283E0,-1.7331837E0,-1.5588406E0,4.257726E0,2.450444E0,-2.7257736E0,6.318197E0,2.0410156E-1,-4.786556E0,-5.1854074E-1,-3.2272785E0,2.6461265E0,7.13689E0,3.2633424E0,6.7576785E0,2.507666E0,7.852946E-1,3.2714845E-3],"split_indices":[6,5,5,19,9,15,0,1,21,23,24,14,3,0,9,20,14,6,1,0,0,1,0,1,5,0,0,0,0,0,0,0,0,0,0,0,0,0,0,0,0,0,0,0,0],"split_type":[0,0,0,0,0,0,0,0,0,0,0,0,0,0,0,0,0,0,0,0,0,0,0,0,0,0,0,0,0,0,0,0,0,0,0,0,0,0,0,0,0,0,0,0,0],"sum_hessian":[1.6E2,1.32E2,2.8E1,1.01E2,3.1E1,2.6E1,2E0,2.4E1,7.7E1,2.1E1,1E1,9E0,1.7E1,3E0,2.1E1,2E1,5.7E1,6E0,1.5E1,6E0,4E0,8E0,1E0,1.1E1,6E0,2E0,1E0,1.2E1,9E0,8E0,1.2E1,1E1,4.7E1,2E0,4E0,2E0,1.3E1,2E0,2E0,5E0,3E0,3E0,8E0,5E0,1E0],"tree_param":{"num_deleted":"0","num_feature":"25","num_nodes":"45","size_leaf_vector":"1"}},{"base_weights":[1.4693915E0,-1.0382203E1,3.8809822E1,-4.506465E1,-6.9141574E0,3.1911028E1,1.1095834E1,-5.5682644E1,1.8108724E0,3.458125E1,-1.0837618E1,2.0075586E1,4.328868E1,-6.2995575E1,1.4104004E-1,-2.8466797E-1,5.5629885E-1,3.906372E0,4.7169575E1,-7.387872E0,-8.233638E0,3.1835829E1,9.582438E0,1.57821045E1,5.935813E1,-7.328593E0,-2.1416342E0,9.369629E-1,-1.03792325E-1,5.2690187E0,7.0229495E-1,-4.4081545E0,-4.675952E-1,-9.477539E-2,4.133796E0,-8.498535E-2,1.3154297E0,2.7301025E0,3.4105468E-1,1.517002E0,8.244134E0],"categories":[],"categories_nodes":[],"categories_segments":[],"categories_sizes":[],"default_left":[0,0,0,0,0,0,0,0,0,0,0,0,0,0,0,0,0,0,0,0,0,0,0,0,0,0,0,0,0,0,0,0,0,0,0,0,0,0,0,0,0],"id":28,"left_children":[1,3,5,7,9,11,-1,13,15,17,19,21,23,25,-1,-1,-1,27,29,-1,31,33,35,37,39,-1,-1,-1,-1,-1,-1,-1,-1,-1,-1,-1,-1,-1,-1,-1,-1],"loss_changes":[7.165245E4,1.44828955E4,1.5870977E4,5.575797E3,1.877181E4,4.1133594E3,0E0,3.8465059E3,6.826307E1,3.6771914E3,1.6464123E4,2.1629736E3,7.0194805E3,1.8534023E3,0E0,0E0,0E0,1.1777278E2,1.1813975E3,0E0,1.2674971E4,2.8428037E3,4.5833142E2,1.0469446E3,9.969402E3,0E0,0E0,0E0,0E0,0E0,0E0,0E0,0E0,0E0,0E0,0E0,0E0,0E0,0E0,0E0,0E0],"parents":[2147483647,0,0,1,1,2,2,3,3,4,4,5,5,7,7,8,8,9,9,10,10,11,11,12,12,13,13,17,17,18,18,20,20,21,21,22,22,23,23,24,24],"right_children":[2,4,6,8,10,12,-1,14,16,18,20,22,24,26,-1,-1,-1,28,30,-1,32,34,36,38,40,-1,-1,-1,-1,-1,-1,-1,-1,-1,-1,-1,-1,-1,-1,-1,-1],"split_conditions":[4.6197277E-1,-1.4359431E0,2.7558093E0,1.4903789E0,-1.2802167E0,-1.483924E-1,1.1095834E1,1.2093402E0,-1.6117154E0,-7.622477E-1,-1.2447845E0,-2.9604945E-1,3.0985007E-3,-1.6287863E-1,1.4104004E-1,-2.8466797E-1,5.5629885E-1,-1.6876789E0,5.6226153E-2,-7.387872E0,-1.1264772E0,7.415113E-1,2.4563019E-1,7.67961E-1,-6.4782125E-1,-7.328593E0,-2.1416342E0,9.369629E-1,-1.03792325E-1,5.2690187E0,7.0229495E-1,-4.4081545E0,-4.675952E-1,-9.477539E-2,4.133796E0,-8.498535E-2,1.3154297E0,2.7301025E0,3.4105468E-1,1.517002E0,8.244134E0],"split_indices":[5,13,5,12,13,22,0,1,0,15,13,21,12,5,0,0,0,1,3,0,19,5,0,0,13,0,0,0,0,0,0,0,0,0,0,0,0,0,0,0,0],"split_type":[0,0,0,0,0,0,0,0,0,0,0,0,0,0,0,0,0,0,0,0,0,0,0,0,0,0,0,0,0,0,0,0,0,0,0,0,0,0,0,0,0],"sum_hessian":[1.6E2,1.22E2,3.8E1,1E1,1.12E2,3.6E1,2E0,8E0,2E0,9E0,1.03E2,1.9E1,1.7E1,7E0,1E0,1E0,1E0,3E0,6E0,3E0,1E2,8E0,1.1E1,7E0,1E1,5E0,2E0,1E0,2E0,5E0,1E0,8E0,9.2E1,2E0,6E0,3E0,8E0,3E0,4E0,4E0,6E0],"tree_param":{"num_deleted":"0","num_feature":"25","num_nodes":"41","size_leaf_vector":"1"}},{"base_weights":[1.4137471E0,-7.8268046E0,4.2025047E1,-1.7195587E1,3.3597393E0,3.3930996E1,1.035612E1,-2.0138874E0,-2.9990004E1,-4.179813E1,9.046019E0,4.9248535E1,2.5341553E1,-3.2262093E1,1.5951593E1,-4.423553E1,1.9037898E0,4.1269532E-1,-5.0140137E1,2.643192E1,-8.662955E0,7.115918E0,1.7488184E1,3.7143963E1,6.7892795E0,-8.057188E0,-1.8386503E-1,3.1708856E0,-1.5587219E0,-5.8519554E0,-2.9960328E-1,2.0298479E0,-1.6762869E0,-5.4288573E0,-1.4698975E0,-3.9886996E-1,3.4909756E0,3.6797264E0,-1.7772878E0,2.3118815E0,6.028158E-1,4.0356045E0,9.055176E-2,9.526367E-1,9.863281E-2],"categories":[],"categories_nodes":[],"categories_segments":[],"categories_sizes":[],"default_left":[0,0,0,0,0,0,0,0,0,0,0,0,0,0,0,0,0,0,0,0,0,0,0,0,0,0,0,0,0,0,0,0,0,0,0,0,0,0,0,0,0,0,0,0,0],"id":29,"left_children":[1,3,5,7,9,11,-1,13,15,17,19,21,23,25,27,29,31,-1,33,35,37,-1,39,41,43,-1,-1,-1,-1,-1,-1,-1,-1,-1,-1,-1,-1,-1,-1,-1,-1,-1,-1,-1,-1],"loss_changes":[6.0747523E4,1.3891941E4,1.1428375E4,1.3924951E4,1.6041703E4,2.4359004E3,0E0,1.8991033E4,1.7803633E4,2.8886768E3,1.7162734E4,5.0185645E3,4.127052E3,1.8958605E4,1.142749E4,1.5729453E4,4.804037E3,0E0,8.416797E1,7.3604746E3,1.2249889E4,0E0,1.8327197E2,1.3602676E3,1.3355258E2,0E0,0E0,0E0,0E0,0E0,0E0,0E0,0E0,0E0,0E0,0E0,0E0,0E0,0E0,0E0,0E0,0E0,0E0,0E0,0E0],"parents":[2147483647,0,0,1,1,2,2,3,3,4,4,5,5,7,7,8,8,9,9,10,10,11,11,12,12,13,13,14,14,15,15,16,16,18,18,19,19,20,20,22,22,23,23,24,24],"right_children":[2,4,6,8,10,12,-1,14,16,18,20,22,24,26,28,30,32,-1,34,36,38,-1,40,42,44,-1,-1,-1,-1,-1,-1,-1,-1,-1,-1,-1,-1,-1,-1,-1,-1,-1,-1,-1,-1],"split_conditions":[1.1826426E0,-1.940893E-1,2.7558093E0,2.2574903E-1,-1.253694E0,5.312522E-1,1.035612E1,-8.2859534E-1,1.2258882E-1,1.4998834E-1,2.6652446E-1,5.716808E-1,3.5821456E-1,-1.8172401E-1,7.31616E-1,1.0403109E0,-2.979344E-1,4.1269532E-1,2.6470017E-1,-9.6171564E-1,9.49563E-2,7.115918E0,-4.1254693E-1,1.6033807E0,6.302124E-1,-8.057188E0,-1.8386503E-1,3.1708856E0,-1.5587219E0,-5.8519554E0,-2.9960328E-1,2.0298479E0,-1.6762869E0,-5.4288573E0,-1.4698975E0,-3.9886996E-1,3.4909756E0,3.6797264E0,-1.7772878E0,2.3118815E0,6.028158E-1,4.0356045E0,9.055176E-2,9.526367E-1,9.863281E-2],"split_indices":[6,2,5,14,21,1,0,5,7,2,21,8,21,11,13,22,11,0,0,22,2,0,3,22,19,0,0,0,0,0,0,0,0,0,0,0,0,0,0,0,0,0,0,0,0],"split_type":[0,0,0,0,0,0,0,0,0,0,0,0,0,0,0,0,0,0,0,0,0,0,0,0,0,0,0,0,0,0,0,0,0,0,0,0,0,0,0,0,0,0,0,0,0],"sum_hessian":[1.6E2,1.31E2,2.9E1,7.1E1,6E1,2.7E1,2E0,3.3E1,3.8E1,6E0,5.4E1,8E0,1.9E1,1.2E1,2.1E1,2.6E1,1.2E1,1E0,5E0,2.7E1,2.7E1,4E0,4E0,1.1E1,8E0,4E0,8E0,1.4E1,7E0,1.9E1,7E0,6E0,6E0,4E0,1E0,6E0,2.1E1,4E0,2.3E1,2E0,2E0,1E1,1E0,5E0,3E0],"tree_param":{"num_deleted":"0","num_feature":"25","num_nodes":"45","size_leaf_vector":"1"}},{"base_weights":[1.3447083E0,-6.9937735E0,3.954034E1,-3.867294E1,-4.1038175E0,3.1729565E1,9.665723E0,-4.7685547E1,1.2558594E0,-1.2710245E1,8.295654E0,4.5438206E1,2.3566021E1,-5.3727478E1,3.249512E-2,-1.8156739E-1,3.699463E-1,-6.2143555E1,-8.161568E0,1.640443E1,-5.525423E1,2.044808E1,7.1563845E0,3.5609997E1,6.2271595E0,-6.2684164E0,-1.7904948E0,-7.629144E0,-2.2565186E0,-5.285282E-1,-6.8719325E0,6.0454297E0,1.0769817E0,-2.2875978E-2,-6.621358E0,2.6452515E0,5.626139E-1,3.8998926E0,8.6035155E-2,8.732503E-1,9.1235355E-2],"categories":[],"categories_nodes":[],"categories_segments":[],"categories_sizes":[],"default_left":[0,0,0,0,0,0,0,0,0,0,0,0,0,0,0,0,0,0,0,0,0,0,0,0,0,0,0,0,0,0,0,0,0,0,0,0,0,0,0,0,0],"id":30,"left_children":[1,3,5,7,9,11,-1,13,15,17,19,21,23,25,-1,-1,-1,27,29,31,33,35,-1,37,39,-1,-1,-1,-1,-1,-1,-1,-1,-1,-1,-1,-1,-1,-1,-1,-1],"loss_changes":[5.1554004E4,1.2017632E4,9.870805E3,4.018375E3,1.3231404E4,1.9508027E3,0E0,2.6281426E3,2.9233845E1,1.5907313E4,2.7187312E4,4.4126035E3,3.745999E3,1.4444531E3,0E0,0E0,0E0,1.6381719E3,1.1481133E4,1.0766301E4,3.6031113E3,3.851587E2,0E0,1.2618525E3,1.1187161E2,0E0,0E0,0E0,0E0,0E0,0E0,0E0,0E0,0E0,0E0,0E0,0E0,0E0,0E0,0E0,0E0],"parents":[2147483647,0,0,1,1,2,2,3,3,4,4,5,5,7,7,8,8,9,9,10,10,11,11,12,12,13,13,17,17,18,18,19,19,20,20,21,21,23,23,24,24],"right_children":[2,4,6,8,10,12,-1,14,16,18,20,22,24,26,-1,-1,-1,28,30,32,34,36,-1,38,40,-1,-1,-1,-1,-1,-1,-1,-1,-1,-1,-1,-1,-1,-1,-1,-1],"split_conditions":[1.1890721E0,-1.4359431E0,2.7558093E0,1.4903789E0,-4.105787E-1,5.312522E-1,9.665723E0,1.2093402E0,-1.6117154E0,-6.0560703E-1,1.1776763E0,3.0985007E-3,3.5821456E-1,-1.6287863E-1,3.249512E-2,-1.8156739E-1,3.699463E-1,5.716808E-1,1.6659441E0,-3.4459087E-1,-7.929267E-1,-4.1254693E-1,7.1563845E0,1.6033807E0,6.302124E-1,-6.2684164E0,-1.7904948E0,-7.629144E0,-2.2565186E0,-5.285282E-1,-6.8719325E0,6.0454297E0,1.0769817E0,-2.2875978E-2,-6.621358E0,2.6452515E0,5.626139E-1,3.8998926E0,8.6035155E-2,8.732503E-1,9.1235355E-2],"split_indices":[6,13,5,12,5,1,0,1,0,7,0,12,21,5,0,0,0,8,22,6,2,3,0,22,19,0,0,0,0,0,0,0,0,0,0,0,0,0,0,0,0],"split_type":[0,0,0,0,0,0,0,0,0,0,0,0,0,0,0,0,0,0,0,0,0,0,0,0,0,0,0,0,0,0,0,0,0,0,0,0,0,0,0,0,0],"sum_hessian":[1.6E2,1.32E2,2.8E1,1E1,1.22E2,2.6E1,2E0,8E0,2E0,7.2E1,5E1,8E0,1.8E1,7E0,1E0,1E0,1E0,5E0,6.7E1,4.5E1,5E0,5E0,3E0,1E1,8E0,5E0,2E0,3E0,2E0,6.5E1,2E0,4E0,4.1E1,1E0,4E0,3E0,2E0,9E0,1E0,5E0,3E0],"tree_param":{"num_deleted":"0","num_feature":"25","num_nodes":"41","size_leaf_vector":"1"}},{"base_weights":[1.2122144E0,-8.067502E0,3.044793E1,-1.1083824E1,2.3651766E1,2.5699951E1,1.0543555E1,-9.118146E0,-6.236902E1,3.3520164E1,-3.7516115E0,1.5077393E1,3.552896E1,-2.8916492E1,-3.839963E0,-5.362549E-1,-7.958366E0,4.280805E0,-2.50354E0,2.9336426E0,9.679108E0,1.14088745E1,4.8648273E1,-5.2343955E0,-3.0793256E-1,2.3242872E0,-9.277835E-1,1.9324545E0,3.5380417E-1,2.0829346E0,1.5907227E-1,1.066084E0,6.630939E0],"categories":[],"categories_nodes":[],"categories_segments":[],"categories_sizes":[],"default_left":[0,0,0,0,0,0,0,0,0,0,0,0,0,0,0,0,0,0,0,0,0,0,0,0,0,0,0,0,0,0,0,0,0],"id":31,"left_children":[1,3,5,7,9,11,-1,13,15,17,-1,19,21,23,25,-1,-1,-1,-1,-1,27,29,31,-1,-1,-1,-1,-1,-1,-1,-1,-1,-1],"loss_changes":[4.39248E4,1.2030244E4,1.1175855E4,1.0822861E4,7.897467E3,3.4318691E3,0E0,1.1383884E4,3.4986113E3,6.510291E3,0E0,1.2555356E3,5.4573184E3,1.3760699E4,1.3175667E4,0E0,0E0,0E0,0E0,0E0,8.793612E2,7.067992E2,7.3438887E3,0E0,0E0,0E0,0E0,0E0,0E0,0E0,0E0,0E0,0E0],"parents":[2147483647,0,0,1,1,2,2,3,3,4,4,5,5,7,7,8,8,9,9,11,11,12,12,13,13,14,14,20,20,21,21,22,22],"right_children":[2,4,6,8,10,12,-1,14,16,18,-1,20,22,24,26,-1,-1,-1,-1,-1,28,30,32,-1,-1,-1,-1,-1,-1,-1,-1,-1,-1],"split_conditions":[4.6197277E-1,1.5001962E0,1.701898E0,1.6933187E0,4.8889524E-1,-1.483924E-1,1.0543555E1,-1.0202347E0,-1.4217875E0,-3.6060882E-1,-3.7516115E0,-8.970217E-1,3.0985007E-3,4.468019E-1,-4.6294963E-1,-5.362549E-1,-7.958366E0,4.280805E0,-2.50354E0,2.9336426E0,3.8049236E-1,7.67961E-1,-6.4782125E-1,-5.2343955E0,-3.0793256E-1,2.3242872E0,-9.277835E-1,1.9324545E0,3.5380417E-1,2.0829346E0,1.5907227E-1,1.066084E0,6.630939E0],"split_indices":[5,21,2,23,6,22,0,23,0,3,0,20,12,9,23,0,0,0,0,0,1,0,13,0,0,0,0,0,0,0,0,0,0],"split_type":[0,0,0,0,0,0,0,0,0,0,0,0,0,0,0,0,0,0,0,0,0,0,0,0,0,0,0,0,0,0,0,0,0],"sum_hessian":[1.6E2,1.22E2,3.8E1,1.12E2,1E1,3.7E1,1E0,1.09E2,3E0,9E0,1E0,1.9E1,1.8E1,2.2E1,8.7E1,1E0,2E0,8E0,1E0,4E0,1.5E1,7E0,1.1E1,1.1E1,1.1E1,1.4E1,7.3E1,5E0,1E1,3E0,4E0,4E0,7E0],"tree_param":{"num_deleted":"0","num_feature":"25","num_nodes":"33","size_leaf_vector":"1"}},{"base_weights":[1.1598393E0,-5.9324465E0,3.3646534E1,-3.537875E1,-3.2508059E0,2.7693638E1,1.0016382E1,-4.3844536E1,1.8115234E0,-3.427974E1,-2.0152189E-1,3.478894E1,1.6830679E1,-4.9111725E1,-8.5351564E-2,-1.2609863E-1,3.9782715E-1,-4.193647E1,1.1702474E-1,2.0848758E0,-5.000469E1,1.6866943E1,4.6854168E1,2.2351318E1,6.6647134E0,-5.7332644E0,-1.6299317E0,-5.191009E0,-4.6858725E-1,4.6486816E-1,-4.4731447E-1,1.0193459E0,-9.241954E-1,-6.1812015E0,-1.3876954E-1,2.363545E0,4.1895753E-1,6.5836344E0,6.667358E-1,7.37793E-2,2.5333567E0,-4.6435546E-2,8.183398E-1],"categories":[],"categories_nodes":[],"categories_segments":[],"categories_sizes":[],"default_left":[0,0,0,0,0,0,0,0,0,0,0,0,0,0,0,0,0,0,0,0,0,0,0,0,0,0,0,0,0,0,0,0,0,0,0,0,0,0,0,0,0,0,0],"id":32,"left_children":[1,3,5,7,9,11,-1,13,15,17,19,21,23,25,-1,-1,-1,27,29,31,33,35,37,39,41,-1,-1,-1,-1,-1,-1,-1,-1,-1,-1,-1,-1,-1,-1,-1,-1,-1,-1],"loss_changes":[3.72948E4,1.0387256E4,8.709242E3,3.5427197E3,1.1630863E4,1.5726074E3,0E0,1.9960586E3,2.498861E1,2.9019414E3,1.2971546E4,2.6694395E3,5.806289E2,1.2235039E3,0E0,0E0,0E0,3.1004658E3,8.319744E1,1.0105263E4,2.7844072E3,5.874324E2,6.426543E3,4.9696436E2,6.876083E1,0E0,0E0,0E0,0E0,0E0,0E0,0E0,0E0,0E0,0E0,0E0,0E0,0E0,0E0,0E0,0E0,0E0,0E0],"parents":[2147483647,0,0,1,1,2,2,3,3,4,4,5,5,7,7,8,8,9,9,10,10,11,11,12,12,13,13,17,17,18,18,19,19,20,20,21,21,22,22,23,23,24,24],"right_children":[2,4,6,8,10,12,-1,14,16,18,20,22,24,26,-1,-1,-1,28,30,32,34,36,38,40,42,-1,-1,-1,-1,-1,-1,-1,-1,-1,-1,-1,-1,-1,-1,-1,-1,-1,-1],"split_conditions":[1.1890721E0,-1.4359431E0,1.701898E0,1.4903789E0,-1.412432E0,1.1337407E0,1.0016382E1,1.2093402E0,-1.6117154E0,4.6677715E-1,1.6659441E0,3.0985007E-3,3.5821456E-1,-1.6287863E-1,-8.5351564E-2,-1.2609863E-1,3.9782715E-1,6.4769024E-1,-4.9751362E-1,4.2368862E-1,-2.4587066E-1,-4.1254693E-1,9.8155034E-1,1.3491096E0,2.4563019E-1,-5.7332644E0,-1.6299317E0,-5.191009E0,-4.6858725E-1,4.6486816E-1,-4.4731447E-1,1.0193459E0,-9.241954E-1,-6.1812015E0,-1.3876954E-1,2.363545E0,4.1895753E-1,6.5836344E0,6.667358E-1,7.37793E-2,2.5333567E0,-4.6435546E-2,8.183398E-1],"split_indices":[6,13,2,12,21,1,0,1,0,13,22,12,21,5,0,0,0,15,0,13,1,3,19,1,0,0,0,0,0,0,0,0,0,0,0,0,0,0,0,0,0,0,0],"split_type":[0,0,0,0,0,0,0,0,0,0,0,0,0,0,0,0,0,0,0,0,0,0,0,0,0,0,0,0,0,0,0,0,0,0,0,0,0,0,0,0,0,0,0],"sum_hessian":[1.6E2,1.32E2,2.8E1,1E1,1.22E2,2.7E1,1E0,8E0,2E0,1E1,1.12E2,1.5E1,1.2E1,7E0,1E0,1E0,1E0,8E0,2E0,1.08E2,4E0,7E0,8E0,7E0,5E0,5E0,2E0,6E0,2E0,1E0,1E0,6.3E1,4.5E1,3E0,1E0,4E0,3E0,5E0,3E0,1E0,6E0,1E0,4E0],"tree_param":{"num_deleted":"0","num_feature":"25","num_nodes":"43","size_leaf_vector":"1"}},{"base_weights":[1.0710601E0,-8.928338E0,2.1050022E1,-6.972061E0,-5.8048523E1,-2.8619823E1,2.5596006E1,5.6662807E0,-1.6921722E1,-5.604248E-1,-7.3661866E0,-4.17238E0,-5.9759116E0,2.2234474E1,9.515552E0,-6.5239015E0,2.5668457E1,-2.355633E1,1.1026855E1,-7.868897E-1,-1.0949707E-1,2.6158907E1,-5.049107E0,-1.1495806E0,4.205518E0,-7.258789E-1,3.889115E0,-5.2232947E-2,-3.1219823E0,-1.4680176E0,3.9180584E0,2.9206812E0,-1.0859864E0,-1.572168E0,6.8857425E-1],"categories":[],"categories_nodes":[],"categories_segments":[],"categories_sizes":[],"default_left":[0,0,0,0,0,0,0,0,0,0,0,0,0,0,0,0,0,0,0,0,0,0,0,0,0,0,0,0,0,0,0,0,0,0,0],"id":33,"left_children":[1,3,5,7,9,11,13,15,17,-1,-1,-1,19,21,-1,23,25,27,29,-1,-1,31,33,-1,-1,-1,-1,-1,-1,-1,-1,-1,-1,-1,-1],"loss_changes":[3.2352135E4,9.973292E3,1.2925662E4,1.329934E4,2.862502E3,1.2342883E3,9.575592E3,1.1627477E4,1.1199996E4,0E0,0E0,0E0,1.9102432E1,5.378633E3,0E0,7.729374E3,8.1192676E3,8.456695E3,9.260162E3,0E0,0E0,5.1688574E3,9.998843E2,0E0,0E0,0E0,0E0,0E0,0E0,0E0,0E0,0E0,0E0,0E0,0E0],"parents":[2147483647,0,0,1,1,2,2,3,3,4,4,5,5,6,6,7,7,8,8,12,12,13,13,15,15,16,16,17,17,18,18,21,21,22,22],"right_children":[2,4,6,8,10,12,14,16,18,-1,-1,-1,20,22,-1,24,26,28,30,-1,-1,32,34,-1,-1,-1,-1,-1,-1,-1,-1,-1,-1,-1,-1],"split_conditions":[8.339007E-2,1.7066835E0,-5.318916E-1,2.2574903E-1,-1.4217875E0,-6.995234E-1,1.701898E0,3.269343E-1,1.3139924E0,-5.604248E-1,-7.3661866E0,-4.17238E0,9.28861E-1,-1.5406828E-1,9.515552E0,1.4384545E0,-1.1503986E0,-1.1975815E0,1.4297439E0,-7.868897E-1,-1.0949707E-1,1.9134172E0,5.491083E-1,-1.1495806E0,4.205518E0,-7.258789E-1,3.889115E0,-5.2232947E-2,-3.1219823E0,-1.4680176E0,3.9180584E0,2.9206812E0,-1.0859864E0,-1.572168E0,6.8857425E-1],"split_indices":[5,23,1,14,0,1,2,0,13,0,0,0,0,7,0,2,23,1,14,0,0,16,5,0,0,0,0,0,0,0,0,0,0,0,0],"split_type":[0,0,0,0,0,0,0,0,0,0,0,0,0,0,0,0,0,0,0,0,0,0,0,0,0,0,0,0,0,0,0,0,0,0,0],"sum_hessian":[1.6E2,1.07E2,5.3E1,1.04E2,3E0,4E0,4.9E1,4.6E1,5.8E1,1E0,2E0,2E0,2E0,4.8E1,1E0,2.9E1,1.7E1,4.7E1,1.1E1,1E0,1E0,4.2E1,6E0,2.7E1,2E0,5E0,1.2E1,1.2E1,3.5E1,6E0,5E0,3.9E1,3E0,3E0,3E0],"tree_param":{"num_deleted":"0","num_feature":"25","num_nodes":"35","size_leaf_vector":"1"}},{"base_weights":[9.8232937E-1,-4.3805676E0,3.1778055E1,-1.3792153E1,2.6152344E0,2.529904E1,9.039771E0,-2.5156435E1,-2.7161431E0,-1.02948E0,3.1482368E1,1.5227434E1,3.6869385E1,-5.871138E-1,-3.8056755E1,-2.8163116E1,5.879354E0,1.3073505E1,-8.809228E0,-3.430957E0,6.009922E0,2.1442627E1,5.9490094E0,1.3934978E1,5.7016796E1,-4.328632E0,2.0835876E0,5.7808596E-1,-5.013218E0,-8.0561525E-1,-5.898934E0,1.674414E0,-1.7943238E0,-7.6759213E-1,3.4413388E0,-2.526493E0,2.275862E-1,-1.5037965E0,2.1498535E0,2.4722867E0,-7.595215E-2,1.0239868E0,1.7089844E-2,3.8183596E-2,2.061609E0,6.921106E0,4.119873E-1],"categories":[],"categories_nodes":[],"categories_segments":[],"categories_sizes":[],"default_left":[0,0,0,0,0,0,0,0,0,0,0,0,0,0,0,0,0,0,0,0,0,0,0,0,0,0,0,0,0,0,0,0,0,0,0,0,0,0,0,0,0,0,0,0,0,0,0],"id":34,"left_children":[1,3,5,7,9,11,-1,13,15,17,19,21,23,25,27,29,31,33,35,37,-1,39,41,43,45,-1,-1,-1,-1,-1,-1,-1,-1,-1,-1,-1,-1,-1,-1,-1,-1,-1,-1,-1,-1,-1,-1],"loss_changes":[2.6729049E4,9.12221E3,6.82817E3,7.3580557E3,8.449406E3,2.1188076E3,0E0,9.169266E3,6.946192E3,8.0148394E3,9.198185E3,6.7977856E2,3.8261602E3,1.0964099E4,1.0347602E4,4.4833467E3,6.512301E3,1.1776702E4,8.630908E3,1.7700781E3,0E0,6.014043E2,1.718014E2,5.3542834E2,2.9400557E3,0E0,0E0,0E0,0E0,0E0,0E0,0E0,0E0,0E0,0E0,0E0,0E0,0E0,0E0,0E0,0E0,0E0,0E0,0E0,0E0,0E0,0E0],"parents":[2147483647,0,0,1,1,2,2,3,3,4,4,5,5,7,7,8,8,9,9,10,10,11,11,12,12,13,13,14,14,15,15,16,16,17,17,18,18,19,19,21,21,22,22,23,23,24,24],"right_children":[2,4,6,8,10,12,-1,14,16,18,20,22,24,26,28,30,32,34,36,38,-1,40,42,44,46,-1,-1,-1,-1,-1,-1,-1,-1,-1,-1,-1,-1,-1,-1,-1,-1,-1,-1,-1,-1,-1,-1],"split_conditions":[1.4260864E0,-6.2227774E-1,1.701898E0,-1.4863217E-1,1.4297439E0,5.6638736E-1,9.039771E0,-1.2802167E0,-3.1343767E-1,-3.258705E-1,-3.1343767E-1,-4.3553966E-1,-7.707482E-1,-1.5704597E0,-4.7518852E-1,-1.9503151E-1,5.200265E-1,-1.1631473E0,-1.9461012E-2,-4.1254693E-1,6.009922E0,7.522673E-1,-4.1254693E-1,2.8894886E-1,1.1337407E0,-4.328632E0,2.0835876E0,5.7808596E-1,-5.013218E0,-8.0561525E-1,-5.898934E0,1.674414E0,-1.7943238E0,-7.6759213E-1,3.4413388E0,-2.526493E0,2.275862E-1,-1.5037965E0,2.1498535E0,2.4722867E0,-7.595215E-2,1.0239868E0,1.7089844E-2,3.8183596E-2,2.061609E0,6.921106E0,4.119873E-1],"split_indices":[5,5,2,13,14,24,0,13,24,23,24,7,23,13,7,16,4,23,6,3,0,9,3,0,1,0,0,0,0,0,0,0,0,0,0,0,0,0,0,0,0,0,0,0,0,0,0],"split_type":[0,0,0,0,0,0,0,0,0,0,0,0,0,0,0,0,0,0,0,0,0,0,0,0,0,0,0,0,0,0,0,0,0,0,0,0,0,0,0,0,0,0,0,0,0,0,0],"sum_hessian":[1.6E2,1.37E2,2.3E1,5.8E1,7.9E1,2.2E1,1E0,2.8E1,3E1,7.1E1,8E0,1.3E1,9E0,1E1,1.8E1,7E0,2.3E1,2.5E1,4.6E1,4E0,4E0,7E0,6E0,5E0,4E0,3E0,7E0,4E0,1.4E1,5E0,2E0,1.6E1,7E0,1.3E1,1.2E1,1.8E1,2.8E1,3E0,1E0,6E0,1E0,3E0,3E0,2E0,3E0,3E0,1E0],"tree_param":{"num_deleted":"0","num_feature":"25","num_nodes":"47","size_leaf_vector":"1"}},{"base_weights":[9.7999865E-1,-3.98941E0,2.9513266E1,-3.0116455E1,-1.7129498E0,2.3328804E1,8.587793E0,-3.73466E1,1.612793E0,-4.386065E-2,-4.276377E1,1.39503E1,3.412583E1,-4.1942047E1,-2.9150391E-2,-6.7871094E-2,3.0979005E-1,-2.8535955E1,2.7057612E0,-5.379419E1,6.789551E-2,1.9598022E1,5.50286E0,1.28915205E1,5.2781837E1,-4.9057903E0,-1.3729656E0,-3.5714843E0,2.5126955E-1,9.8419565E-1,-6.9614756E-1,-6.0782065E0,-1.6415284E0,2.2603865E0,-7.2143555E-2,-1.2711589E-1,8.4667E-1,3.564453E-2,1.9069947E0,6.4020386E0,3.9138183E-1],"categories":[],"categories_nodes":[],"categories_segments":[],"categories_sizes":[],"default_left":[0,0,0,0,0,0,0,0,0,0,0,0,0,0,0,0,0,0,0,0,0,0,0,0,0,0,0,0,0,0,0,0,0,0,0,0,0,0,0,0,0],"id":35,"left_children":[1,3,5,7,9,11,-1,13,15,17,19,21,23,25,-1,-1,-1,27,29,31,-1,33,35,37,39,-1,-1,-1,-1,-1,-1,-1,-1,-1,-1,-1,-1,-1,-1,-1,-1],"loss_changes":[2.2946488E4,8.1562617E3,6.3626113E3,2.583711E3,8.768361E3,1.8529141E3,0E0,1.5203369E3,1.2311968E1,9.791681E3,2.4324805E3,5.600779E2,3.2810361E3,9.3249414E2,0E0,0E0,0E0,2.541582E3,7.9330654E3,4.7041992E1,0E0,5.0492383E2,1.5130226E2,4.578847E2,2.4954648E3,0E0,0E0,0E0,0E0,0E0,0E0,0E0,0E0,0E0,0E0,0E0,0E0,0E0,0E0,0E0,0E0],"parents":[2147483647,0,0,1,1,2,2,3,3,4,4,5,5,7,7,8,8,9,9,10,10,11,11,12,12,13,13,17,17,18,18,19,19,21,21,22,22,23,23,24,24],"right_children":[2,4,6,8,10,12,-1,14,16,18,20,22,24,26,-1,-1,-1,28,30,32,-1,34,36,38,40,-1,-1,-1,-1,-1,-1,-1,-1,-1,-1,-1,-1,-1,-1,-1,-1],"split_conditions":[1.4260864E0,-1.4359431E0,1.701898E0,1.4903789E0,1.6659441E0,5.6638736E-1,8.587793E0,1.2093402E0,-1.6117154E0,-1.412432E0,-2.4587066E-1,-4.3553966E-1,-7.707482E-1,-1.6287863E-1,-2.9150391E-2,-6.7871094E-2,3.0979005E-1,4.6677715E-1,4.2368862E-1,-1.8750632E-1,6.789551E-2,7.522673E-1,2.2574903E-1,2.8894886E-1,1.1337407E0,-4.9057903E0,-1.3729656E0,-3.5714843E0,2.5126955E-1,9.8419565E-1,-6.9614756E-1,-6.0782065E0,-1.6415284E0,2.2603865E0,-7.2143555E-2,-1.2711589E-1,8.4667E-1,3.564453E-2,1.9069947E0,6.4020386E0,3.9138183E-1],"split_indices":[5,13,2,12,22,24,0,1,0,21,1,7,23,5,0,0,0,13,13,3,0,9,14,0,1,0,0,0,0,0,0,0,0,0,0,0,0,0,0,0,0],"split_type":[0,0,0,0,0,0,0,0,0,0,0,0,0,0,0,0,0,0,0,0,0,0,0,0,0,0,0,0,0,0,0,0,0,0,0,0,0,0,0,0,0],"sum_hessian":[1.6E2,1.37E2,2.3E1,1E1,1.27E2,2.2E1,1E0,8E0,2E0,1.23E2,4E0,1.3E1,9E0,7E0,1E0,1E0,1E0,1E1,1.13E2,3E0,1E0,7E0,6E0,5E0,4E0,5E0,2E0,8E0,2E0,6.5E1,4.8E1,2E0,1E0,6E0,1E0,2E0,4E0,2E0,3E0,3E0,1E0],"tree_param":{"num_deleted":"0","num_feature":"25","num_nodes":"41","size_leaf_vector":"1"}},{"base_weights":[9.0359324E-1,-7.0656695E0,1.6825386E1,-5.2936196E0,-5.181555E1,-2.5184864E1,2.0689903E1,5.339485E0,-1.3674337E1,-5.41333E-1,-6.5478516E0,-3.6835773E0,-5.1389976E0,1.7782187E1,8.158399E0,-5.3499756E0,2.2858616E1,-2.2440758E1,2.0892222E0,-6.902588E-1,-8.059082E-2,2.1025845E1,-4.683454E0,-2.6439357E0,4.9473473E-1,-5.566569E-1,3.4219577E0,-3.479725E0,3.9984414E-1,-3.125923E0,1.1236614E0,7.7053654E-1,2.8634079E0,-1.3942139E0,5.746094E-1],"categories":[],"categories_nodes":[],"categories_segments":[],"categories_sizes":[],"default_left":[0,0,0,0,0,0,0,0,0,0,0,0,0,0,0,0,0,0,0,0,0,0,0,0,0,0,0,0,0,0,0,0,0,0,0],"id":36,"left_children":[1,3,5,7,9,11,13,15,17,-1,-1,-1,19,21,-1,23,25,27,29,-1,-1,31,33,-1,-1,-1,-1,-1,-1,-1,-1,-1,-1,-1,-1],"loss_changes":[2.0547357E4,8.29E3,9.287935E3,9.429885E3,2.1815117E3,9.7846436E2,7.4023926E3,8.923985E3,8.200093E3,0E0,0E0,0E0,1.7362534E1,3.6691465E3,0E0,6.6457295E3,6.0033594E3,1.2553574E4,7.0623765E3,0E0,0E0,4.137211E3,7.5606006E2,0E0,0E0,0E0,0E0,0E0,0E0,0E0,0E0,0E0,0E0,0E0,0E0],"parents":[2147483647,0,0,1,1,2,2,3,3,4,4,5,5,6,6,7,7,8,8,12,12,13,13,15,15,16,16,17,17,18,18,21,21,22,22],"right_children":[2,4,6,8,10,12,14,16,18,-1,-1,-1,20,22,-1,24,26,28,30,-1,-1,32,34,-1,-1,-1,-1,-1,-1,-1,-1,-1,-1,-1,-1],"split_conditions":[8.339007E-2,1.7066835E0,-5.318916E-1,2.2574903E-1,-1.4217875E0,-6.995234E-1,1.701898E0,3.269343E-1,-1.940893E-1,-5.41333E-1,-6.5478516E0,-3.6835773E0,9.28861E-1,-1.5406828E-1,8.158399E0,-7.751393E-1,-1.1503986E0,1.2258882E-1,-7.751393E-1,-6.902588E-1,-8.059082E-2,3.998072E-1,5.491083E-1,-2.6439357E0,4.9473473E-1,-5.566569E-1,3.4219577E0,-3.479725E0,3.9984414E-1,-3.125923E0,1.1236614E0,7.7053654E-1,2.8634079E0,-1.3942139E0,5.746094E-1],"split_indices":[5,23,1,14,0,1,2,0,2,0,0,0,0,7,0,19,23,7,19,0,0,9,5,0,0,0,0,0,0,0,0,0,0,0,0],"split_type":[0,0,0,0,0,0,0,0,0,0,0,0,0,0,0,0,0,0,0,0,0,0,0,0,0,0,0,0,0,0,0,0,0,0,0],"sum_hessian":[1.6E2,1.07E2,5.3E1,1.04E2,3E0,4E0,4.9E1,4.6E1,5.8E1,1E0,2E0,2E0,2E0,4.8E1,1E0,2.9E1,1.7E1,3.7E1,2.1E1,1E0,1E0,4.2E1,6E0,9E0,2E1,5E0,1.2E1,2.5E1,1.2E1,4E0,1.7E1,1.6E1,2.6E1,3E0,3E0],"tree_param":{"num_deleted":"0","num_feature":"25","num_nodes":"35","size_leaf_vector":"1"}},{"base_weights":[7.825966E-1,-6.4651604E0,1.52636175E1,-4.8058314E0,-4.840625E1,-2.3557226E1,1.884043E1,-2.1969038E1,-2.5349355E-1,-5.1425785E-1,-6.111328E0,-3.4380047E0,-4.8819985E0,1.6061464E1,7.7504883E0,-4.6316967E1,-1.5499362E0,1.194361E1,-8.786396E0,-6.5573734E-1,-7.65625E-2,4.970866E0,1.3572037E1,-5.0275908E0,-5.343262E-1,-3.3455853E0,2.2573242E0,6.1888587E-2,3.1060922E0,2.6558874E0,-1.4209818E0,2.9521486E-1,2.2036095E0],"categories":[],"categories_nodes":[],"categories_segments":[],"categories_sizes":[],"default_left":[0,0,0,0,0,0,0,0,0,0,0,0,0,0,0,0,0,0,0,0,0,0,0,0,0,0,0,0,0,0,0,0,0],"id":37,"left_children":[1,3,5,7,9,11,13,15,17,-1,-1,-1,19,21,-1,23,25,27,29,-1,-1,-1,31,-1,-1,-1,-1,-1,-1,-1,-1,-1,-1],"loss_changes":[1.6996424E4,7.283526E3,7.941991E3,8.198366E3,1.8847324E3,8.4274976E2,6.9064844E3,1.0865795E4,8.847385E3,0E0,0E0,0E0,1.5668915E1,3.4297021E3,0E0,1.3534863E3,1.0760944E4,7.558217E3,9.962009E3,0E0,0E0,0E0,4.1596523E3,0E0,0E0,0E0,0E0,0E0,0E0,0E0,0E0,0E0,0E0],"parents":[2147483647,0,0,1,1,2,2,3,3,4,4,5,5,6,6,7,7,8,8,12,12,13,13,15,15,16,16,17,17,18,18,22,22],"right_children":[2,4,6,8,10,12,14,16,18,-1,-1,-1,20,22,-1,24,26,28,30,-1,-1,-1,32,-1,-1,-1,-1,-1,-1,-1,-1,-1,-1],"split_conditions":[8.339007E-2,1.7066835E0,-5.318916E-1,-1.0202347E0,-1.4217875E0,-6.995234E-1,1.701898E0,-3.64115E-1,2.2574903E-1,-5.1425785E-1,-6.111328E0,-3.4380047E0,9.28861E-1,-4.6004978E-1,7.7504883E0,1.5936799E0,4.468019E-1,3.269343E-1,-1.3338095E0,-6.5573734E-1,-7.65625E-2,4.970866E0,2.2574903E-1,-5.0275908E0,-5.343262E-1,-3.3455853E0,2.2573242E0,6.1888587E-2,3.1060922E0,2.6558874E0,-1.4209818E0,2.9521486E-1,2.2036095E0],"split_indices":[5,23,1,23,0,1,2,13,14,0,0,0,0,0,0,8,9,0,1,0,0,0,14,0,0,0,0,0,0,0,0,0,0],"split_type":[0,0,0,0,0,0,0,0,0,0,0,0,0,0,0,0,0,0,0,0,0,0,0,0,0,0,0,0,0,0,0,0,0],"sum_hessian":[1.6E2,1.07E2,5.3E1,1.04E2,3E0,4E0,4.9E1,2.1E1,8.3E1,1E0,2E0,2E0,2E0,4.8E1,1E0,9E0,1.2E1,3.4E1,4.9E1,1E0,1E0,2E0,4.6E1,8E0,1E0,5E0,7E0,2.2E1,1.2E1,6E0,4.3E1,2.1E1,2.5E1],"tree_param":{"num_deleted":"0","num_feature":"25","num_nodes":"33","size_leaf_vector":"1"}},{"base_weights":[7.178189E-1,-3.3658724E0,2.3067734E1,-3.2228516E1,-1.7979E0,1.7893087E1,7.362964E0,4.6559243E0,-4.7913475E0,3.016864E1,-3.8457582E0,2.5260855E1,8.420247E0,6.136231E-1,8.476563E-2,2.3870442E0,3.9031332E0,-9.101357E-1,-2.108275E1,7.976702E0,3.8936314E1,1.2397888E1,3.7197265E-1,-7.902832E-2,4.3708497E-1,-2.5180736E-1,4.112378E0,-3.8275597E0,1.9682211E0,1.663855E0,